tree
version=v4
num_class=1
num_tree_per_iteration=1
label_index=0
max_feature_idx=609
objective=binary sigmoid:1
feature_names=active_quarter active_quarter_lag_0 cliente_vip cliente_vip_lag_1 internet internet_lag_2 cliente_edad cliente_edad_lag_3 cliente_antiguedad cliente_antiguedad_lag_4 mrentabilidad mrentabilidad_lag_5 mrentabilidad_annual mrentabilidad_annual_lag_6 mcomisiones mcomisiones_lag_7 mactivos_margen mactivos_margen_lag_8 mpasivos_margen mpasivos_margen_lag_9 cproductos cproductos_lag_10 tcuentas tcuentas_lag_11 ccuenta_corriente ccuenta_corriente_lag_12 mcuenta_corriente_adicional mcuenta_corriente_adicional_lag_13 mcuenta_corriente mcuenta_corriente_lag_14 ccaja_ahorro ccaja_ahorro_lag_15 mcaja_ahorro mcaja_ahorro_lag_16 mcaja_ahorro_adicional mcaja_ahorro_adicional_lag_17 mcaja_ahorro_dolares mcaja_ahorro_dolares_lag_18 cdescubierto_preacordado cdescubierto_preacordado_lag_19 mcuentas_saldo mcuentas_saldo_lag_20 ctarjeta_debito ctarjeta_debito_lag_21 ctarjeta_debito_transacciones ctarjeta_debito_transacciones_lag_22 mautoservicio mautoservicio_lag_23 ctarjeta_visa ctarjeta_visa_lag_24 ctarjeta_visa_transacciones ctarjeta_visa_transacciones_lag_25 mtarjeta_visa_consumo mtarjeta_visa_consumo_lag_26 ctarjeta_master ctarjeta_master_lag_27 ctarjeta_master_transacciones ctarjeta_master_transacciones_lag_28 mtarjeta_master_consumo mtarjeta_master_consumo_lag_29 cprestamos_personales cprestamos_personales_lag_30 mprestamos_personales mprestamos_personales_lag_31 cprestamos_prendarios cprestamos_prendarios_lag_32 mprestamos_prendarios mprestamos_prendarios_lag_33 cprestamos_hipotecarios cprestamos_hipotecarios_lag_34 mprestamos_hipotecarios mprestamos_hipotecarios_lag_35 cplazo_fijo cplazo_fijo_lag_36 mplazo_fijo_dolares mplazo_fijo_dolares_lag_37 mplazo_fijo_pesos mplazo_fijo_pesos_lag_38 cinversion1 cinversion1_lag_39 minversion1_pesos minversion1_pesos_lag_40 minversion1_dolares minversion1_dolares_lag_41 cinversion2 cinversion2_lag_42 minversion2 minversion2_lag_43 cseguro_vida cseguro_vida_lag_44 cseguro_auto cseguro_auto_lag_45 cseguro_vivienda cseguro_vivienda_lag_46 cseguro_accidentes_personales cseguro_accidentes_personales_lag_47 ccaja_seguridad ccaja_seguridad_lag_48 cpayroll_trx cpayroll_trx_lag_49 mpayroll mpayroll_lag_50 mpayroll2 mpayroll2_lag_51 cpayroll2_trx cpayroll2_trx_lag_52 ccuenta_debitos_automaticos ccuenta_debitos_automaticos_lag_53 mcuenta_debitos_automaticos mcuenta_debitos_automaticos_lag_54 ctarjeta_visa_debitos_automaticos ctarjeta_visa_debitos_automaticos_lag_55 mttarjeta_visa_debitos_automaticos mttarjeta_visa_debitos_automaticos_lag_56 ctarjeta_master_debitos_automaticos ctarjeta_master_debitos_automaticos_lag_57 mttarjeta_master_debitos_automaticos mttarjeta_master_debitos_automaticos_lag_58 cpagodeservicios cpagodeservicios_lag_59 mpagodeservicios mpagodeservicios_lag_60 cpagomiscuentas cpagomiscuentas_lag_61 mpagomiscuentas mpagomiscuentas_lag_62 ccajeros_propios_descuentos ccajeros_propios_descuentos_lag_63 mcajeros_propios_descuentos mcajeros_propios_descuentos_lag_64 ctarjeta_visa_descuentos ctarjeta_visa_descuentos_lag_65 mtarjeta_visa_descuentos mtarjeta_visa_descuentos_lag_66 ctarjeta_master_descuentos ctarjeta_master_descuentos_lag_67 mtarjeta_master_descuentos mtarjeta_master_descuentos_lag_68 ccomisiones_mantenimiento ccomisiones_mantenimiento_lag_69 mcomisiones_mantenimiento mcomisiones_mantenimiento_lag_70 ccomisiones_otras ccomisiones_otras_lag_71 mcomisiones_otras mcomisiones_otras_lag_72 cforex cforex_lag_73 cforex_buy cforex_buy_lag_74 mforex_buy mforex_buy_lag_75 cforex_sell cforex_sell_lag_76 mforex_sell mforex_sell_lag_77 ctransferencias_recibidas ctransferencias_recibidas_lag_78 mtransferencias_recibidas mtransferencias_recibidas_lag_79 ctransferencias_emitidas ctransferencias_emitidas_lag_80 mtransferencias_emitidas mtransferencias_emitidas_lag_81 cextraccion_autoservicio cextraccion_autoservicio_lag_82 mextraccion_autoservicio mextraccion_autoservicio_lag_83 ccheques_depositados ccheques_depositados_lag_84 mcheques_depositados mcheques_depositados_lag_85 ccheques_emitidos ccheques_emitidos_lag_86 mcheques_emitidos mcheques_emitidos_lag_87 ccheques_depositados_rechazados ccheques_depositados_rechazados_lag_88 mcheques_depositados_rechazados mcheques_depositados_rechazados_lag_89 ccheques_emitidos_rechazados ccheques_emitidos_rechazados_lag_90 mcheques_emitidos_rechazados mcheques_emitidos_rechazados_lag_91 tcallcenter tcallcenter_lag_92 ccallcenter_transacciones ccallcenter_transacciones_lag_93 thomebanking thomebanking_lag_94 chomebanking_transacciones chomebanking_transacciones_lag_95 ccajas_transacciones ccajas_transacciones_lag_96 ccajas_consultas ccajas_consultas_lag_97 ccajas_depositos ccajas_depositos_lag_98 ccajas_extracciones ccajas_extracciones_lag_99 ccajas_otras ccajas_otras_lag_100 catm_trx catm_trx_lag_101 matm matm_lag_102 catm_trx_other catm_trx_other_lag_103 matm_other matm_other_lag_104 ctrx_quarter ctrx_quarter_lag_105 tmobile_app tmobile_app_lag_106 cmobile_app_trx cmobile_app_trx_lag_107 Master_delinquency Master_delinquency_lag_108 Master_status Master_status_lag_109 Master_mfinanciacion_limite Master_mfinanciacion_limite_lag_110 Master_Fvencimiento Master_Fvencimiento_lag_111 Master_Finiciomora Master_Finiciomora_lag_112 Master_msaldototal Master_msaldototal_lag_113 Master_msaldopesos Master_msaldopesos_lag_114 Master_msaldodolares Master_msaldodolares_lag_115 Master_mconsumospesos Master_mconsumospesos_lag_116 Master_mconsumosdolares Master_mconsumosdolares_lag_117 Master_mlimitecompra Master_mlimitecompra_lag_118 Master_madelantopesos Master_madelantopesos_lag_119 Master_madelantodolares Master_madelantodolares_lag_120 Master_fultimo_cierre Master_fultimo_cierre_lag_121 Master_mpagado Master_mpagado_lag_122 Master_mpagospesos Master_mpagospesos_lag_123 Master_mpagosdolares Master_mpagosdolares_lag_124 Master_fechaalta Master_fechaalta_lag_125 Master_mconsumototal Master_mconsumototal_lag_126 Master_cconsumos Master_cconsumos_lag_127 Master_cadelantosefectivo Master_cadelantosefectivo_lag_128 Master_mpagominimo Master_mpagominimo_lag_129 Visa_delinquency Visa_delinquency_lag_130 Visa_status Visa_status_lag_131 Visa_mfinanciacion_limite Visa_mfinanciacion_limite_lag_132 Visa_Fvencimiento Visa_Fvencimiento_lag_133 Visa_Finiciomora Visa_Finiciomora_lag_134 Visa_msaldototal Visa_msaldototal_lag_135 Visa_msaldopesos Visa_msaldopesos_lag_136 Visa_msaldodolares Visa_msaldodolares_lag_137 Visa_mconsumospesos Visa_mconsumospesos_lag_138 Visa_mconsumosdolares Visa_mconsumosdolares_lag_139 Visa_mlimitecompra Visa_mlimitecompra_lag_140 Visa_madelantopesos Visa_madelantopesos_lag_141 Visa_madelantodolares Visa_madelantodolares_lag_142 Visa_fultimo_cierre Visa_fultimo_cierre_lag_143 Visa_mpagado Visa_mpagado_lag_144 Visa_mpagospesos Visa_mpagospesos_lag_145 Visa_mpagosdolares Visa_mpagosdolares_lag_146 Visa_fechaalta Visa_fechaalta_lag_147 Visa_mconsumototal Visa_mconsumototal_lag_148 Visa_cconsumos Visa_cconsumos_lag_149 Visa_cadelantosefectivo Visa_cadelantosefectivo_lag_150 Visa_mpagominimo Visa_mpagominimo_lag_151 numero_de_cliente foto_mes active_quarter_1 cliente_vip_1 internet_1 cliente_edad_1 cliente_antiguedad_1 mrentabilidad_1 mrentabilidad_annual_1 mcomisiones_1 mactivos_margen_1 mpasivos_margen_1 cproductos_1 tcuentas_1 ccuenta_corriente_1 mcuenta_corriente_adicional_1 mcuenta_corriente_1 ccaja_ahorro_1 mcaja_ahorro_1 mcaja_ahorro_adicional_1 mcaja_ahorro_dolares_1 cdescubierto_preacordado_1 mcuentas_saldo_1 ctarjeta_debito_1 ctarjeta_debito_transacciones_1 mautoservicio_1 ctarjeta_visa_1 ctarjeta_visa_transacciones_1 mtarjeta_visa_consumo_1 ctarjeta_master_1 ctarjeta_master_transacciones_1 mtarjeta_master_consumo_1 cprestamos_personales_1 mprestamos_personales_1 cprestamos_prendarios_1 mprestamos_prendarios_1 cprestamos_hipotecarios_1 mprestamos_hipotecarios_1 cplazo_fijo_1 mplazo_fijo_dolares_1 mplazo_fijo_pesos_1 cinversion1_1 minversion1_pesos_1 minversion1_dolares_1 cinversion2_1 minversion2_1 cseguro_vida_1 cseguro_auto_1 cseguro_vivienda_1 cseguro_accidentes_personales_1 ccaja_seguridad_1 cpayroll_trx_1 mpayroll_1 mpayroll2_1 cpayroll2_trx_1 ccuenta_debitos_automaticos_1 mcuenta_debitos_automaticos_1 ctarjeta_visa_debitos_automaticos_1 mttarjeta_visa_debitos_automaticos_1 ctarjeta_master_debitos_automaticos_1 mttarjeta_master_debitos_automaticos_1 cpagodeservicios_1 mpagodeservicios_1 cpagomiscuentas_1 mpagomiscuentas_1 ccajeros_propios_descuentos_1 mcajeros_propios_descuentos_1 ctarjeta_visa_descuentos_1 mtarjeta_visa_descuentos_1 ctarjeta_master_descuentos_1 mtarjeta_master_descuentos_1 ccomisiones_mantenimiento_1 mcomisiones_mantenimiento_1 ccomisiones_otras_1 mcomisiones_otras_1 cforex_1 cforex_buy_1 mforex_buy_1 cforex_sell_1 mforex_sell_1 ctransferencias_recibidas_1 mtransferencias_recibidas_1 ctransferencias_emitidas_1 mtransferencias_emitidas_1 cextraccion_autoservicio_1 mextraccion_autoservicio_1 ccheques_depositados_1 mcheques_depositados_1 ccheques_emitidos_1 mcheques_emitidos_1 ccheques_depositados_rechazados_1 mcheques_depositados_rechazados_1 ccheques_emitidos_rechazados_1 mcheques_emitidos_rechazados_1 tcallcenter_1 ccallcenter_transacciones_1 thomebanking_1 chomebanking_transacciones_1 ccajas_transacciones_1 ccajas_consultas_1 ccajas_depositos_1 ccajas_extracciones_1 ccajas_otras_1 catm_trx_1 matm_1 catm_trx_other_1 matm_other_1 ctrx_quarter_1 tmobile_app_1 cmobile_app_trx_1 Master_delinquency_1 Master_status_1 Master_mfinanciacion_limite_1 Master_Fvencimiento_1 Master_Finiciomora_1 Master_msaldototal_1 Master_msaldopesos_1 Master_msaldodolares_1 Master_mconsumospesos_1 Master_mconsumosdolares_1 Master_mlimitecompra_1 Master_madelantopesos_1 Master_madelantodolares_1 Master_fultimo_cierre_1 Master_mpagado_1 Master_mpagospesos_1 Master_mpagosdolares_1 Master_fechaalta_1 Master_mconsumototal_1 Master_cconsumos_1 Master_cadelantosefectivo_1 Master_mpagominimo_1 Visa_delinquency_1 Visa_status_1 Visa_mfinanciacion_limite_1 Visa_Fvencimiento_1 Visa_Finiciomora_1 Visa_msaldototal_1 Visa_msaldopesos_1 Visa_msaldodolares_1 Visa_mconsumospesos_1 Visa_mconsumosdolares_1 Visa_mlimitecompra_1 Visa_madelantopesos_1 Visa_madelantodolares_1 Visa_fultimo_cierre_1 Visa_mpagado_1 Visa_mpagospesos_1 Visa_mpagosdolares_1 Visa_fechaalta_1 Visa_mconsumototal_1 Visa_cconsumos_1 Visa_cadelantosefectivo_1 Visa_mpagominimo_1 delta_active_quarter_1 delta_cliente_vip_1 delta_internet_1 delta_cliente_edad_1 delta_cliente_antiguedad_1 delta_mrentabilidad_1 delta_mrentabilidad_annual_1 delta_mcomisiones_1 delta_mactivos_margen_1 delta_mpasivos_margen_1 delta_cproductos_1 delta_tcuentas_1 delta_ccuenta_corriente_1 delta_mcuenta_corriente_adicional_1 delta_mcuenta_corriente_1 delta_ccaja_ahorro_1 delta_mcaja_ahorro_1 delta_mcaja_ahorro_adicional_1 delta_mcaja_ahorro_dolares_1 delta_cdescubierto_preacordado_1 delta_mcuentas_saldo_1 delta_ctarjeta_debito_1 delta_ctarjeta_debito_transacciones_1 delta_mautoservicio_1 delta_ctarjeta_visa_1 delta_ctarjeta_visa_transacciones_1 delta_mtarjeta_visa_consumo_1 delta_ctarjeta_master_1 delta_ctarjeta_master_transacciones_1 delta_mtarjeta_master_consumo_1 delta_cprestamos_personales_1 delta_mprestamos_personales_1 delta_cprestamos_prendarios_1 delta_mprestamos_prendarios_1 delta_cprestamos_hipotecarios_1 delta_mprestamos_hipotecarios_1 delta_cplazo_fijo_1 delta_mplazo_fijo_dolares_1 delta_mplazo_fijo_pesos_1 delta_cinversion1_1 delta_minversion1_pesos_1 delta_minversion1_dolares_1 delta_cinversion2_1 delta_minversion2_1 delta_cseguro_vida_1 delta_cseguro_auto_1 delta_cseguro_vivienda_1 delta_cseguro_accidentes_personales_1 delta_ccaja_seguridad_1 delta_cpayroll_trx_1 delta_mpayroll_1 delta_mpayroll2_1 delta_cpayroll2_trx_1 delta_ccuenta_debitos_automaticos_1 delta_mcuenta_debitos_automaticos_1 delta_ctarjeta_visa_debitos_automaticos_1 delta_mttarjeta_visa_debitos_automaticos_1 delta_ctarjeta_master_debitos_automaticos_1 delta_mttarjeta_master_debitos_automaticos_1 delta_cpagodeservicios_1 delta_mpagodeservicios_1 delta_cpagomiscuentas_1 delta_mpagomiscuentas_1 delta_ccajeros_propios_descuentos_1 delta_mcajeros_propios_descuentos_1 delta_ctarjeta_visa_descuentos_1 delta_mtarjeta_visa_descuentos_1 delta_ctarjeta_master_descuentos_1 delta_mtarjeta_master_descuentos_1 delta_ccomisiones_mantenimiento_1 delta_mcomisiones_mantenimiento_1 delta_ccomisiones_otras_1 delta_mcomisiones_otras_1 delta_cforex_1 delta_cforex_buy_1 delta_mforex_buy_1 delta_cforex_sell_1 delta_mforex_sell_1 delta_ctransferencias_recibidas_1 delta_mtransferencias_recibidas_1 delta_ctransferencias_emitidas_1 delta_mtransferencias_emitidas_1 delta_cextraccion_autoservicio_1 delta_mextraccion_autoservicio_1 delta_ccheques_depositados_1 delta_mcheques_depositados_1 delta_ccheques_emitidos_1 delta_mcheques_emitidos_1 delta_ccheques_depositados_rechazados_1 delta_mcheques_depositados_rechazados_1 delta_ccheques_emitidos_rechazados_1 delta_mcheques_emitidos_rechazados_1 delta_tcallcenter_1 delta_ccallcenter_transacciones_1 delta_thomebanking_1 delta_chomebanking_transacciones_1 delta_ccajas_transacciones_1 delta_ccajas_consultas_1 delta_ccajas_depositos_1 delta_ccajas_extracciones_1 delta_ccajas_otras_1 delta_catm_trx_1 delta_matm_1 delta_catm_trx_other_1 delta_matm_other_1 delta_ctrx_quarter_1 delta_tmobile_app_1 delta_cmobile_app_trx_1 delta_Master_delinquency_1 delta_Master_status_1 delta_Master_mfinanciacion_limite_1 delta_Master_Fvencimiento_1 delta_Master_Finiciomora_1 delta_Master_msaldototal_1 delta_Master_msaldopesos_1 delta_Master_msaldodolares_1 delta_Master_mconsumospesos_1 delta_Master_mconsumosdolares_1 delta_Master_mlimitecompra_1 delta_Master_madelantopesos_1 delta_Master_madelantodolares_1 delta_Master_fultimo_cierre_1 delta_Master_mpagado_1 delta_Master_mpagospesos_1 delta_Master_mpagosdolares_1 delta_Master_fechaalta_1 delta_Master_mconsumototal_1 delta_Master_cconsumos_1 delta_Master_cadelantosefectivo_1 delta_Master_mpagominimo_1 delta_Visa_delinquency_1 delta_Visa_status_1 delta_Visa_mfinanciacion_limite_1 delta_Visa_Fvencimiento_1 delta_Visa_Finiciomora_1 delta_Visa_msaldototal_1 delta_Visa_msaldopesos_1 delta_Visa_msaldodolares_1 delta_Visa_mconsumospesos_1 delta_Visa_mconsumosdolares_1 delta_Visa_mlimitecompra_1 delta_Visa_madelantopesos_1 delta_Visa_madelantodolares_1 delta_Visa_fultimo_cierre_1 delta_Visa_mpagado_1 delta_Visa_mpagospesos_1 delta_Visa_mpagosdolares_1 delta_Visa_fechaalta_1 delta_Visa_mconsumototal_1 delta_Visa_cconsumos_1 delta_Visa_cadelantosefectivo_1 delta_Visa_mpagominimo_1
feature_infos=[0:1] [0:1] [0:1] [0:1] [0:3] [0:3] [18:101] [0:0] [1:375] [0:0] [-550651.57999999996:897381.34999999998] [0:0] [-5458566.3300000001:4503649.4699999997] [0:0] [-287785.54999999999:343691.62] [0:0] [-344865.76000000001:198041.26000000001] [0:0] [-30222.669999999998:760795.05000000005] [0:0] [3:17] [0:0] [1:2] [0:0] [1:3] [0:0] [-18754.25:20657419.969999999] [0:0] [-2610299.1099999999:28663799.539999999] [0:0] [2:8] [0:0] [-4752.5299999999997:54829104.079999998] [0:0] [-387.12:1997005.6200000001] [0:0] [-21005.5:142724206.71000001] [0:0] [0:1] [0:0] [-2610221.8100000001:143355449.65000001] [0:0] [0:114] [0:0] [0:161] [0:0] [0:635545.10999999999] [0:0] [0:3] [0:0] [0:373] [0:0] [0:1843089.6399999999] [0:0] [0:3] [0:0] [0:281] [0:0] [0:2564181.1200000001] [0:0] [0:609] [0:0] [0:4404859.2699999996] [0:0] [0:20] [0:0] [0:17100673.57] [0:0] [0:14] [0:0] [0:20768481.649999999] [0:0] [0:78] [0:0] [0:60255779.869999997] [0:0] [0:39762353.350000001] [0:0] [0:16] [0:0] [0:180376921.74000001] [0:0] [0:59852711.590000004] [0:0] [0:52] [0:0] [0:252574446.31999999] [0:0] [0:2] [0:0] [0:5] [0:0] [0:7] [0:0] [0:2] [0:0] [0:6] [0:0] [0:93] [0:0] [0:26498152.109999999] [0:0] [0:440643.56] [0:0] [0:5] [0:0] [0:82] [0:0] [0:2406059.79] [0:0] [0:93] [0:0] [0:598977.54000000004] [0:0] [0:28] [0:0] [0:645342.08999999997] [0:0] [0:26] [0:0] [0:8187540] [0:0] [0:110] [0:0] [0:178854852.13999999] [0:0] [0:17] [0:0] [0:12611.209999999999] [0:0] [0:18] [0:0] [0:80739.399999999994] [0:0] [0:23] [0:0] [0:53235.940000000002] [0:0] [0:67] [0:0] [-10504.629999999999:13647.190000000001] [0:0] [0:574] [0:0] [-287785.54999999999:343691.62] [0:0] [0:15] [0:0] [0:15] [0:0] [0:19010.810000000001] [0:0] [0:8] [0:0] [0:19010.810000000001] [0:0] [0:567] [0:0] [0:312460278.16000003] [0:0] [0:223] [0:0] [0:125587711.84999999] [0:0] [0:123] [0:0] [0:2727225] [0:0] [0:225] [0:0] [0:30694717.690000001] [0:0] [0:147] [0:0] [0:33892745.219999999] [0:0] [0:16] [0:0] [0:2120925.2200000002] [0:0] [0:16] [0:0] [0:3167100] [0:0] [0:1] [0:0] [0:99] [0:0] [0:1] [0:0] [0:4019] [0:0] [0:1] [0:0] [0:35] [0:0] [0:23] [0:0] [0:18] [0:0] [0:155] [0:0] [0:118] [0:0] [0:2727225] [0:0] [0:63] [0:0] [0:387090] [0:0] [0:2479] [0:0] [0:1] [0:0] [0:1] [0:0] [0:1] [0:0] [0:9] [0:0] [0:89947191.870000005] [0:0] [-2914209:5115] [0:0] [-1:169] [0:0] [-853697.89000000001:5693571.5199999996] [0:0] [-853697.89000000001:3755499.3999999999] [0:0] [-761894.03000000003:2474581.5800000001] [0:0] [-74109.419999999998:2550252.1000000001] [0:0] [0:27707.549999999999] [0:0] [985.32000000000005:9063466.0199999996] [0:0] [0:17595] [0:0] [0:108] [0:0] [-3:126] [0:0] [0:1228193.5] [0:0] [-2019260.8500000001:395193.13] [0:0] [0:18591.740000000002] [0:0] [1:7602] [0:0] [-74109.419999999998:2550252.1000000001] [0:0] [0:180] [0:0] [0:15] [0:0] [0:2627215.02] [0:0] [0:1] [0:0] [0:9] [0:0] [0:93723467.829999998] [0:0] [-2914209:5054] [0:0] [0:178] [0:0] [-488727.31:3086488.6000000001] [0:0] [-543931.06999999995:3618869.8199999998] [0:0] [-730281.20999999996:1048422.76] [0:0] [-554658.12:1713511.8799999999] [0:0] [0:11474.02] [0:0] [1011.71:9063466.0199999996] [0:0] [0:131376] [0:0] [0:479.14999999999998] [0:0] [-3:133] [0:0] [0:911986.03000000003] [0:0] [-2268723.1400000001:189297.48000000001] [0:0] [0:11611.719999999999] [0:0] [1:12608] [0:0] [-554658.12:1713511.8799999999] [0:0] [0:199] [0:0] [0:21] [0:0] [0:2199058.29] [0:0] [249221323:1589611354] [202102:202103] [0:1] [0:1] [0:3] [18:101] [1:375] [-550651.57999999996:897381.34999999998] [-5458566.3300000001:4503649.4699999997] [-287785.54999999999:343691.62] [-344865.76000000001:198041.26000000001] [-30222.669999999998:760795.05000000005] [3:17] [1:2] [1:3] [-18754.25:20657419.969999999] [-2610299.1099999999:28663799.539999999] [2:8] [-4752.5299999999997:54829104.079999998] [-387.12:1997005.6200000001] [-21005.5:142724206.71000001] [0:1] [-2610221.8100000001:143355449.65000001] [0:114] [0:161] [0:635545.10999999999] [0:3] [0:373] [0:1843089.6399999999] [0:3] [0:281] [0:2564181.1200000001] [0:609] [0:4404859.2699999996] [0:20] [0:17100673.57] [0:14] [0:20768481.649999999] [0:78] [0:60255779.869999997] [0:39762353.350000001] [0:16] [0:180376921.74000001] [0:59852711.590000004] [0:52] [0:252574446.31999999] [0:2] [0:5] [0:7] [0:2] [0:6] [0:93] [0:26498152.109999999] [0:440643.56] [0:5] [0:82] [0:2406059.79] [0:93] [0:598977.54000000004] [0:28] [0:645342.08999999997] [0:26] [0:8187540] [0:110] [0:178854852.13999999] [0:17] [0:12611.209999999999] [0:18] [0:80739.399999999994] [0:23] [0:53235.940000000002] [0:67] [-10504.629999999999:13647.190000000001] [0:574] [-287785.54999999999:343691.62] [0:15] [0:15] [0:19010.810000000001] [0:8] [0:19010.810000000001] [0:567] [0:312460278.16000003] [0:223] [0:125587711.84999999] [0:123] [0:2727225] [0:225] [0:30694717.690000001] [0:147] [0:33892745.219999999] [0:16] [0:2120925.2200000002] [0:16] [0:3167100] [0:1] [0:99] [0:1] [0:4019] [0:1] [0:35] [0:23] [0:18] [0:155] [0:118] [0:2727225] [0:63] [0:387090] [0:2479] [0:1] [0:1] [0:1] [0:9] [0:89947191.870000005] [-2914209:5115] [-1:169] [-853697.89000000001:5693571.5199999996] [-853697.89000000001:3755499.3999999999] [-761894.03000000003:2474581.5800000001] [-74109.419999999998:2550252.1000000001] [0:27707.549999999999] [985.32000000000005:9063466.0199999996] [0:17595] [0:108] [-3:126] [0:1228193.5] [-2019260.8500000001:395193.13] [0:18591.740000000002] [1:7602] [-74109.419999999998:2550252.1000000001] [0:180] [0:15] [0:2627215.02] [0:1] [0:9] [0:93723467.829999998] [-2914209:5054] [0:178] [-488727.31:3086488.6000000001] [-543931.06999999995:3618869.8199999998] [-730281.20999999996:1048422.76] [-554658.12:1713511.8799999999] [0:11474.02] [1011.71:9063466.0199999996] [0:131376] [0:479.14999999999998] [-3:133] [0:911986.03000000003] [-2268723.1400000001:189297.48000000001] [0:11611.719999999999] [1:12608] [-554658.12:1713511.8799999999] [0:199] [0:21] [0:2199058.29] [-1:1] [-1:1] [-3:3] [-3:14] [1:1] [-525218.4800000001:414970.25999999995] [-497951.3200000003:897234.90999999992] [-377751.22000000003:339022.19] [-312674.98999999999:216875.23000000001] [-449581.48999999999:277091.07000000001] [-7:5] [-1:1] [0:0] [-1599165.3299999998:5523550.2199999988] [-11071866.360000001:11836327.07] [-3:6] [-36555680.489999995:23008320.420000002] [-2044166.6500000001:1468424.6200000001] [-27722138.699999999:35561396.099999994] [-1:1] [-59558726.480000004:74209160.569999993] [-4:3] [-85:111] [-406691.07999999996:389330.94000000006] [-2:1] [-320:292] [-1718947.6099999999:1749167.3899999999] [-1:1] [-196:201] [-1460110.6100000001:2003313.0600000001] [-102:62] [-943544.56999999995:2354207.8500000001] [-9:3] [-1692021.55:6184152.3399999999] [-4:3] [-1778453.0700000001:856561.81999999844] [-28:41] [-35190000:60255779.869999997] [-19285040.739999998:20317269.66] [-5:7] [-128705734.11:180376921.74000001] [-3295541.7200000002:3682717.700000003] [-22:20] [-26330750.68:31018992.969999999] [-2:1] [-2:4] [-2:2] [-1:1] [-2:1] [-50:93] [-31844089.050000001:25170617.579999998] [-2647948.96:362175.47999999998] [-2:2] [-63:54] [-550582.19999999995:2406059.79] [-29:28] [-658365.92000000004:258644.29000000001] [-18:15] [-616191.64000000001:489801.39000000001] [-22:21] [-5311517.4199999999:5354745] [-100:68] [-24705483.530000001:173587833.60999998] [-14:17] [-18486.240000000002:12611.209999999999] [-18:18] [-31632.599999999999:80739.399999999994] [-31:23] [-71516.399999999994:53235.940000000002] [-24:66] [-13540.52:11719.02] [-183:48] [-377769.15999999997:339022.19] [-8:7] [-8:7] [-3519:19010.810000000001] [-7:7] [-1537:19010.810000000001] [-138:180] [-159816307.16000003:181228500] [-76:104] [-125495047.19999999:124664381.39] [-80:91] [-2023425:1369477.5] [-78:114] [-17246619.32:28901515.23] [-46:56] [-8498116.3999999985:27485813.420000002] [-16:15] [-2189345.3900000001:2120925.2200000002] [-6:14] [-3519000:3167100] [-1:1] [-77:70] [-1:1] [-1998:2035] [-1:1] [-23:32] [-16:11] [-10:10] [-155:149] [-80:91] [-2023425:1369477.5] [-35:51] [-496800.03999999998:351900] [-506:423] [-1:1] [-1:1] [-1:1] [-9:9] [-201323086.24000001:88984768.850000009] [-2163:31] [-35:31] [-1869076.05:3368727.0699999994] [-1382323.3699999999:1624878.1100000001] [-1674280.9299999999:1935599.8999999999] [-1413693.3500000001:2016797.48] [-18437.690000000002:21599.860000000001] [-3335222.25:1174744.8300000001] [-17595:17595] [-189:0] [-28:31] [-1228193.5:1228193.5] [-1510101.6500000001:3483903.52] [-13849.809999999999:18591.740000000002] [-304:31] [-1413693.3500000001:2016797.48] [-72:133] [-8:8] [-1056063.6299999999:2059189.77] [-1:1] [-9:9] [-201323086.24000001:92550512.700000003] [-2912412:2913447] [-33:49] [-2092326.8900000001:1329301.3100000001] [-2454299.4399999999:1489485.6699999999] [-975044.31000000006:800425.55999999994] [-1658970.96:1684330.9099999999] [-10685.76:8744.9500000000007] [-3231430.8600000003:3552782.3999999999] [-35224.479999999996:107916] [-874.75999999999999:479.14999999999998] [-28:31] [-1527147.97:885615] [-1628671.3500000001:3230127.3100000001] [-11500.85:10754.01] [28:7943] [-1658970.96:1684330.9099999999] [-96:118] [-9:16] [-2213432.23:842272.65000000002]
tree_sizes=149862 171122 171049 171583 170942 171309 171080 171420 171071 171578 171264 171144

Tree=0
num_leaves=1397
num_cat=0
split_feature=210 40 60 589 554 210 333 308 40 315 478 40 210 98 460 442 563 333 98 60 48 314 488 314 304 294 315 311 144 314 294 12 60 98 442 12 311 32 596 294 190 222 552 60 48 298 190 304 12 40 315 314 40 250 309 264 250 294 529 162 142 305 449 12 222 311 314 190 40 246 210 250 40 308 402 315 12 449 40 14 12 305 315 40 12 210 416 42 12 449 144 14 250 304 40 40 423 250 222 190 40 156 309 311 314 314 309 551 550 52 60 309 40 32 446 442 304 14 42 309 601 315 314 288 304 226 416 416 309 416 478 436 563 144 242 304 311 306 435 314 304 222 222 416 529 315 529 601 222 52 571 190 478 316 108 12 563 294 309 529 311 309 304 596 309 294 250 12 309 306 304 298 12 304 311 309 250 416 264 478 328 478 478 601 12 416 563 315 12 311 386 550 311 12 385 40 12 14 603 250 563 264 601 316 309 250 250 264 40 309 14 405 308 314 442 264 60 416 294 596 294 314 190 474 596 304 315 222 190 294 309 416 309 478 142 156 305 316 311 308 314 12 222 12 314 294 311 12 449 294 12 563 442 190 144 304 142 14 40 40 304 474 144 594 250 294 594 264 222 222 264 264 304 474 449 316 210 442 331 142 294 250 487 12 164 309 222 304 294 594 314 304 40 222 563 508 560 42 603 563 12 60 314 416 367 304 32 603 529 226 607 474 52 222 309 304 607 210 12 138 288 596 52 156 385 226 311 442 190 596 294 12 594 12 309 32 264 304 304 12 311 435 12 190 481 40 264 442 311 32 529 607 489 14 552 316 487 478 52 14 40 294 190 481 442 314 108 304 294 210 12 400 294 42 250 480 563 473 309 442 309 298 552 250 315 529 288 242 560 264 607 210 478 226 311 309 315 138 294 32 222 92 316 601 14 304 315 437 298 250 607 144 309 560 298 264 142 244 385 561 309 442 561 518 445 210 294 416 242 596 563 309 298 522 294 328 478 565 594 603 156 449 226 596 331 250 309 416 12 304 481 416 551 246 331 222 331 594 298 442 314 311 416 34 40 551 14 52 314 40 298 315 367 264 40 32 367 106 156 14 478 222 42 478 142 315 368 334 385 529 106 402 309 156 416 142 304 309 250 144 474 210 314 442 601 222 416 282 314 416 246 222 445 603 563 190 42 442 550 250 554 222 190 144 603 250 294 250 88 210 40 12 190 144 60 294 315 416 314 314 481 298 560 480 603 156 604 331 435 315 314 385 298 478 294 58 294 474 208 32 309 590 474 226 314 563 478 385 264 331 597 315 596 596 250 32 92 314 32 449 226 385 596 250 294 432 481 314 12 208 74 315 156 552 442 264 52 40 449 40 222 246 162 40 106 481 596 309 156 511 222 474 555 596 442 308 304 254 304 264 14 331 304 306 550 14 246 416 222 12 250 264 294 210 32 449 328 12 369 563 594 328 314 416 331 222 564 328 309 244 314 555 304 250 304 304 481 108 315 162 194 294 560 603 551 144 190 607 162 563 565 222 210 309 432 108 314 60 288 304 74 554 480 551 520 210 386 563 603 14 100 367 12 294 298 304 478 210 142 560 190 607 250 386 294 208 551 222 474 304 529 242 40 222 250 156 208 162 304 480 604 560 442 489 264 449 32 418 480 328 416 315 32 162 164 607 12 449 480 316 40 108 551 254 246 138 40 311 250 328 14 596 108 304 42 607 603 40 226 331 142 144 40 480 144 416 42 603 596 315 604 445 560 607 250 529 314 309 250 230 311 230 597 554 14 520 603 210 298 222 416 108 190 529 443 250 486 58 596 144 294 14 246 478 590 264 489 52 314 309 14 60 309 14 298 250 156 14 12 596 14 142 309 416 565 594 316 328 12 32 74 250 92 32 32 314 491 190 607 474 294 386 445 222 316 32 86 418 156 607 264 432 316 442 144 164 607 368 164 368 478 557 190 491 316 74 393 590 309 210 486 415 12 474 478 162 432 552 12 560 481 14 311 116 294 393 442 560 481 555 250 560 254 596 309 88 156 162 58 481 315 442 208 596 416 416 511 98 12 416 331 32 52 304 264 555 474 194 523 294 164 138 226 481 222 489 144 14 603 311 481 563 106 222 142 594 294 523 52 416 367 314 367 443 596 442 108 12 309 557 12 32 311 222 594 52 298 250 386 561 309 210 560 164 250 557 42 416 68 304 100 328 440 210 555 314 518 523 521 14 298 316 442 555 555 562 246 60 58 304 309 416 449 80 80 306 32 480 144 222 368 442 386 164 563 246 138 226 489 12 142 294 40 222 108 596 40 138 144 560 520 605 481 311 264 14 480 560 222 314 309 142 222 432 607 190 507 478 315 12 594 486 304 489 294 432 552 94 601 564 222 40 190 331 564 14 190 309 52 222 12 106 40 194 144 210 478 294 508 100 386 32 607 372 551 210 328 315 80 40 100 88 587 607 142 210 529 250 162 190 565 432 40 508 250 60 487 561 298 442 554 442 304 521 331 443 226 298 264 226 98 314 304 298 309 386 2 34 164 3 442 12 14 40 246 246 3 12 14 14 14 40 144 222 246 311 3 12 12 12 12 12 12 12 12 32 34 34 40 42 60 74 136 138 162 222 246 264 443 474 474 12 12 12 12 12 12 12 12 12 12 12 12 14 14 14 14 32 32 58 58 74 108 116 144 210 222 246 264 442 445 12 12 12 12 12 12 12 12 12 12 12 12 12 12 12 12 12 14 14 14 14 14 32 32 32 32 32 40 52 52 52 142 144 222 222 222 246 246 246 314 314 432 481 481 12 12 12 12 12 12 12 12 12 12 12 12 12 12 12 12 12 12 12 12 12 12 12 12 12 12 12 14 14 14 14 14 14 14 32 32 32 32 40 40 40 40 40 52 58 58 98 100 222 222 222 222 222 222 226 226 226 242 242 246 250 264 294 298 314 416 442 474 481 582 596 597 12 12 12 12 12 12 12 12 12 12 12 12 12 12 12 12 12 12 12 12 12 12 12 12 12 12 12 12 12 12 12 12 12 12 12 12 14 14 14 14 14 14 14 14 14 14 32 32 32 32 32 32 40 40 40 40 40 52 52 58 100 106 164 190 190 222 222 222 222 222 222 222 222 222 226 226 226 294 294 304 304 314 416 423 432 432 432 442 443
split_gain=12040.7 4201.83 3788.31 2121.69 1867.92 1846.63 1159.09 1052.97 690.596 655.499 610.934 485.058 569.722 480.782 443.082 420.212 374.023 363.208 351.02 398.096 537.415 334.048 324.158 323.381 301.785 286.266 275.415 259.753 252.672 247.256 230.531 227.39 215.618 228.679 280.664 197.905 349.535 202.571 196.034 198.682 191.962 225.853 191.282 190.6 188.218 175.873 174.975 161.744 156.495 154.435 268.62 151.853 140.432 138.871 138.337 133.491 133.531 204.736 167.203 122.19 117.883 116.445 108.963 107.993 107.709 128.371 106.951 127.998 127.788 112.243 151.525 105.673 115.694 103.185 102.913 99.1997 96.0556 95.7011 95.6201 90.6063 89.3447 129.785 94.02 94.8827 129.943 89.0503 99.903 88.1855 103.11 103.023 87.8181 87.7441 87.4471 249.284 94.5653 87.2307 85.6107 98.1342 120.556 109.919 105.273 86.7884 136.22 79.2157 76.0677 175.966 79.3736 74.7612 74.6138 74.2402 71.5217 70.0049 67.431 66.7741 75.1941 65.6571 64.5181 64.0969 63.8001 89.7021 105.945 80.071 61.3286 61.7249 62.7483 59.4195 59.1533 111.933 87.9806 59.0263 61.9773 59.0141 58.7419 58.4937 58.2715 58.1956 58.0989 57.5617 57.255 59.8421 58.9264 70.4894 57.4651 60.8338 56.9086 56.8224 56.2664 80.3157 65.4664 66.094 55.3944 70.0511 53.5932 54.0681 53.0079 60.1807 78.225 82.2039 52.5839 52.048 63.9682 51.0609 50.5843 50.4506 50.2922 50.2583 129.418 49.9312 81.4326 49.6762 75.099 49.6544 70.972 49.2699 48.9457 97.1942 72.454 86.0044 74.3105 58.2811 48.5441 106.678 83.0616 47.8966 47.4583 46.9375 46.8012 74.9191 47.237 91.8158 65.814 46.522 46.4516 46.4307 44.395 45.1217 43.7906 43.1743 49.3029 42.8199 42.6601 57.1101 80.9403 42.3012 42.2948 41.7462 41.6119 43.3603 41.5409 41.3048 41.2955 41.071 40.763 39.9232 137.271 95.6955 124.79 169.319 39.2778 56.3348 38.9659 38.1648 74.9641 37.3043 36.9012 36.8774 36.2563 79.1585 36.1673 47.3157 36.1285 53.6435 35.736 35.7316 41.5893 36.7895 35.4227 54.9307 37.6571 37.7969 54.4533 35.3273 34.3215 64.1255 70.7719 38.425 33.1831 31.8927 31.8472 54.6417 32.9849 31.5277 30.7589 39.9448 30.7319 30.6762 34.6129 30.5365 30.43 37.8005 100.543 35.4584 30.391 30.2546 41.5354 35.7981 35.2096 28.7508 31.4252 28.4805 43.5746 44.3026 60.7315 57.5819 28.4669 28.3275 28.0756 27.6522 45.883 81.9893 27.0383 26.571 26.5313 26.3838 25.7099 24.8142 24.6365 23.9549 39.1049 23.6599 36.0969 55.8814 23.4678 23.39 23.1968 22.8347 41.3192 22.7783 22.5895 36.6887 28.5744 22.5005 22.8093 22.4777 22.3998 22.3045 27.4868 34.0406 54.9929 22.0736 21.3474 20.9382 22.7175 20.7511 20.4664 35.3803 39.0691 20.434 20.4126 47.8419 94.8722 24.3093 60.8274 20.2268 41.7393 42.403 20.0739 27.2489 37.8252 20.0029 19.3678 37.3734 37.4184 19.3114 21.49 18.851 18.8114 27.1991 18.7014 23.3646 18.5873 18.4577 22.4562 26.6945 32.1133 37.4159 32.3074 45.9857 55.49 18.2728 36.1459 18.5685 18.1096 24.9817 17.9778 17.9375 17.6008 34.7436 34.1408 17.4006 25.8921 22.0416 17.3598 38.5557 18.7916 41.8635 17.3163 17.1436 17.0848 16.8561 16.7474 25.23 43.4584 36.2152 20.2414 16.5279 16.3552 16.2981 16.2932 16.2762 18.7929 16.2629 16.2497 16.0854 15.9641 17.1779 32.5223 51.2607 22.1138 26.0252 17.8804 30.8523 33.5051 16.4327 15.9309 15.7738 15.4864 15.4593 15.3395 18.2939 15.2909 15.0449 40.9797 14.9974 23.7462 14.9323 14.8844 33.8091 14.7674 28.897 15.4657 22.9705 14.5286 14.2693 13.9624 34.32 15.3183 13.78 34.909 13.6467 25.1966 13.5422 19.2802 13.0941 13.0429 12.8444 12.77 13.2652 23.3535 12.7078 12.6785 21.0829 12.6725 12.6668 12.6038 20.1157 12.5428 12.4937 12.4638 12.4018 12.7298 12.3686 17.1375 16.1496 14.089 12.3233 12.1993 24.1602 21.6222 15.3632 12.0361 11.9222 29.7858 12.263 14.111 26.8087 11.9156 19.0984 11.9101 11.9072 11.7731 19.2616 21.3868 18.467 49.3127 15.1378 51.2371 11.6983 11.6304 20.0182 22.994 39.3515 14.0183 27.715 11.6173 11.5863 11.4196 25.7313 11.4175 14.76 11.2473 11.09 11.0861 11.0315 32.5823 10.6731 33.2184 10.6681 10.5538 13.9424 15.941 13.1676 27.9513 10.3371 18.9983 10.3047 14.4165 15.9309 10.2771 16.5394 10.2441 10.1509 16.9867 10.0969 16.0276 20.0588 19.1079 10.0826 9.97353 9.96545 9.91427 22.4811 18.0407 9.91394 15.8097 19.1751 9.77296 9.56248 9.42329 36.2562 9.31339 14.0297 10.5709 28.6618 26.5536 9.2714 9.20483 33.3174 9.14179 32.0251 9.11383 9.06649 8.64477 8.64161 9.57811 15.7233 14.3844 15.4214 8.5435 8.49789 21.9339 22.1363 8.47124 23.8601 8.26935 8.18631 16.1603 8.09073 7.9924 17.6637 28.5454 40.9687 48.5638 13.5664 26.6011 12.5863 7.79441 20.2069 8.64933 7.7893 7.71369 16.0705 8.99475 7.29522 35.981 7.28842 7.2568 7.22249 9.17458 7.19118 13.0761 11.4988 16.8727 7.169 19.8438 7.09138 7.01678 7.00335 6.98355 9.93017 12.5333 18.4257 9.43275 20.514 86.6404 7.63416 12.3834 29.2718 6.89079 6.82453 6.75502 6.69891 6.64259 6.61675 6.59109 6.57123 6.55686 8.99159 7.71258 14.0947 6.52926 6.51626 6.48669 12.7429 18.8906 36.5225 6.40599 6.31629 24.2639 6.20525 6.18232 6.09892 6.028 6.00017 9.97744 5.99121 9.35944 5.96932 13.4879 5.95545 6.51008 5.92106 5.8959 5.8516 5.84534 6.62884 5.75567 5.75297 11.1467 5.73508 5.64594 9.88038 5.63666 5.62011 5.61806 5.61806 5.60358 26.3792 6.87204 5.59313 18.976 41.1686 5.5338 10.0213 23.7429 14.0032 8.08364 12.5309 24.8671 6.17123 6.02485 5.61554 5.49629 5.43079 5.40389 11.8035 5.29535 8.90288 20.7017 12.7499 7.02755 10.6424 5.24012 10.2805 5.20685 5.13897 5.08726 4.97487 11.529 4.96029 4.9562 6.31526 14.8182 5.31231 4.91782 4.91627 6.41481 16.6553 4.80495 4.78077 4.71916 4.52125 11.2248 4.51174 8.54959 4.49408 12.3529 6.34631 17.0138 5.71187 14.8162 5.60133 11.4682 4.45907 4.3725 10.5091 4.34947 10.1755 4.32678 6.52584 26.5416 5.10429 23.9424 4.52672 18.0968 6.27728 4.29314 4.2831 4.27914 4.2456 24.7355 4.98659 7.73755 4.55197 8.49397 15.3135 5.4118 12.962 4.20364 4.12507 4.11721 4.18108 4.02858 4.00982 3.96788 3.96164 10.2317 3.91342 3.87021 15.9668 3.7704 3.60244 6.66403 7.9399 18.3168 13.8318 6.15711 4.30631 3.58053 3.54933 9.06763 8.72847 3.49004 3.58265 3.4805 3.40397 4.34942 3.28116 4.52642 10.8821 25.9539 9.92973 6.50049 15.7735 9.17463 7.15151 3.27848 4.12555 3.0979 9.10442 3.08886 19.437 3.85484 3.39683 11.3895 16.6897 7.1371 9.59155 3.06048 4.20159 3.04279 4.6954 3.1388 10.6347 23.092 3.04037 4.21823 2.86429 4.3067 2.83744 4.92387 2.83213 4.95407 2.82984 4.21815 2.80379 4.66014 2.80276 5.61779 4.21877 12.2205 2.80134 4.51132 2.77863 8.17699 18.3214 2.82872 4.07758 3.89559 13.6501 2.76185 4.07331 2.65403 4.72999 2.6336 4.8931 2.59892 5.04137 3.0024 14.4034 2.58375 4.44148 2.57955 3.56788 2.54721 4.97838 10.0924 14.7647 7.2691 2.53657 4.69544 2.50893 5.62264 7.06177 2.40621 5.54048 2.36388 5.06947 2.1896 5.20916 2.08097 13.3983 2.01337 5.5799 2.00384 5.82512 1.93717 1.93145 5.45045 1.92366 4.05946 1.92022 1.91754 1.90432 5.41826 10.0585 1.903 1.92032 1.87521 1.86819 1.86317 1.85778 1.85009 5.75994 1.83424 5.90182 1.87767 1.82577 1.82264 1.81751 1.81448 1.81307 5.78387 1.81275 1.84084 1.81123 1.89973 1.81023 5.8869 1.80669 1.82868 1.79127 1.77839 1.77774 1.76882 1.76694 1.7524 1.73832 1.73818 1.73579 1.73544 5.82478 1.72633 1.72293 1.72166 1.71486 1.71341 1.71128 1.70969 1.70861 1.70691 1.6992 1.69294 1.68338 1.68283 1.66992 1.6565 1.63679 1.6349 1.6291 1.60912 1.60366 6.16438 1.70211 1.58574 1.57959 1.56794 1.69717 1.56569 1.56309 1.5604 1.55503 1.55228 1.55225 1.53848 1.5237 1.51668 1.5037 1.49256 1.49061 1.48892 1.47759 1.47172 1.45783 1.54228 1.4523 1.44826 1.42714 1.4183 1.41377 1.39637 1.36689 1.35784 1.57631 1.35659 1.35377 1.34755 1.34197 1.31923 1.31523 1.28306 1.27452 1.26058 1.24887 12.0642 1.23935 1.23851 1.23098 1.23096 1.22875 1.21542 1.1985 1.1477 6.59539 1.84894 1.14683 1.11806 1.11478 1.09833 3.96214 1.09312 4.92298 1.0849 1.06225 1.05456 1.04995 0.990203 6.55675 1.08471 0.988384 13.501 36.9327 2.27636 5.61806 1.90969 5.84621 1.90615 1.9172 1.88309 1.75617 1.53511 1.42377 6.26891 0.975035 0.916309 5.40753 1.51912 0.869106 1.06574 0.827618 7.14783 0.773121 1.1993 0.756634 1.24592 0.733947 1.0314 0.726274 1.9472 5.70856 1.20907 2.54054 9.68629 2.92777 4.58732 1.73863 6.01449 1.1052 0.723862 1.28767 0.718372 3.02727 4.26288 0.695918 1.32523 0.608779 1.34825 0.625095 1.35377 0.599596 2.74829 4.73004 0.568254 1.41377 0.565512 1.36453 0.604735 1.39498 0.565483 1.45228 0.557834 4.74711 3.65172 13.1328 0.832221 1.18251 0.562203 1.43575 0.513726 1.8782 5.72597 1.23822 0.48637 1.44823 0.473278 1.50695 0.483732 1.62571 5.58885 0.510424 2.7694 4.8298 0.46392 1.53805 0.365918 2.04071 5.77657 1.63678 1.04452 0.64065 1.37501 0.357994 1.5322 0.337584 3.02271 4.73004 0.296584 1.68448 0.26683 1.59037 0.880272 1.07668 0.205338 1.79541 1.61068 0.214076 2.28668 5.6731 1.51591 0.707746 1.28102 0.461942 1.66982 1.61355 0.188256 1.84416 0.167264 1.84978 0.163475 1.18819 1.00996 6.32675 0.277084 2.15658 5.65504 0.327171 1.69353 0.243468 1.78916 0.144778 1.6332 0.107295 1.92001 0.0990051 1.67512 0.0922797 1.93842 0.0961817 0.418558 1.5604 0.248392 1.70596 0.226075 1.58273 0.0969751 1.64958 1.13687e-13 1.13687e-13 5.68434e-14 2.84217e-14 2.84217e-14 1.42109e-14 1.42109e-14 1.42109e-14 1.42109e-14 1.42109e-14 7.10543e-15 7.10543e-15 7.10543e-15 7.10543e-15 7.10543e-15 7.10543e-15 7.10543e-15 7.10543e-15 7.10543e-15 7.10543e-15 3.55271e-15 3.55271e-15 3.55271e-15 3.55271e-15 3.55271e-15 3.55271e-15 3.55271e-15 3.55271e-15 3.55271e-15 3.55271e-15 3.55271e-15 3.55271e-15 3.55271e-15 3.55271e-15 3.55271e-15 3.55271e-15 3.55271e-15 3.55271e-15 3.55271e-15 3.55271e-15 3.55271e-15 3.55271e-15 3.55271e-15 3.55271e-15 3.55271e-15 1.77636e-15 1.77636e-15 1.77636e-15 1.77636e-15 1.77636e-15 1.77636e-15 1.77636e-15 1.77636e-15 1.77636e-15 1.77636e-15 1.77636e-15 1.77636e-15 1.77636e-15 1.77636e-15 1.77636e-15 1.77636e-15 1.77636e-15 1.77636e-15 1.77636e-15 1.77636e-15 1.77636e-15 1.77636e-15 1.77636e-15 1.77636e-15 1.77636e-15 1.77636e-15 1.77636e-15 1.77636e-15 1.77636e-15 1.77636e-15 8.88178e-16 8.88178e-16 8.88178e-16 8.88178e-16 8.88178e-16 8.88178e-16 8.88178e-16 8.88178e-16 8.88178e-16 8.88178e-16 8.88178e-16 8.88178e-16 8.88178e-16 8.88178e-16 8.88178e-16 8.88178e-16 8.88178e-16 8.88178e-16 8.88178e-16 8.88178e-16 8.88178e-16 8.88178e-16 8.88178e-16 8.88178e-16 8.88178e-16 8.88178e-16 8.88178e-16 8.88178e-16 8.88178e-16 8.88178e-16 8.88178e-16 8.88178e-16 8.88178e-16 8.88178e-16 8.88178e-16 8.88178e-16 8.88178e-16 8.88178e-16 8.88178e-16 8.88178e-16 8.88178e-16 8.88178e-16 8.88178e-16 8.88178e-16 4.44089e-16 4.44089e-16 4.44089e-16 4.44089e-16 4.44089e-16 4.44089e-16 4.44089e-16 4.44089e-16 4.44089e-16 4.44089e-16 4.44089e-16 4.44089e-16 4.44089e-16 4.44089e-16 4.44089e-16 4.44089e-16 4.44089e-16 4.44089e-16 4.44089e-16 4.44089e-16 4.44089e-16 4.44089e-16 4.44089e-16 4.44089e-16 4.44089e-16 4.44089e-16 4.44089e-16 4.44089e-16 4.44089e-16 4.44089e-16 4.44089e-16 4.44089e-16 4.44089e-16 4.44089e-16 4.44089e-16 4.44089e-16 4.44089e-16 4.44089e-16 4.44089e-16 4.44089e-16 4.44089e-16 4.44089e-16 4.44089e-16 4.44089e-16 4.44089e-16 4.44089e-16 4.44089e-16 4.44089e-16 4.44089e-16 4.44089e-16 4.44089e-16 4.44089e-16 4.44089e-16 4.44089e-16 4.44089e-16 4.44089e-16 4.44089e-16 4.44089e-16 4.44089e-16 4.44089e-16 4.44089e-16 4.44089e-16 4.44089e-16 4.44089e-16 4.44089e-16 4.44089e-16 4.44089e-16 4.44089e-16 4.44089e-16 4.44089e-16 4.44089e-16 4.44089e-16 2.22045e-16 2.22045e-16 2.22045e-16 2.22045e-16 2.22045e-16 2.22045e-16 2.22045e-16 2.22045e-16 2.22045e-16 2.22045e-16 2.22045e-16 2.22045e-16 2.22045e-16 2.22045e-16 2.22045e-16 2.22045e-16 2.22045e-16 2.22045e-16 2.22045e-16 2.22045e-16 2.22045e-16 2.22045e-16 2.22045e-16 2.22045e-16 2.22045e-16 2.22045e-16 2.22045e-16 2.22045e-16 2.22045e-16 2.22045e-16 2.22045e-16 2.22045e-16 2.22045e-16 2.22045e-16 2.22045e-16 2.22045e-16 2.22045e-16 2.22045e-16 2.22045e-16 2.22045e-16 2.22045e-16 2.22045e-16 2.22045e-16 2.22045e-16 2.22045e-16 2.22045e-16 2.22045e-16 2.22045e-16 2.22045e-16 2.22045e-16 2.22045e-16 2.22045e-16 2.22045e-16 2.22045e-16 2.22045e-16 2.22045e-16 2.22045e-16 2.22045e-16 2.22045e-16 2.22045e-16 2.22045e-16 2.22045e-16 2.22045e-16 2.22045e-16 2.22045e-16 2.22045e-16 2.22045e-16 2.22045e-16 2.22045e-16 2.22045e-16 2.22045e-16 2.22045e-16 2.22045e-16 2.22045e-16 2.22045e-16 2.22045e-16 2.22045e-16 2.22045e-16 2.22045e-16 2.22045e-16 2.22045e-16 2.22045e-16 2.22045e-16 2.22045e-16 2.22045e-16 2.22045e-16 2.22045e-16 2.22045e-16 2.22045e-16
threshold=12.500000000000002 -1684.9499999999998 1.0000000180025095e-35 8.0000000000000018 1.0000000180025095e-35 31.500000000000004 1.0000000180025095e-35 1.0000000180025095e-35 -7440.0699999999988 127.17500000000003 3083.5050000000001 -17792.814999999995 1.0000000180025095e-35 1.0000000180025095e-35 -1.0000000180025095e-35 6539.3350000000009 -4.4999999999999991 1.0000000180025095e-35 1.0000000180025095e-35 1.0000000180025095e-35 1.0000000180025095e-35 -39.949999999999996 -1.0000000180025095e-35 309.78000000000003 838044213.00000012 636.50000000000011 257.68500000000006 252.60500000000002 1592.2200000000003 1.0000000180025095e-35 472.50000000000006 13729.285000000002 1.0000000180025095e-35 1.0000000180025095e-35 6539.3350000000009 12090.935000000003 1220.325 267.34500000000008 2458.7050000000008 1528.5000000000002 12.500000000000002 -1810.9999999999998 1.0000000180025095e-35 1.0000000180025095e-35 1.0000000180025095e-35 3.5000000000000004 7.5000000000000009 1160331878.0000002 12090.935000000003 -17792.814999999995 1.0000000180025095e-35 309.78000000000003 -17792.814999999995 4126.5000000000009 63.500000000000007 187210.80000000002 602.50000000000011 3063.5000000000005 1.0000000180025095e-35 1.0000000180025095e-35 7.5000000000000009 202102.50000000003 -1.0000000180025095e-35 -1.0000000180025095e-35 -1551.4999999999998 1220.325 39.45000000000001 9.5000000000000018 303.38500000000005 -12080.929999999998 22.500000000000004 2535.5000000000005 303.38500000000005 1.5000000000000002 1.0000000180025095e-35 212.78500000000003 6363.3150000000014 9.0000000000000018 5812.0000000000009 1.0000000180025095e-35 33045.235000000008 202102.50000000003 16.935000000000006 -17792.814999999995 10503.205000000002 47.500000000000007 82344.60000000002 1.5000000000000002 23625.490000000005 1.0000000180025095e-35 1730.5400000000002 1877.2450000000001 1581.5000000000002 975518400.00000012 -3874.8899999999994 18635.845000000005 1.0000000180025095e-35 497.50000000000006 -1201.9999999999998 18.500000000000004 303.38500000000005 2.5000000000000004 44.500000000000007 1776.3300000000002 -1.0000000180025095e-35 -178.92499999999998 49.500000000000007 -2.4999999999999996 1.0000000180025095e-35 1286.9450000000004 1.0000000180025095e-35 40.500000000000007 -17792.814999999995 1003.9150000000001 947318.57500000007 13365.955000000002 805265211.50000012 1315.7350000000004 1.5000000000000002 44.500000000000007 -4.9999999999999991 1.0000000180025095e-35 -702.21999999999991 1.0000000180025095e-35 668647004.50000012 -1.0000000180025095e-35 190026.00000000003 164689.20000000004 41.500000000000007 139352.40000000002 5171.2849999999989 1.0000000180025095e-35 -6.4999999999999991 1.0000000180025095e-35 2.5000000000000004 575661792.50000012 1220.325 1.0000000180025095e-35 1.0000000180025095e-35 -264.60499999999996 506277669.00000006 -1490.4999999999998 -1278.4999999999998 164689.20000000004 -1.0000000180025095e-35 49.215000000000011 1.5000000000000002 -1.0000000180025095e-35 -501.49999999999994 9800.2800000000007 -824.3299999999997 29.500000000000004 5171.2849999999989 6.5000000000000009 69.88000000000001 7683.0750000000007 2.5000000000000004 4014.5000000000005 71.500000000000014 1.5000000000000002 1035.0500000000002 47.500000000000007 506277669.00000006 1.0000000180025095e-35 55.500000000000007 1356.5000000000002 5185.5000000000009 17186.240000000002 39.500000000000007 1.0000000180025095e-35 1103473491.0000002 3.5000000000000004 7683.0750000000007 939285900.50000012 116.36500000000002 32.500000000000007 2300.5000000000005 430100.09000000003 187210.80000000002 -1.0000000180025095e-35 1.0000000180025095e-35 -2632.2899999999995 -4178.9699999999966 3.5000000000000004 1263.0300000000002 164689.20000000004 -8.4999999999999982 -1.0000000180025095e-35 12090.935000000003 1220.325 4.5000000000000009 1.0000000180025095e-35 1400.6600000000003 5083.7500000000009 2100.9350000000004 -1.0000000180025095e-35 17186.240000000002 1592.2200000000003 326.04500000000002 602.50000000000011 -4.4999999999999991 95013.000000000015 3.5000000000000004 6.5000000000000009 51.500000000000007 1581.5000000000002 4835.5000000000009 661366.4850000001 24430.005000000001 49.500000000000007 100.89500000000001 1.5000000000000002 1.0000000180025095e-35 140.23000000000005 1358.7650000000003 187210.80000000002 1.5000000000000002 57007.80000000001 2806.5000000000005 1.0000000180025095e-35 960.50000000000011 -39.949999999999996 3.5000000000000004 -1.0000000180025095e-35 -279.16999999999979 698420758.50000012 127.17500000000003 -1125.4999999999998 87.500000000000014 5626.5000000000009 32.500000000000007 95013.000000000015 61.500000000000007 -26930.074999999993 2.5000000000000004 1.0000000180025095e-35 202102.50000000003 7.5000000000000009 1776.3300000000002 1.0000000180025095e-35 309.78000000000003 2553.4000000000001 -562.99999999999989 10503.205000000002 -103.16499999999999 1528.5000000000002 -1.0000000180025095e-35 10503.205000000002 2.5000000000000004 2571.5000000000005 -1.0000000180025095e-35 -5.4999999999999991 1.0000000180025095e-35 18.500000000000004 714.8850000000001 643092631.50000012 2.5000000000000004 546.49000000000012 1.0000000180025095e-35 303.38500000000005 730321170.00000012 -1.0000000180025095e-35 50.735000000000007 -1.0000000180025095e-35 3624.5000000000005 2093.5000000000005 -1801.4449999999995 106977.60000000002 -501.49999999999994 -988.99999999999989 95013.000000000015 59823.000000000007 869585025.00000012 -1.0000000180025095e-35 16.000000000000004 4.5000000000000009 54.500000000000007 61080.435000000005 27.500000000000004 9.5000000000000018 1183.5000000000002 769.50000000000011 -2393.4749999999981 12090.935000000003 3.5000000000000004 45.500000000000007 -243.49999999999997 939285900.50000012 2806.5000000000005 -1012.6899999999998 -39.949999999999996 620264927.00000012 -1.0000000180025095e-35 -774.99999999999989 -1.0000000180025095e-35 -76936.219999999987 -3508.7350000000001 3.5000000000000004 2724.7949999999969 8.5000000000000018 7683.0750000000007 2.5000000000000004 594.5100000000001 216418.50000000003 1.0000000180025095e-35 596314042.50000012 3342.8600000000006 -2775.8899999999967 -1.0000000180025095e-35 411.06000000000006 1.0000000180025095e-35 -1.0000000180025095e-35 1.0000000180025095e-35 -1125.4999999999998 32.500000000000007 1014522312.5000001 -1.4999999999999998 81.500000000000014 9049.9900000000016 1.0000000180025095e-35 9860.7700000000023 -1.0000000180025095e-35 19263.135000000006 1.5000000000000002 19529.275000000005 411.06000000000006 695.84500000000014 3133.8400000000006 7.5000000000000009 651.8049999999995 2311.5000000000005 7683.0750000000007 -1.0000000180025095e-35 19111.015000000003 41.500000000000007 6451.2600000000011 443710.27000000008 596314042.50000012 769405663.50000012 5083.7500000000009 1.0000000180025095e-35 2164.1850000000009 5083.7500000000009 3.5000000000000004 4113.715000000002 -3874.8899999999994 106977.60000000002 26145.235000000004 -559.25499999999988 267.34500000000008 1.5000000000000002 -1.0000000180025095e-35 -4222.8799999999965 355.26000000000005 1.0000000180025095e-35 6.5000000000000009 -1633.4950000000001 -1502.4899999999996 8426.0250000000033 625.30500000000006 3221.4900000000002 1704.5000000000002 29.500000000000004 -4982.4649999999992 3133.8400000000006 -178.92499999999998 5721.3950000000013 1060691305.0000001 5366.5000000000009 75.500000000000014 7683.0750000000007 1.0000000180025095e-35 636.50000000000011 1.5000000000000002 5551.5000000000009 1.5000000000000002 -8.4999999999999982 1.0000000180025095e-35 47.500000000000007 122804.50500000002 40.500000000000007 3.5000000000000004 1.0000000180025095e-35 497.50000000000006 799.53500000000008 1.5000000000000002 8298.095000000003 19.500000000000004 1.0000000180025095e-35 187210.80000000002 -2.4999999999999996 87.500000000000014 -2632.2899999999995 6862.7000000000007 2227.6700000000005 43.500000000000007 87.235000000000014 1.0000000180025095e-35 4591.5000000000009 3342.8600000000006 -1354.9999999999998 1.0000000180025095e-35 9.5000000000000018 -4.9999999999999991 250.00500000000002 1160331878.0000002 127.17500000000003 8.0000000000000018 18.500000000000004 1747.5000000000002 -4.4999999999999991 415.70000000000005 44.500000000000007 5875.2650000000003 4.5000000000000009 187210.80000000002 15.500000000000002 22730.605000000003 4027.1650000000004 1.5000000000000002 39.500000000000007 19172.975000000002 -1.4999999999999998 -351.70499999999993 99.65000000000002 111.50000000000001 1356.5000000000002 139352.40000000002 1.0000000180025095e-35 344.17999999999853 -5.4999999999999991 49.500000000000007 6.5000000000000009 1.0000000180025095e-35 4014.5000000000005 1.5000000000000002 1510.8750000000005 -1.0000000180025095e-35 -1.0000000180025095e-35 13593.870000000003 6.5000000000000009 1.0000000180025095e-35 18545.110000000004 -3263.6499999999992 10.500000000000002 602.50000000000011 49.500000000000007 190026.00000000003 1.0000000180025095e-35 1314495174.0000002 -18580.739999999994 501923.88000000006 1.0000000180025095e-35 -615.6149999999999 2.5000000000000004 -562.99999999999989 5.5000000000000009 1374.7049999999992 7.5000000000000009 1358.7650000000003 -360.16999999999996 3703.1650000000004 95013.000000000015 11736.340000000002 97757.125000000015 -1.0000000180025095e-35 711.44500000000016 7058.8400000000011 -264.60499999999996 1.0000000180025095e-35 3.5000000000000004 257.68500000000006 3.5000000000000004 187210.80000000002 -1.0000000180025095e-35 4826.3500000000013 12.500000000000002 1.0000000180025095e-35 1.5000000000000002 2061.2950000000005 1510.8750000000005 -562.99999999999989 2.5000000000000004 106052.28000000001 4.5000000000000009 49.215000000000011 1256.9050000000002 8.5000000000000018 4027.1650000000004 2.5000000000000004 2.5000000000000004 1.0000000180025095e-35 49.500000000000007 4.5000000000000009 164689.20000000004 2.5000000000000004 1103473491.0000002 42.500000000000007 769.50000000000011 201.04500000000004 -1326.3049999999996 54.500000000000007 140.23000000000005 1.0000000180025095e-35 3.5000000000000004 -1597.4999999999998 139352.40000000002 12946.870000000001 39.45000000000001 164689.20000000004 -3480.4999999999995 -439.99999999999994 3.1100000000000008 -1273.9199999999998 -1.4999999999999998 7.5000000000000009 4.5000000000000009 4913.1150000000007 -1.0000000180025095e-35 1025.5000000000002 1.0000000180025095e-35 -1201.9999999999998 53.500000000000007 1462.325 1.0000000180025095e-35 145.50000000000003 1183.5000000000002 3624.5000000000005 1.0000000180025095e-35 68.500000000000014 1.0000000180025095e-35 3850.6350000000007 15.500000000000002 1462.325 2.5000000000000004 472.50000000000006 16.935000000000006 28503.900000000005 -1164.1949999999999 1.0000000180025095e-35 4113.715000000002 2.5000000000000004 29383.650000000005 1.0000000180025095e-35 1760.2750000000008 7.5000000000000009 -11.885 21.500000000000004 1.0000000180025095e-35 87.235000000000014 -702.21999999999991 11730.230000000001 4.5000000000000009 -52773.284999999996 1704.5000000000002 15615.970000000003 472.50000000000006 8762.1149999999998 10850.250000000002 1.0000000180025095e-35 39.500000000000007 17623.165000000012 -14173.254999999999 -1.0000000180025095e-35 -1164.1949999999999 -4.4999999999999991 -79388.119999999981 218776.23000000001 426548.98000000004 21.500000000000004 -0.58999999999999797 169.39500000000001 1718.53 108.9749999999997 3439.5000000000005 22818.085000000003 1.0000000180025095e-35 -462.86499999999995 267.34500000000008 2.5000000000000004 -1.0000000180025095e-35 2100.9350000000004 1107.7650000000006 1025.5000000000002 1890.5000000000002 709.8850000000001 -1612.9749999999997 -2436.2749999999992 7683.0750000000007 16480.650000000005 946012.04500000004 404.12500000000006 31.500000000000004 1.0000000180025095e-35 31877.490000000002 129323.25000000001 1.0000000180025095e-35 303.38500000000005 2.5000000000000004 83268.070000000022 -243.49999999999997 -5574.2299999999987 78591.585000000006 3221.4900000000002 1.0000000180025095e-35 2189.5100000000007 -2259.5749999999989 36.500000000000007 1.5000000000000002 -1.0000000180025095e-35 -774.99999999999989 1172.0999999999997 -1.4999999999999998 9895.2049999999999 15175.780000000001 1.0000000180025095e-35 769405663.50000012 1.0000000180025095e-35 506277669.00000006 187210.80000000002 625.30500000000006 8.5000000000000018 1160331878.0000002 1.0000000180025095e-35 -1.0000000180025095e-35 150.42500000000004 -4828.9199999999992 1002682.1400000001 -623.99999999999989 33045.235000000008 1233.5000000000002 164689.20000000004 2571.5000000000005 54.500000000000007 3342.8600000000006 1.0000000180025095e-35 25.500000000000004 -10946.029999999997 1.5000000000000002 -15.499999999999998 2089.2400000000002 4.5000000000000009 -1353.4099999999999 764518.37000000011 6.5000000000000009 -1597.4999999999998 -1.0000000180025095e-35 9.5000000000000018 47.500000000000007 5879.2750000000005 -996.25499999999988 -2.4999999999999996 324813948.50000006 354.50000000000006 1014522312.5000001 698420758.50000012 -763.06999999999937 70.440000000000012 169.39500000000001 33635.185000000005 1.0000000180025095e-35 2571.5000000000005 3566.3200000000006 -690.755 8.5000000000000018 101.52500000000002 3.5000000000000004 -16.499999999999996 1.0000000180025095e-35 27.500000000000004 1.0000000180025095e-35 -714.99999999999989 39.500000000000007 34.500000000000007 5513.3850000000011 70.440000000000012 140.23000000000005 9.5000000000000018 31801.820000000003 975518400.00000012 108476.31500000002 -1.0000000180025095e-35 -1.0000000180025095e-35 -4.4999999999999991 -234.59999999999991 111.50000000000001 8.5000000000000018 -10.499999999999998 9981.9400000000005 3945.3550000000005 36208.040000000008 6.5000000000000009 13729.285000000002 2093.5000000000005 24.500000000000004 620264927.00000012 21361.875000000004 22.500000000000004 11.500000000000002 -29321.869999999995 96.500000000000014 -11.499999999999998 1409.5000000000002 8.5000000000000018 5366.5000000000009 4727.1900000000014 -2.4999999999999996 -2069.4999999999995 -5584.6849999999986 349946839.00000006 1.5000000000000002 2.5000000000000004 -17792.814999999995 -1490.4999999999998 769.50000000000011 1.0000000180025095e-35 35248.650000000009 1.0000000180025095e-35 456249301.50000006 -5.4999999999999991 -251.03999999999994 -51601.734999999993 15175.780000000001 -23216.344999999998 1477717.2450000003 5.5000000000000009 3342.8600000000006 19.000000000000004 -11.499999999999998 2.5000000000000004 164689.20000000004 457.65500000000003 10182.165000000003 3636.8850000000007 2.5000000000000004 2.5000000000000004 9049.9900000000016 5.5000000000000009 -5.4999999999999991 4.5000000000000009 -1.0000000180025095e-35 8146.2150000000011 -5.4999999999999991 16.500000000000004 -1.0000000180025095e-35 2.5000000000000004 70580.565000000017 2500.0650000000005 4516.5000000000009 1.0000000180025095e-35 1210.5400000000002 1107.7650000000006 69.88000000000001 1014522312.5000001 1.5000000000000002 -2.4999999999999996 -16133.1 303.38500000000005 -1.0000000180025095e-35 17.500000000000004 4.5000000000000009 2062.2850000000003 -3874.8899999999994 7.5000000000000009 415.70000000000005 95013.000000000015 2.5000000000000004 -1273.9199999999998 -23345.719999999994 719.12500000000011 115.97500000000001 4.0850000000000009 35246.010000000009 -2.4999999999999996 4126.5000000000009 -1.4999999999999998 -579.24999999999989 44.500000000000007 1747.5000000000002 -3342.8199999999997 4379.6600000000008 61840.885000000002 -0.059999999999999713 -1.0000000180025095e-35 711.44500000000016 12708.135000000004 -231.91499999999971 39.500000000000007 10.500000000000002 -470.99999999999994 82344.60000000002 4144.0600000000004 29.500000000000004 -1.4999999999999998 435.92000000000002 1930.5000000000002 -2.4999999999999996 7859.2750000000005 -6105.7149999999992 479.54000000000002 1890.5000000000002 100.89500000000001 -926.5899999999998 -2632.2899999999995 9518.5650000000041 710392.69500000018 -10078.330000000005 48921.100000000013 -178.92499999999998 36.500000000000007 2256.4150000000004 12.500000000000002 65.500000000000014 1.0000000180025095e-35 13.500000000000002 2103.5000000000005 2.5000000000000004 2802.5150000000008 -2408.0799999999995 344.17999999999853 1592.2200000000003 4.5000000000000009 32.500000000000007 69676.200000000012 -1.0000000180025095e-35 -1801.4449999999995 4.5000000000000009 3.5000000000000004 15403.645000000002 10182.165000000003 533128.50000000012 769.50000000000011 1.0000000180025095e-35 58568.12000000001 267.34500000000008 1.0000000180025095e-35 -7367.8200000000061 1.0000000180025095e-35 6.5000000000000009 2162.0600000000018 368.50000000000006 10.500000000000002 10.015000000000002 -349.99999999999994 7.5000000000000009 19796.355000000007 248344.87000000002 50.000000000000007 11.500000000000002 -4.4999999999999991 46802.700000000004 17438.910000000003 5.5000000000000009 19172.975000000002 50.735000000000007 2.5000000000000004 4.5000000000000009 16477.450000000004 9.5000000000000018 8821.9150000000027 -37046.93499999999 1.0000000180025095e-35 59.500000000000007 -6661.3449999999993 5.5000000000000009 234615.24500000002 10133.310000000003 17210.544999999987 57.500000000000007 260.50000000000006 -7.4999999999999991 8.0000000000000018 17186.240000000002 6607.4199999999992 71703.655000000013 21114.045000000002 709.8850000000001 1.0000000180025095e-35 13729.285000000002 -1.0000000180025095e-35 46585.345000000008 3231.8900000000003 695.84500000000014 4293.9900000000007 1183.5000000000002 239122.23000000001 8178.7400000000007 -12861.939999999999 -1.0000000180025095e-35 1.5000000000000002 248.50000000000003 43406.865000000005 6.5000000000000009 -23345.719999999994 27.500000000000004 1.0000000180025095e-35 2.5000000000000004 92002.505000000019 11122.340000000002 2189.5100000000007 212.78500000000003 8178.7400000000007 3472.2000000000003 1718.53 108314.82000000002 216418.50000000003 10.500000000000002 5.5000000000000009 15403.645000000002 82344.60000000002 10.500000000000002 3342.8600000000006 71629.145000000004 668647004.50000012 66861.000000000015 1.5000000000000002 -2431.2599999999998 5.5000000000000009 -1.4999999999999998 3818.5000000000005 9.5000000000000018 2.5000000000000004 4222.670000000001 23387.410000000007 -2069.4999999999995 -1409.3749999999998 811.49000000000012 711.44500000000016 2724.7949999999969 1035.0500000000002 31060.655000000002 10.500000000000002 3.5000000000000004 -2069.4999999999995 4.5000000000000009 4885.8150000000014 210.50000000000003 -1.4999999999999998 2806.6800000000007 46802.700000000004 42.500000000000007 140.23000000000005 7.5000000000000009 -1.0000000180025095e-35 25445.670000000006 -1.0000000180025095e-35 70.440000000000012 21239.005000000001 63.500000000000007 1.5000000000000002 21239.005000000001 1.0000000180025095e-35 538.56000000000006 -349.99999999999994 -15770.379999999997 36315.825000000004 5.5000000000000009 354.50000000000006 3.5000000000000004 -1.0000000180025095e-35 27.500000000000004 47.500000000000007 -78473.699999999983 35.500000000000007 3208.5000000000005 1.0000000180025095e-35 3.5000000000000004 82344.60000000002 1.0000000180025095e-35 1216927950.0000002 381562.82000000007 1.5000000000000002 21.500000000000004 81.500000000000014 -1.0000000180025095e-35 594.5100000000001 -1146.6600000000005 -3.4999999999999996 -4.4999999999999991 50.535000000000004 20.500000000000004 5.5000000000000009 4913.1150000000007 -3.4999999999999996 -1.4999999999999998 -12867.809999999996 -926.5899999999998 8.5000000000000018 517.47000000000014 299610136.00000006 63.500000000000007 1002682.1400000001 -1.0000000180025095e-35 1.0000000180025095e-35 93839.990000000005 1.0000000180025095e-35 267.34500000000008 -1.0000000180025095e-35 151.47000000000003 -1430.4999999999998 2676.9400000000001 11553.870000000003 4.5000000000000009 11.500000000000002 6.5000000000000009 -615.6149999999999 1.0000000180025095e-35 -176.50999999999996 -7584.3700000000017 33045.235000000008 15.500000000000002 5924.5000000000009 97757.125000000015 -197.99999999999997 296.64000000000004 -40270.14499999999 9239.635000000002 1.5000000000000002 714.8850000000001 -51601.734999999993 388.40000000000038 29.500000000000004 -4982.4649999999992 1220.325 59823.000000000007 2061.2950000000005 8.5000000000000018 5875.2650000000003 -2069.4999999999995 -1562.425 27.500000000000004 2.5000000000000004 -2144.9999999999995 576.59500000000014 -11.499999999999998 59.500000000000007 -6.4999999999999991 28441.629999999979 169.39500000000001 15403.645000000002 -1012.6899999999998 1.5000000000000002 596314042.50000012 -1739.5599999999902 368.50000000000006 7269.8500000000013 -1.0000000180025095e-35 1.0000000180025095e-35 3.5000000000000004 -1.0000000180025095e-35 -394.49999999999994 59427.900000000001 265.50000000000006 6.5000000000000009 1.0000000180025095e-35 50.535000000000004 65.500000000000014 71.500000000000014 4280.9000000000005 inf 6363.3150000000014 5.5000000000000009 5812.0000000000009 1.5000000000000002 151.47000000000003 99.500000000000014 -149040.14999999999 472.50000000000006 50544.464999999997 69031.740000000005 10.500000000000002 38832.170000000006 -16.499999999999996 inf 4.5000000000000009 61.500000000000007 12.500000000000002 514.74500000000012 237173.74000000002 -17792.814999999995 36208.040000000008 1.0000000180025095e-35 82.109999999999232 1.5000000000000002 15.500000000000002 87.500000000000014 7.5000000000000009 419.50000000000006 78591.585000000006 1.0000000180025095e-35 -1.0000000180025095e-35 1286.9450000000004 -1.0000000180025095e-35 -50104.879999999997 1409.5000000000002 4.5000000000000009 2329.1550000000011 -3.4999999999999996 28.500000000000004 9833.7250000000022 1.0000000180025095e-35 -1.0000000180025095e-35 1160331878.0000002 -2.4999999999999996 2.5000000000000004 -592.21999999999991 77365.655000000013 22.500000000000004 66861.000000000015 1.0000000180025095e-35 3.5000000000000004 -39.949999999999996 274005878.00000006 24.500000000000004 69.500000000000014 6.5000000000000009 1.0000000180025095e-35 23467.095000000005 8.5000000000000018 inf 11553.870000000003 120652.56000000001 -1.0000000180025095e-35 -1684.9499999999998 -387.33999999999992 -1384.8799999999999 1.0000000180025095e-35 6363.3150000000014 920.70000000000016 1458.1450000000002 3945.3550000000005 5812.0000000000009 357.08000000000004 -349.99999999999994 -2841.8499999999995 -2463.7449999999994 inf 6363.3150000000014 -2408.0799999999995 -5774.3749999999991 79698.235000000015 7683.0750000000007 33045.235000000008 79698.235000000015 120652.56000000001 4826.3500000000013 848.42000000000019 165.97500000000005 1111333.1900000002 1.5000000000000002 16.500000000000004 42625.185000000005 379.27000000000004 1.0000000180025095e-35 3636.8850000000007 -349.99999999999994 -3480.4999999999995 213955.20000000004 653.08500000000015 -1.0000000180025095e-35 56502.689999999995 9049.9900000000016 120652.56000000001 2553.4000000000001 7683.0750000000007 79698.235000000015 50547.840000000004 120652.56000000001 43096.540000000008 19111.015000000003 29389.025000000005 -5774.3749999999991 120652.56000000001 2802.5150000000008 355.26000000000005 2486.2550000000006 3231.8900000000003 140708.32500000004 44253.17500000001 8837.9700000000012 22858.060000000001 310858.31000000006 545.81000000000006 16916.120000000006 357.08000000000004 182.50000000000003 -439.99999999999994 -24080.849999999995 507400.7950000001 19172.975000000002 0.90500000000000014 21239.005000000001 7683.0750000000007 50547.840000000004 21239.005000000001 6363.3150000000014 29389.025000000005 79698.235000000015 -1.0000000180025095e-35 26241.500000000004 23625.490000000005 43096.540000000008 17186.240000000002 19111.015000000003 3850.6350000000007 12090.935000000003 79698.235000000015 7683.0750000000007 1055.3150000000003 1877.2450000000001 477.19000000000005 1210.5400000000002 3945.3550000000005 14586.895000000002 1003.9150000000001 67845.925000000017 3342.8600000000006 29914.505000000001 -1684.9499999999998 71629.145000000004 33128.930000000008 25298.900000000005 2.5000000000000004 1320.4950000000001 -562.99999999999989 -470.99999999999994 -197.99999999999997 -2278.5399999999995 -15669.194999999998 -7305.7149999999992 -702.21999999999991 -3414.7499999999995 3486.9700000000007 -25379.424999999992 23387.410000000007 6363.3150000000014 21239.005000000001 9049.9900000000016 17186.240000000002 23625.490000000005 3850.6350000000007 17186.240000000002 6363.3150000000014 26241.500000000004 23625.490000000005 33045.235000000008 3850.6350000000007 -1.0000000180025095e-35 5083.7500000000009 2553.4000000000001 17186.240000000002 17186.240000000002 2553.4000000000001 29389.025000000005 1263.0300000000002 1.0000000180025095e-35 15403.645000000002 2553.4000000000001 37487.80000000001 15403.645000000002 21239.005000000001 6363.3150000000014 200.05500000000004 413.47500000000008 1.0000000180025095e-35 3231.8900000000003 711.44500000000016 2486.2550000000006 1458.1450000000002 2056.1400000000008 29914.505000000001 29914.505000000001 26150.790000000005 303.38500000000005 31596.225000000002 97757.125000000015 3221.4900000000002 70580.565000000017 23147.030000000002 26392.405000000002 15615.970000000003 1.5000000000000002 14606.780000000001 -774.99999999999989 -562.99999999999989 -394.49999999999994 -866.49999999999989 -654.49999999999989 -562.99999999999989 12088.015000000001 1191.7150000000001 720.49000000000012 -1.0000000180025095e-35 -1.0000000180025095e-35 -3480.4999999999995 497.50000000000006 267444.00000000006 2806.5000000000005 9.5000000000000018 -702.21999999999991 57007.80000000001 -1.0000000180025095e-35 3352.1950000000002 3076.610000000001 -1.0499999999999998 1718.53 -6.6449999999999987 -1.0000000180025095e-35 -5774.3749999999991 10503.205000000002 1263.0300000000002 7683.0750000000007 9049.9900000000016 6363.3150000000014 15403.645000000002 2553.4000000000001 -2408.0799999999995 7683.0750000000007 19111.015000000003 19111.015000000003 2553.4000000000001 13729.285000000002 1.0000000180025095e-35 -5774.3749999999991 -5774.3749999999991 -2408.0799999999995 3850.6350000000007 2553.4000000000001 1.0000000180025095e-35 23625.490000000005 -10946.029999999997 -5774.3749999999991 5083.7500000000009 13729.285000000002 12090.935000000003 43096.540000000008 9049.9900000000016 9049.9900000000016 9049.9900000000016 43096.540000000008 29389.025000000005 33045.235000000008 5083.7500000000009 1458.1450000000002 1458.1450000000002 1730.5400000000002 2061.2950000000005 150.42500000000004 413.47500000000008 3231.8900000000003 1730.5400000000002 2061.2950000000005 1315.7350000000004 10182.165000000003 14586.895000000002 8236.5600000000013 34032.015000000007 38832.170000000006 29914.505000000001 18635.845000000005 114355.25500000002 303.38500000000005 159830.10000000003 31596.225000000002 36315.825000000004 15832.730000000001 15615.970000000003 81452.240000000005 1.0000000180025095e-35 2.5000000000000004 38.500000000000007 7.5000000000000009 -1125.4999999999998 -1551.4999999999998 -714.99999999999989 -197.99999999999997 -289.49999999999994 -562.99999999999989 -1125.4999999999998 -562.99999999999989 -1430.4999999999998 1598.7100000000003 5020.0200000000013 21580.920000000002 2571.5000000000005 960.50000000000011 769405663.50000012 730321170.00000012 -39.949999999999996 216418.50000000003 1.0000000180025095e-35 1286.9450000000004 12755.790000000003 8393.1950000000015 31877.490000000002 2187.9050000000002
decision_type=2 2 2 10 10 2 2 2 2 2 8 2 2 2 10 10 10 2 2 2 2 2 8 2 2 10 2 2 2 2 8 2 2 2 10 2 2 2 8 10 2 10 10 2 2 8 2 2 2 2 2 2 2 8 2 10 8 10 8 2 2 2 10 2 10 2 2 2 2 10 2 8 2 2 2 2 2 8 2 2 2 2 2 2 2 2 8 2 2 10 2 2 10 2 2 2 8 10 8 2 2 2 2 2 2 2 2 8 10 2 2 2 2 2 8 10 2 2 2 2 8 2 2 10 2 10 10 10 2 10 8 8 8 2 8 2 2 2 8 2 2 8 10 10 10 2 8 10 8 2 10 2 8 2 2 2 8 10 2 10 2 2 2 10 2 10 8 2 2 2 2 8 2 2 2 2 10 10 10 8 2 10 10 10 2 8 8 2 2 2 2 8 2 2 2 2 2 2 8 10 10 10 10 2 2 10 8 10 2 2 2 2 2 2 8 10 2 10 10 8 10 2 2 8 10 2 2 8 2 10 2 8 2 10 2 2 2 2 2 2 2 2 8 2 2 10 2 2 8 8 2 10 8 2 2 2 2 2 2 2 2 10 2 8 8 10 10 8 8 8 10 8 2 10 10 2 2 10 2 2 8 10 8 2 2 2 8 2 8 10 2 2 2 8 8 8 8 2 8 10 2 2 2 10 2 2 2 10 10 8 10 8 2 8 2 2 10 2 2 2 8 8 2 2 2 8 2 10 2 10 10 2 8 2 2 2 10 2 2 2 2 8 2 2 8 2 10 8 2 2 10 8 8 2 8 2 8 8 2 2 2 8 2 8 8 2 2 2 8 2 2 2 10 2 8 10 10 8 2 8 2 8 10 10 2 10 8 10 10 10 8 2 8 8 2 2 2 2 8 2 8 2 2 8 2 2 2 8 10 8 8 2 2 10 10 10 2 10 2 10 2 10 10 8 8 2 10 8 10 10 10 2 10 10 10 2 8 10 10 10 2 10 10 10 2 10 2 10 2 2 8 10 8 10 2 10 2 10 8 10 2 2 8 2 2 8 2 2 2 2 8 2 2 10 2 2 2 2 2 2 10 10 2 10 2 2 2 2 2 10 2 2 2 2 10 2 2 2 10 2 8 2 2 8 8 8 8 8 2 8 10 8 10 10 8 2 2 8 10 8 10 8 2 2 8 8 10 8 2 2 2 2 2 2 2 10 2 10 2 2 10 8 10 8 10 2 10 2 8 2 2 2 8 8 8 2 8 10 2 2 2 8 8 8 2 8 10 2 10 2 8 2 8 10 8 2 2 2 2 8 10 2 10 10 10 8 8 2 2 2 2 2 2 8 10 10 2 2 8 2 8 8 2 2 2 8 8 2 2 10 10 10 10 10 8 2 2 8 2 8 2 2 2 2 8 2 8 10 10 2 10 10 10 2 2 8 2 2 2 8 10 2 2 10 2 10 8 2 2 10 2 10 2 8 2 2 10 2 2 2 2 8 10 10 10 2 2 8 2 10 8 8 2 2 10 2 2 2 10 2 2 8 10 8 8 2 2 8 8 2 2 2 2 10 8 2 8 2 2 8 2 8 10 2 10 2 8 8 8 2 10 8 2 10 10 2 2 2 2 10 10 10 10 8 10 10 2 10 8 2 10 2 2 2 2 10 2 8 8 2 2 2 8 10 10 2 2 2 8 2 2 10 2 2 2 8 10 2 8 2 2 2 2 10 2 10 2 10 8 2 10 8 10 10 10 10 2 2 8 8 2 10 8 8 2 10 10 2 10 10 10 2 2 8 8 10 8 2 8 2 10 2 10 10 10 8 8 2 2 2 2 2 2 2 10 8 2 2 2 10 2 2 2 8 10 10 2 2 2 2 2 10 2 2 2 2 10 2 8 10 8 2 10 8 2 2 2 8 2 8 8 10 2 8 2 2 10 2 2 2 10 10 2 10 2 2 2 8 2 2 10 10 2 10 8 2 8 10 2 8 10 2 2 2 10 2 10 8 10 8 10 10 10 10 2 2 2 2 2 10 2 10 2 8 8 10 8 2 2 8 2 2 2 2 10 8 10 2 10 10 2 2 8 10 8 8 2 2 8 2 10 10 2 8 2 10 10 10 2 10 2 2 2 10 8 10 2 2 2 10 2 2 2 10 10 2 10 10 2 8 2 2 8 2 8 10 2 10 2 2 2 2 8 2 8 2 8 8 8 2 10 2 8 8 8 10 10 2 2 2 2 10 10 2 2 2 2 8 2 10 2 10 2 2 10 10 2 8 10 2 2 10 2 10 2 8 2 2 2 8 10 8 8 2 8 2 10 8 8 2 2 2 8 10 8 2 8 10 2 2 8 10 2 10 10 8 8 2 8 8 10 2 2 2 10 2 2 2 2 8 2 2 2 2 2 2 8 8 10 2 2 2 8 8 10 2 2 2 2 2 2 2 10 10 2 2 10 10 2 2 8 8 2 8 8 2 10 8 10 10 10 10 2 8 2 10 8 10 10 8 2 2 2 10 2 2 2 2 2 8 10 2 2 2 10 10 8 2 2 2 2 2 2 10 10 2 8 2 2 2 2 2 2 2 2 2 2 2 2 2 2 2 8 2 2 10 8 10 8 10 10 2 2 2 2 2 2 2 2 2 2 2 2 2 2 2 2 2 2 2 2 2 2 2 2 2 10 8 10 8 10 2 2 2 2 2 2 2 2 2 2 2 2 2 2 2 2 2 2 2 2 2 2 2 2 2 2 2 2 2 2 2 2 2 10 10 10 8 10 10 2 2 8 10 10 2 2 2 2 2 2 2 2 2 2 2 2 2 2 2 2 2 2 2 2 2 2 2 2 2 2 2 2 2 2 2 2 2 2 2 2 2 2 2 2 2 2 2 2 2 2 2 2 10 10 10 10 10 10 8 8 8 8 8 10 10 8 10 8 2 10 10 8 8 10 10 10 2 2 2 2 2 2 2 2 2 2 2 2 2 2 2 2 2 2 2 2 2 2 2 2 2 2 2 2 2 2 2 2 2 2 2 2 2 2 2 2 2 2 2 2 2 2 2 2 2 2 2 2 2 2 2 2 2 2 2 2 2 2 2 2 2 8 10 10 10 10 10 10 10 10 8 10 10 10 10 2 2 2 8 8 8 8 10 8 10
left_child=1 2 4 5 6 9 7 8 14 22 23 12 25 15 -1 26 379 79 19 20 21 -3 51 60 52 28 43 -18 -8 75 76 42 33 34 35 36 107 55 445 91 95 -42 45 85 61 90 53 192 78 50 -26 64 -16 951 92 56 -38 58 77 163 -5 161 -56 173 65 -2 132 236 69 70 -69 72 -43 80 169 104 223 -58 110 -6 82 -82 83 -29 111 86 262 199 89 -89 109 212 118 94 -94 174 251 131 99 100 -99 152 -103 -51 105 134 125 -24 129 -32 115 -85 -81 135 314 122 -63 -84 119 121 -121 -47 282 200 -125 -107 127 128 -78 263 133 284 144 225 474 154 382 -127 139 349 400 287 143 -143 -37 -136 148 -148 438 -150 151 232 153 -100 155 156 157 -11 194 254 277 -10 -155 252 -92 352 -167 168 -133 170 -4 172 184 -55 193 -176 177 178 179 185 181 182 241 -184 -139 220 187 -87 189 362 226 233 -46 248 195 -65 -138 1309 -199 -33 201 317 381 -120 -53 -44 210 267 211 -27 -134 228 -40 214 215 216 217 -34 310 -220 -177 222 -108 -13 -181 -131 276 -228 275 298 231 -106 333 -189 235 -235 280 238 -238 240 -240 -162 596 244 -244 -245 -232 -178 249 250 -31 -88 355 508 292 -201 293 666 -197 260 -260 -261 281 264 265 266 -109 268 -208 270 271 -265 -273 -274 370 -28 -191 278 335 -280 -68 -7 -17 294 359 -263 439 288 -142 622 922 -292 437 -257 -97 296 -210 305 299 300 -230 302 -171 -233 509 306 307 -294 -309 329 336 312 -282 -180 315 316 -115 -124 319 495 321 322 -321 458 325 -325 615 328 412 -183 669 332 -332 334 -116 341 337 -135 896 -340 -308 342 343 626 345 -345 -347 -348 -349 350 396 395 353 500 456 -39 357 358 -316 904 361 -361 503 -364 601 -366 384 -262 -269 377 371 374 376 -374 436 610 -373 421 -70 -9 -381 -203 606 -157 385 433 390 388 487 -390 391 392 -387 956 -169 -351 530 507 834 -400 -141 482 -403 404 -225 1310 407 501 410 -410 411 -307 -328 670 416 -416 430 516 -419 488 -421 422 -50 -297 451 1313 427 525 -429 513 431 -190 624 548 860 946 446 -117 -144 440 575 1191 443 -443 819 -14 447 654 -449 630 -392 485 453 454 455 -453 696 -458 890 -384 612 462 545 465 -465 466 -464 -456 589 470 634 -472 520 -474 -22 -393 483 -478 533 480 925 914 756 528 -485 486 619 565 489 490 491 573 -493 678 -495 496 577 -498 499 679 -21 502 948 504 505 -188 -507 871 -254 -293 567 512 1224 514 515 -264 542 -111 519 -487 522 -522 607 909 -525 -252 675 -528 539 -530 910 -406 1315 850 535 -535 537 -537 -505 560 591 -542 578 1323 935 832 -547 851 549 550 912 -552 -553 554 -551 639 557 633 653 -212 561 562 -467 564 898 -388 -279 791 -569 720 -571 572 -572 590 -575 1227 1194 1308 579 580 581 -256 593 584 -584 586 587 -580 602 609 857 -541 617 1220 -585 812 597 -77 623 -600 849 -365 636 604 605 -604 -35 608 900 -358 879 877 -425 656 -615 872 -617 618 -463 620 -424 880 1236 -599 -320 -626 -161 680 -629 642 -448 -632 -298 -490 -470 -278 638 -638 709 640 1299 -642 651 646 -645 -646 647 650 -649 882 -644 -371 -561 -558 655 -248 657 878 -659 722 824 -662 874 -664 683 -432 -223 668 -648 783 671 1213 -673 -674 706 676 677 -303 802 -271 681 682 -112 684 -565 686 687 688 926 691 -691 892 -693 -239 731 -696 875 -698 699 700 897 702 -701 724 705 1279 -609 -378 -300 710 -509 960 -713 716 715 -715 906 1328 -608 -605 -423 -722 1245 -669 814 895 -727 779 729 -725 1320 732 939 734 735 736 1295 -735 -655 740 -590 -742 -550 793 747 962 -747 748 752 751 -751 941 755 800 -755 -708 757 -333 759 775 761 762 -730 830 765 -765 891 -768 769 -611 772 -772 837 774 1329 776 -723 -639 -779 780 -631 917 -783 784 -45 821 -787 788 789 828 -791 867 -793 794 796 -796 797 -744 799 -798 801 -754 887 -804 1219 -806 807 -368 836 -810 -678 -812 995 -814 869 816 817 818 -816 1214 -821 822 -587 -824 825 -658 827 -785 829 -760 852 -832 858 -834 835 -20 -808 838 883 1161 -841 1157 1162 945 905 -846 847 -741 1164 -469 -215 -337 853 -762 855 -614 889 1193 1146 1195 -284 915 1371 -749 -865 866 1152 894 1346 870 -703 885 1192 -503 1177 1232 -654 1296 -520 -317 1024 -882 -647 -653 -731 969 -353 -439 -625 1138 -202 1173 920 -497 -452 1230 1237 1247 -386 1316 -471 902 903 1251 -98 1199 907 958 1322 -524 1372 -521 1307 1319 -372 966 -792 940 -823 -285 930 936 1312 924 -667 -480 -408 -686 1321 -516 1131 1022 933 -828 -568 -323 -903 -838 -302 -641 943 1262 965 944 1197 -770 -436 -486 -399 -839 -523 -23 953 954 -938 -556 -394 -656 1137 -960 961 -711 -687 983 -422 1132 968 -968 1038 984 972 -972 973 -971 975 979 -976 -978 -979 -974 -973 982 -980 -945 985 -15 1189 1015 -989 990 -849 1019 -993 1136 -995 996 -354 998 999 -985 1001 1002 1335 1005 -1005 1010 -1007 -1002 1009 -826 1129 1265 -1013 1126 -1015 1016 -954 1052 -1019 1020 1233 -1022 1023 -757 1025 -619 1142 -1028 1029 -939 1031 -986 1033 1348 1035 -1034 1037 -1032 1039 1040 -789 1156 1043 -997 1045 -999 1047 1216 1349 1050 1175 -1052 1061 -1054 1063 1056 -1056 1058 -1057 1125 -1061 -1017 -1063 1072 1065 -1065 1067 -1021 1084 -1070 1168 -1072 1073 1074 1143 1076 1078 -1078 1079 1080 -1074 1122 1083 1218 1118 -1086 1088 -1088 1101 -1090 1091 -1091 1093 1094 -1092 1097 -1097 1098 1225 1100 -1051 1102 1170 1104 -1103 1106 1160 1114 1109 -1109 1112 -1112 1113 -1110 1116 1172 1117 -1107 -983 1120 -1099 1135 -1081 -1036 -1010 -1060 1130 1128 -962 1210 1134 -689 -683 -1030 -1009 -1040 -964 1154 1330 1174 1145 1204 1260 1181 -1140 1221 -462 1148 1151 -920 1182 1183 1155 1188 -714 1158 -1041 -733 -795 -866 -1105 1184 1185 1198 1231 -830 -926 -1066 1169 1187 -1077 1266 1176 -766 1347 -1048 -1116 -562 1179 -896 -1106 -1038 -935 -1131 -720 -740 -1151 -1071 -836 -987 -1143 1235 -216 -277 -536 1269 -758 -781 -800 -845 -851 -852 -880 1256 -1024 1276 -1089 -1165 1263 -936 -1003 1362 -1211 -412 -445 -884 1382 -1129 -1083 -573 -582 -947 1384 -777 -512 1272 1293 -182 1300 -627 -588 -817 -152 -991 -1235 -140 -236 -253 -515 -538 -567 -593 1324 -622 -652 1354 1325 -685 1249 -721 -802 -854 -881 -890 -892 1331 1333 -961 1304 1278 -1026 1282 -750 -862 -963 1381 -1095 1379 -1264 -540 -818 -1064 -1094 1386 -811 -833 -1087 -1278 -981 1289 -1181 -1069 -1206 1302 -913 1286 -1115 -1146 -1288 -705 -1145 -1196 -888 -1135 -886 -734 -476 1385 -1225 -555 -581 -1139 -902 -1210 -969 -1302 -313 -80 -137 -164 -272 -289 -291 -326 -329 -339 -343 -344 -359 -370 -405 -440 -502 -544 -596 1370 -679 -716 -718 -774 -856 -895 -906 -956 -975 -1000 -1045 -1111 -1166 -1172 -1238 -1241 -1259 -249 -628 -801 -869 -872 -1033 -1049 -1055 -1199 -1249 -636 -660 -1126 -1171 -1207 -1263 -855 -1047 -1198 -1202 -1219 -1223 -1257 -1214 -1079 -637 -1358 -675 -863 1373 -36 -603 -1157 -1188 -1209 -1222 1388 -1284 -1012 -1046 -1383 -878 -1119 -500 -1203 -1234 -402 -1175 -311 -1272 -1393 -1153 -1160
right_child=3 18 74 10 17 13 11 16 44 113 -12 30 38 397 24 48 27 -19 398 165 29 46 32 -25 49 209 208 73 -30 40 31 87 213 136 138 66 37 59 39 -41 41 71 205 330 47 54 -48 -49 369 103 -52 204 -54 63 62 -57 57 -59 -60 -61 -62 116 -64 158 -66 -67 67 68 378 -71 -72 -73 -74 -75 -76 242 126 -79 366 112 81 -83 117 84 -86 186 96 88 -90 -91 164 -93 93 -95 -96 283 97 98 101 -101 -102 102 -104 -105 230 106 221 108 -110 517 627 -113 -114 114 150 159 -118 -119 203 120 -122 -123 123 124 -126 137 -128 -129 -130 130 -132 167 206 218 145 318 196 171 441 140 141 142 146 -145 -146 -147 147 -149 149 -151 354 -153 -154 162 -156 383 -158 -159 -160 160 180 -163 197 -165 -166 166 -168 394 -170 301 -172 -173 -174 -175 175 176 247 -179 313 224 286 309 183 -185 -186 -187 188 191 414 190 -192 -193 -194 -195 -196 258 -198 198 -200 255 323 202 -204 -205 -206 -207 207 -209 295 -211 559 -213 -214 478 326 -217 -218 -219 219 -221 -222 257 -224 403 -226 -227 227 -229 229 -231 246 303 -234 234 289 -237 237 693 239 -241 -242 -243 243 245 -246 -247 274 1343 -250 -251 426 338 253 -255 417 256 -258 -259 259 261 367 285 429 269 -266 -267 -268 368 -270 498 405 272 273 -275 -276 419 635 566 279 -281 311 -283 434 919 -286 -287 -288 1311 -290 290 291 304 297 -295 -296 423 632 -299 708 -301 938 526 -304 -305 -306 408 340 308 -310 1391 -312 1306 -314 -315 356 375 -318 -319 432 320 -322 544 -324 324 425 -327 327 1314 -330 -331 331 401 -334 -335 -336 547 -338 532 339 -341 -342 899 1317 344 -346 346 347 348 -350 351 -352 886 595 -355 -356 -357 468 1318 -360 360 -362 -363 363 364 365 -367 806 -369 913 629 481 372 373 -375 -376 -377 707 -379 -380 380 -382 -383 459 -385 563 386 387 -389 389 -391 450 475 393 -395 -396 -397 -398 406 399 -401 1389 402 -404 730 531 -407 685 -409 409 -411 413 -413 -414 -415 415 -417 -418 418 -420 420 964 569 424 460 -426 -427 -428 428 -430 -431 665 -433 -434 -435 435 -437 -438 493 928 -441 -442 442 -444 444 -446 -447 449 448 -450 -451 510 452 -454 -455 467 -457 457 -459 -460 -461 461 592 463 464 -466 476 -468 600 469 472 471 -473 473 -475 611 -477 477 -479 479 -481 -482 -483 -484 484 947 518 -488 -489 556 -491 -492 492 -494 494 -496 893 497 -499 1273 -501 908 873 -504 538 -506 506 -508 588 -510 -511 511 -513 -514 1238 929 -517 -518 -519 613 911 521 950 523 524 -526 -527 527 -529 529 -531 -532 -533 -534 534 576 536 1239 -539 859 540 541 -543 543 -545 -546 546 -548 -549 742 553 551 552 -554 555 955 -557 558 -559 -560 652 662 -563 -564 664 -566 1240 934 568 -570 570 571 804 -574 574 -576 -577 -578 -579 585 1228 582 -583 583 594 -586 785 725 -589 739 -591 -592 1241 -594 -595 1242 -597 -598 598 599 -601 -602 1374 603 719 -606 -607 718 674 -610 768 -612 -613 854 614 -616 616 -618 621 -620 -621 1243 -623 -624 888 625 1229 1344 628 -630 727 631 -633 -634 -635 1353 1368 637 777 -640 694 641 -643 643 644 645 649 667 648 -650 -651 1244 770 876 738 957 -657 660 658 659 -661 661 -663 663 -665 -666 923 -668 723 -670 -671 -672 672 673 1246 -676 -677 810 1326 -680 -681 -682 942 -684 698 927 745 -688 689 -690 690 -692 692 -694 -695 695 -697 697 -699 -700 701 -702 703 -704 704 -706 -707 744 -709 -710 711 -712 712 713 714 1327 -717 717 -719 839 1248 721 758 -724 728 -726 726 -728 -729 760 884 -732 841 733 737 -736 -737 -738 -739 842 846 741 -743 743 -745 -746 746 -748 863 749 750 -752 -753 753 754 -756 931 1196 -759 787 -761 763 -763 -764 764 766 -767 767 -769 843 -771 771 -773 773 -775 -776 1223 -778 778 -780 781 -782 782 -784 826 -786 786 -788 861 -790 790 916 792 -794 865 795 -797 798 -799 1163 1345 1250 -803 803 -805 805 -807 808 -809 809 1274 811 -813 813 -815 815 848 1270 -819 -820 820 -822 918 823 -825 1008 -827 932 -829 1165 -831 831 1275 833 -835 1153 -837 937 949 -840 840 -842 -843 -844 844 845 -847 -848 989 -850 1200 1201 -853 901 1359 856 -857 -858 -859 -860 -861 1208 862 -864 864 1159 -867 -868 868 -870 -871 1139 -873 -874 -875 -876 -877 1222 -879 1202 1252 881 -883 1215 -885 1294 -887 1292 -889 1253 -891 1254 -893 -894 1255 1178 -897 -898 -899 -900 -901 1283 921 -904 -905 1332 -907 -908 -909 -910 -911 -912 1284 -914 -915 -916 -917 -918 -919 1149 -921 -922 -923 -924 -925 1166 -927 -928 -929 -930 -931 -932 -933 -934 1150 1209 -937 952 1028 -940 -941 -942 -943 -944 963 -946 1140 -948 -949 -950 -951 -952 -953 987 -955 1203 -957 -958 -959 959 1257 1127 1264 993 -965 -966 -967 967 1258 -970 970 971 980 974 1334 976 -977 977 978 981 1259 -982 1068 -984 997 1030 986 -988 988 -990 991 -992 992 -994 994 -996 1042 -998 1044 1000 -1001 1007 1003 -1004 1004 -1006 1006 -1008 1013 1124 -1011 1011 1012 -1014 1014 -1016 1017 -1018 1018 -1020 1066 1021 -1023 1141 -1025 1026 -1027 1027 -1029 1133 -1031 1036 1032 1034 -1035 1123 -1037 1054 -1039 1121 1041 -1042 -1043 -1044 1336 1046 1360 1049 1048 -1050 1099 1051 -1053 1053 1350 1055 1057 -1058 -1059 1059 1060 -1062 1062 1271 1064 1167 -1067 -1068 1281 1069 1070 1071 -1073 1075 -1075 -1076 1086 1077 1367 -1080 1081 -1082 1082 -1084 -1085 1085 1205 1087 1206 1089 1090 1092 -1093 1095 1171 -1096 1096 -1098 1119 -1100 -1101 -1102 1103 -1104 1105 1180 1107 -1108 1108 1110 1337 1111 -1113 -1114 1285 1115 -1117 -1118 1297 -1120 -1121 -1122 -1123 -1124 -1125 1355 -1127 -1128 1217 -1130 1147 -1132 -1133 -1134 1226 -1136 -1137 -1138 1301 1144 -1141 -1142 1190 -1144 1290 1287 -1147 -1148 -1149 -1150 1186 -1152 1394 -1154 -1155 -1156 1375 -1158 -1159 1395 -1161 -1162 -1163 -1164 1207 1338 -1167 -1168 -1169 -1170 1356 1339 -1173 -1174 1390 -1176 -1177 -1178 -1179 -1180 1280 -1182 -1183 -1184 -1185 -1186 -1187 1376 -1189 -1190 -1191 -1192 -1193 -1194 -1195 1291 -1197 1361 1351 -1200 -1201 1211 1387 -1204 -1205 1261 1357 -1208 1377 1303 1212 -1212 -1213 1366 -1215 -1216 -1217 -1218 1363 -1220 -1221 1378 1364 -1224 1298 -1226 -1227 -1228 -1229 -1230 -1231 -1232 -1233 1267 1234 -1236 -1237 1340 -1239 -1240 1341 -1242 -1243 -1244 -1245 -1246 -1247 -1248 1352 -1250 -1251 -1252 -1253 -1254 -1255 -1256 1365 -1258 1342 -1260 -1261 -1262 1358 1268 -1265 -1266 -1267 -1268 -1269 -1270 -1271 1392 -1273 -1274 -1275 -1276 -1277 1277 -1279 -1280 -1281 -1282 -1283 1380 -1285 -1286 -1287 1288 -1289 -1290 -1291 -1292 -1293 -1294 -1295 -1296 -1297 -1298 -1299 -1300 -1301 1305 -1303 -1304 -1305 -1306 -1307 -1308 -1309 -1310 -1311 -1312 -1313 -1314 -1315 -1316 -1317 -1318 -1319 -1320 -1321 -1322 -1323 -1324 -1325 -1326 -1327 -1328 -1329 -1330 -1331 -1332 -1333 -1334 -1335 -1336 -1337 -1338 -1339 -1340 -1341 -1342 -1343 -1344 -1345 -1346 -1347 -1348 -1349 -1350 -1351 -1352 -1353 -1354 -1355 -1356 -1357 1369 -1359 -1360 -1361 -1362 -1363 -1364 -1365 -1366 -1367 -1368 -1369 -1370 -1371 -1372 -1373 -1374 -1375 -1376 -1377 -1378 -1379 -1380 -1381 -1382 1383 -1384 -1385 -1386 -1387 -1388 -1389 -1390 -1391 -1392 1393 -1394 -1395 -1396 -1397
