tree
version=v4
num_class=1
num_tree_per_iteration=1
label_index=0
max_feature_idx=609
objective=binary sigmoid:1
feature_names=active_quarter active_quarter_lag_0 cliente_vip cliente_vip_lag_1 internet internet_lag_2 cliente_edad cliente_edad_lag_3 cliente_antiguedad cliente_antiguedad_lag_4 mrentabilidad mrentabilidad_lag_5 mrentabilidad_annual mrentabilidad_annual_lag_6 mcomisiones mcomisiones_lag_7 mactivos_margen mactivos_margen_lag_8 mpasivos_margen mpasivos_margen_lag_9 cproductos cproductos_lag_10 tcuentas tcuentas_lag_11 ccuenta_corriente ccuenta_corriente_lag_12 mcuenta_corriente_adicional mcuenta_corriente_adicional_lag_13 mcuenta_corriente mcuenta_corriente_lag_14 ccaja_ahorro ccaja_ahorro_lag_15 mcaja_ahorro mcaja_ahorro_lag_16 mcaja_ahorro_adicional mcaja_ahorro_adicional_lag_17 mcaja_ahorro_dolares mcaja_ahorro_dolares_lag_18 cdescubierto_preacordado cdescubierto_preacordado_lag_19 mcuentas_saldo mcuentas_saldo_lag_20 ctarjeta_debito ctarjeta_debito_lag_21 ctarjeta_debito_transacciones ctarjeta_debito_transacciones_lag_22 mautoservicio mautoservicio_lag_23 ctarjeta_visa ctarjeta_visa_lag_24 ctarjeta_visa_transacciones ctarjeta_visa_transacciones_lag_25 mtarjeta_visa_consumo mtarjeta_visa_consumo_lag_26 ctarjeta_master ctarjeta_master_lag_27 ctarjeta_master_transacciones ctarjeta_master_transacciones_lag_28 mtarjeta_master_consumo mtarjeta_master_consumo_lag_29 cprestamos_personales cprestamos_personales_lag_30 mprestamos_personales mprestamos_personales_lag_31 cprestamos_prendarios cprestamos_prendarios_lag_32 mprestamos_prendarios mprestamos_prendarios_lag_33 cprestamos_hipotecarios cprestamos_hipotecarios_lag_34 mprestamos_hipotecarios mprestamos_hipotecarios_lag_35 cplazo_fijo cplazo_fijo_lag_36 mplazo_fijo_dolares mplazo_fijo_dolares_lag_37 mplazo_fijo_pesos mplazo_fijo_pesos_lag_38 cinversion1 cinversion1_lag_39 minversion1_pesos minversion1_pesos_lag_40 minversion1_dolares minversion1_dolares_lag_41 cinversion2 cinversion2_lag_42 minversion2 minversion2_lag_43 cseguro_vida cseguro_vida_lag_44 cseguro_auto cseguro_auto_lag_45 cseguro_vivienda cseguro_vivienda_lag_46 cseguro_accidentes_personales cseguro_accidentes_personales_lag_47 ccaja_seguridad ccaja_seguridad_lag_48 cpayroll_trx cpayroll_trx_lag_49 mpayroll mpayroll_lag_50 mpayroll2 mpayroll2_lag_51 cpayroll2_trx cpayroll2_trx_lag_52 ccuenta_debitos_automaticos ccuenta_debitos_automaticos_lag_53 mcuenta_debitos_automaticos mcuenta_debitos_automaticos_lag_54 ctarjeta_visa_debitos_automaticos ctarjeta_visa_debitos_automaticos_lag_55 mttarjeta_visa_debitos_automaticos mttarjeta_visa_debitos_automaticos_lag_56 ctarjeta_master_debitos_automaticos ctarjeta_master_debitos_automaticos_lag_57 mttarjeta_master_debitos_automaticos mttarjeta_master_debitos_automaticos_lag_58 cpagodeservicios cpagodeservicios_lag_59 mpagodeservicios mpagodeservicios_lag_60 cpagomiscuentas cpagomiscuentas_lag_61 mpagomiscuentas mpagomiscuentas_lag_62 ccajeros_propios_descuentos ccajeros_propios_descuentos_lag_63 mcajeros_propios_descuentos mcajeros_propios_descuentos_lag_64 ctarjeta_visa_descuentos ctarjeta_visa_descuentos_lag_65 mtarjeta_visa_descuentos mtarjeta_visa_descuentos_lag_66 ctarjeta_master_descuentos ctarjeta_master_descuentos_lag_67 mtarjeta_master_descuentos mtarjeta_master_descuentos_lag_68 ccomisiones_mantenimiento ccomisiones_mantenimiento_lag_69 mcomisiones_mantenimiento mcomisiones_mantenimiento_lag_70 ccomisiones_otras ccomisiones_otras_lag_71 mcomisiones_otras mcomisiones_otras_lag_72 cforex cforex_lag_73 cforex_buy cforex_buy_lag_74 mforex_buy mforex_buy_lag_75 cforex_sell cforex_sell_lag_76 mforex_sell mforex_sell_lag_77 ctransferencias_recibidas ctransferencias_recibidas_lag_78 mtransferencias_recibidas mtransferencias_recibidas_lag_79 ctransferencias_emitidas ctransferencias_emitidas_lag_80 mtransferencias_emitidas mtransferencias_emitidas_lag_81 cextraccion_autoservicio cextraccion_autoservicio_lag_82 mextraccion_autoservicio mextraccion_autoservicio_lag_83 ccheques_depositados ccheques_depositados_lag_84 mcheques_depositados mcheques_depositados_lag_85 ccheques_emitidos ccheques_emitidos_lag_86 mcheques_emitidos mcheques_emitidos_lag_87 ccheques_depositados_rechazados ccheques_depositados_rechazados_lag_88 mcheques_depositados_rechazados mcheques_depositados_rechazados_lag_89 ccheques_emitidos_rechazados ccheques_emitidos_rechazados_lag_90 mcheques_emitidos_rechazados mcheques_emitidos_rechazados_lag_91 tcallcenter tcallcenter_lag_92 ccallcenter_transacciones ccallcenter_transacciones_lag_93 thomebanking thomebanking_lag_94 chomebanking_transacciones chomebanking_transacciones_lag_95 ccajas_transacciones ccajas_transacciones_lag_96 ccajas_consultas ccajas_consultas_lag_97 ccajas_depositos ccajas_depositos_lag_98 ccajas_extracciones ccajas_extracciones_lag_99 ccajas_otras ccajas_otras_lag_100 catm_trx catm_trx_lag_101 matm matm_lag_102 catm_trx_other catm_trx_other_lag_103 matm_other matm_other_lag_104 ctrx_quarter ctrx_quarter_lag_105 tmobile_app tmobile_app_lag_106 cmobile_app_trx cmobile_app_trx_lag_107 Master_delinquency Master_delinquency_lag_108 Master_status Master_status_lag_109 Master_mfinanciacion_limite Master_mfinanciacion_limite_lag_110 Master_Fvencimiento Master_Fvencimiento_lag_111 Master_Finiciomora Master_Finiciomora_lag_112 Master_msaldototal Master_msaldototal_lag_113 Master_msaldopesos Master_msaldopesos_lag_114 Master_msaldodolares Master_msaldodolares_lag_115 Master_mconsumospesos Master_mconsumospesos_lag_116 Master_mconsumosdolares Master_mconsumosdolares_lag_117 Master_mlimitecompra Master_mlimitecompra_lag_118 Master_madelantopesos Master_madelantopesos_lag_119 Master_madelantodolares Master_madelantodolares_lag_120 Master_fultimo_cierre Master_fultimo_cierre_lag_121 Master_mpagado Master_mpagado_lag_122 Master_mpagospesos Master_mpagospesos_lag_123 Master_mpagosdolares Master_mpagosdolares_lag_124 Master_fechaalta Master_fechaalta_lag_125 Master_mconsumototal Master_mconsumototal_lag_126 Master_cconsumos Master_cconsumos_lag_127 Master_cadelantosefectivo Master_cadelantosefectivo_lag_128 Master_mpagominimo Master_mpagominimo_lag_129 Visa_delinquency Visa_delinquency_lag_130 Visa_status Visa_status_lag_131 Visa_mfinanciacion_limite Visa_mfinanciacion_limite_lag_132 Visa_Fvencimiento Visa_Fvencimiento_lag_133 Visa_Finiciomora Visa_Finiciomora_lag_134 Visa_msaldototal Visa_msaldototal_lag_135 Visa_msaldopesos Visa_msaldopesos_lag_136 Visa_msaldodolares Visa_msaldodolares_lag_137 Visa_mconsumospesos Visa_mconsumospesos_lag_138 Visa_mconsumosdolares Visa_mconsumosdolares_lag_139 Visa_mlimitecompra Visa_mlimitecompra_lag_140 Visa_madelantopesos Visa_madelantopesos_lag_141 Visa_madelantodolares Visa_madelantodolares_lag_142 Visa_fultimo_cierre Visa_fultimo_cierre_lag_143 Visa_mpagado Visa_mpagado_lag_144 Visa_mpagospesos Visa_mpagospesos_lag_145 Visa_mpagosdolares Visa_mpagosdolares_lag_146 Visa_fechaalta Visa_fechaalta_lag_147 Visa_mconsumototal Visa_mconsumototal_lag_148 Visa_cconsumos Visa_cconsumos_lag_149 Visa_cadelantosefectivo Visa_cadelantosefectivo_lag_150 Visa_mpagominimo Visa_mpagominimo_lag_151 numero_de_cliente foto_mes active_quarter_1 cliente_vip_1 internet_1 cliente_edad_1 cliente_antiguedad_1 mrentabilidad_1 mrentabilidad_annual_1 mcomisiones_1 mactivos_margen_1 mpasivos_margen_1 cproductos_1 tcuentas_1 ccuenta_corriente_1 mcuenta_corriente_adicional_1 mcuenta_corriente_1 ccaja_ahorro_1 mcaja_ahorro_1 mcaja_ahorro_adicional_1 mcaja_ahorro_dolares_1 cdescubierto_preacordado_1 mcuentas_saldo_1 ctarjeta_debito_1 ctarjeta_debito_transacciones_1 mautoservicio_1 ctarjeta_visa_1 ctarjeta_visa_transacciones_1 mtarjeta_visa_consumo_1 ctarjeta_master_1 ctarjeta_master_transacciones_1 mtarjeta_master_consumo_1 cprestamos_personales_1 mprestamos_personales_1 cprestamos_prendarios_1 mprestamos_prendarios_1 cprestamos_hipotecarios_1 mprestamos_hipotecarios_1 cplazo_fijo_1 mplazo_fijo_dolares_1 mplazo_fijo_pesos_1 cinversion1_1 minversion1_pesos_1 minversion1_dolares_1 cinversion2_1 minversion2_1 cseguro_vida_1 cseguro_auto_1 cseguro_vivienda_1 cseguro_accidentes_personales_1 ccaja_seguridad_1 cpayroll_trx_1 mpayroll_1 mpayroll2_1 cpayroll2_trx_1 ccuenta_debitos_automaticos_1 mcuenta_debitos_automaticos_1 ctarjeta_visa_debitos_automaticos_1 mttarjeta_visa_debitos_automaticos_1 ctarjeta_master_debitos_automaticos_1 mttarjeta_master_debitos_automaticos_1 cpagodeservicios_1 mpagodeservicios_1 cpagomiscuentas_1 mpagomiscuentas_1 ccajeros_propios_descuentos_1 mcajeros_propios_descuentos_1 ctarjeta_visa_descuentos_1 mtarjeta_visa_descuentos_1 ctarjeta_master_descuentos_1 mtarjeta_master_descuentos_1 ccomisiones_mantenimiento_1 mcomisiones_mantenimiento_1 ccomisiones_otras_1 mcomisiones_otras_1 cforex_1 cforex_buy_1 mforex_buy_1 cforex_sell_1 mforex_sell_1 ctransferencias_recibidas_1 mtransferencias_recibidas_1 ctransferencias_emitidas_1 mtransferencias_emitidas_1 cextraccion_autoservicio_1 mextraccion_autoservicio_1 ccheques_depositados_1 mcheques_depositados_1 ccheques_emitidos_1 mcheques_emitidos_1 ccheques_depositados_rechazados_1 mcheques_depositados_rechazados_1 ccheques_emitidos_rechazados_1 mcheques_emitidos_rechazados_1 tcallcenter_1 ccallcenter_transacciones_1 thomebanking_1 chomebanking_transacciones_1 ccajas_transacciones_1 ccajas_consultas_1 ccajas_depositos_1 ccajas_extracciones_1 ccajas_otras_1 catm_trx_1 matm_1 catm_trx_other_1 matm_other_1 ctrx_quarter_1 tmobile_app_1 cmobile_app_trx_1 Master_delinquency_1 Master_status_1 Master_mfinanciacion_limite_1 Master_Fvencimiento_1 Master_Finiciomora_1 Master_msaldototal_1 Master_msaldopesos_1 Master_msaldodolares_1 Master_mconsumospesos_1 Master_mconsumosdolares_1 Master_mlimitecompra_1 Master_madelantopesos_1 Master_madelantodolares_1 Master_fultimo_cierre_1 Master_mpagado_1 Master_mpagospesos_1 Master_mpagosdolares_1 Master_fechaalta_1 Master_mconsumototal_1 Master_cconsumos_1 Master_cadelantosefectivo_1 Master_mpagominimo_1 Visa_delinquency_1 Visa_status_1 Visa_mfinanciacion_limite_1 Visa_Fvencimiento_1 Visa_Finiciomora_1 Visa_msaldototal_1 Visa_msaldopesos_1 Visa_msaldodolares_1 Visa_mconsumospesos_1 Visa_mconsumosdolares_1 Visa_mlimitecompra_1 Visa_madelantopesos_1 Visa_madelantodolares_1 Visa_fultimo_cierre_1 Visa_mpagado_1 Visa_mpagospesos_1 Visa_mpagosdolares_1 Visa_fechaalta_1 Visa_mconsumototal_1 Visa_cconsumos_1 Visa_cadelantosefectivo_1 Visa_mpagominimo_1 delta_active_quarter_1 delta_cliente_vip_1 delta_internet_1 delta_cliente_edad_1 delta_cliente_antiguedad_1 delta_mrentabilidad_1 delta_mrentabilidad_annual_1 delta_mcomisiones_1 delta_mactivos_margen_1 delta_mpasivos_margen_1 delta_cproductos_1 delta_tcuentas_1 delta_ccuenta_corriente_1 delta_mcuenta_corriente_adicional_1 delta_mcuenta_corriente_1 delta_ccaja_ahorro_1 delta_mcaja_ahorro_1 delta_mcaja_ahorro_adicional_1 delta_mcaja_ahorro_dolares_1 delta_cdescubierto_preacordado_1 delta_mcuentas_saldo_1 delta_ctarjeta_debito_1 delta_ctarjeta_debito_transacciones_1 delta_mautoservicio_1 delta_ctarjeta_visa_1 delta_ctarjeta_visa_transacciones_1 delta_mtarjeta_visa_consumo_1 delta_ctarjeta_master_1 delta_ctarjeta_master_transacciones_1 delta_mtarjeta_master_consumo_1 delta_cprestamos_personales_1 delta_mprestamos_personales_1 delta_cprestamos_prendarios_1 delta_mprestamos_prendarios_1 delta_cprestamos_hipotecarios_1 delta_mprestamos_hipotecarios_1 delta_cplazo_fijo_1 delta_mplazo_fijo_dolares_1 delta_mplazo_fijo_pesos_1 delta_cinversion1_1 delta_minversion1_pesos_1 delta_minversion1_dolares_1 delta_cinversion2_1 delta_minversion2_1 delta_cseguro_vida_1 delta_cseguro_auto_1 delta_cseguro_vivienda_1 delta_cseguro_accidentes_personales_1 delta_ccaja_seguridad_1 delta_cpayroll_trx_1 delta_mpayroll_1 delta_mpayroll2_1 delta_cpayroll2_trx_1 delta_ccuenta_debitos_automaticos_1 delta_mcuenta_debitos_automaticos_1 delta_ctarjeta_visa_debitos_automaticos_1 delta_mttarjeta_visa_debitos_automaticos_1 delta_ctarjeta_master_debitos_automaticos_1 delta_mttarjeta_master_debitos_automaticos_1 delta_cpagodeservicios_1 delta_mpagodeservicios_1 delta_cpagomiscuentas_1 delta_mpagomiscuentas_1 delta_ccajeros_propios_descuentos_1 delta_mcajeros_propios_descuentos_1 delta_ctarjeta_visa_descuentos_1 delta_mtarjeta_visa_descuentos_1 delta_ctarjeta_master_descuentos_1 delta_mtarjeta_master_descuentos_1 delta_ccomisiones_mantenimiento_1 delta_mcomisiones_mantenimiento_1 delta_ccomisiones_otras_1 delta_mcomisiones_otras_1 delta_cforex_1 delta_cforex_buy_1 delta_mforex_buy_1 delta_cforex_sell_1 delta_mforex_sell_1 delta_ctransferencias_recibidas_1 delta_mtransferencias_recibidas_1 delta_ctransferencias_emitidas_1 delta_mtransferencias_emitidas_1 delta_cextraccion_autoservicio_1 delta_mextraccion_autoservicio_1 delta_ccheques_depositados_1 delta_mcheques_depositados_1 delta_ccheques_emitidos_1 delta_mcheques_emitidos_1 delta_ccheques_depositados_rechazados_1 delta_mcheques_depositados_rechazados_1 delta_ccheques_emitidos_rechazados_1 delta_mcheques_emitidos_rechazados_1 delta_tcallcenter_1 delta_ccallcenter_transacciones_1 delta_thomebanking_1 delta_chomebanking_transacciones_1 delta_ccajas_transacciones_1 delta_ccajas_consultas_1 delta_ccajas_depositos_1 delta_ccajas_extracciones_1 delta_ccajas_otras_1 delta_catm_trx_1 delta_matm_1 delta_catm_trx_other_1 delta_matm_other_1 delta_ctrx_quarter_1 delta_tmobile_app_1 delta_cmobile_app_trx_1 delta_Master_delinquency_1 delta_Master_status_1 delta_Master_mfinanciacion_limite_1 delta_Master_Fvencimiento_1 delta_Master_Finiciomora_1 delta_Master_msaldototal_1 delta_Master_msaldopesos_1 delta_Master_msaldodolares_1 delta_Master_mconsumospesos_1 delta_Master_mconsumosdolares_1 delta_Master_mlimitecompra_1 delta_Master_madelantopesos_1 delta_Master_madelantodolares_1 delta_Master_fultimo_cierre_1 delta_Master_mpagado_1 delta_Master_mpagospesos_1 delta_Master_mpagosdolares_1 delta_Master_fechaalta_1 delta_Master_mconsumototal_1 delta_Master_cconsumos_1 delta_Master_cadelantosefectivo_1 delta_Master_mpagominimo_1 delta_Visa_delinquency_1 delta_Visa_status_1 delta_Visa_mfinanciacion_limite_1 delta_Visa_Fvencimiento_1 delta_Visa_Finiciomora_1 delta_Visa_msaldototal_1 delta_Visa_msaldopesos_1 delta_Visa_msaldodolares_1 delta_Visa_mconsumospesos_1 delta_Visa_mconsumosdolares_1 delta_Visa_mlimitecompra_1 delta_Visa_madelantopesos_1 delta_Visa_madelantodolares_1 delta_Visa_fultimo_cierre_1 delta_Visa_mpagado_1 delta_Visa_mpagospesos_1 delta_Visa_mpagosdolares_1 delta_Visa_fechaalta_1 delta_Visa_mconsumototal_1 delta_Visa_cconsumos_1 delta_Visa_cadelantosefectivo_1 delta_Visa_mpagominimo_1
feature_infos=[0:1] [0:1] [0:1] [0:1] [0:3] [0:3] [19:101] [0:0] [1:375] [0:0] [-625078.98999999999:1422599.8300000001] [0:0] [-5458566.3300000001:4724933.8799999999] [0:0] [-295966.15999999997:343691.62] [0:0] [-296451.62:396059.15999999997] [0:0] [-30222.669999999998:1210376.54] [0:0] [3:17] [0:0] [1:2] [0:0] [1:3] [0:0] [-18754.25:20657419.969999999] [0:0] [-2610299.1099999999:28663799.539999999] [0:0] [2:10] [0:0] [-4752.5299999999997:91384784.569999993] [0:0] [0:2010363.4399999999] [0:0] [-21005.5:142724206.71000001] [0:0] [0:1] [0:0] [-2610221.8100000001:143355449.65000001] [0:0] [0:114] [0:0] [0:151] [0:0] [0:645441.94999999995] [0:0] [0:3] [0:0] [0:373] [0:0] [0:2032684.48] [0:0] [0:3] [0:0] [0:334] [0:0] [0:2564181.1200000001] [0:0] [0:609] [0:0] [0:4404859.2699999996] [0:0] [0:23] [0:0] [0:17204182.640000001] [0:0] [0:13] [0:0] [0:20768481.649999999] [0:0] [0:120] [0:0] [0:60255779.869999997] [0:0] [0:39762353.350000001] [0:0] [0:16] [0:0] [0:180376921.74000001] [0:0] [0:59852711.590000004] [0:0] [0:52] [0:0] [0:252574446.31999999] [0:0] [0:3] [0:0] [0:5] [0:0] [0:7] [0:0] [0:2] [0:0] [0:6] [0:0] [0:93] [0:0] [0:26498152.109999999] [0:0] [0:440643.56] [0:0] [0:5] [0:0] [0:104] [0:0] [0:2406059.79] [0:0] [0:93] [0:0] [0:715814.13] [0:0] [0:31] [0:0] [0:645342.08999999997] [0:0] [0:30] [0:0] [0:8187540] [0:0] [0:123] [0:0] [0:20135497.68] [0:0] [0:17] [0:0] [0:7252.0699999999997] [0:0] [0:15] [0:0] [0:79578.979999999996] [0:0] [0:31] [0:0] [0:53235.940000000002] [0:0] [0:67] [0:0] [-9640.8799999999992:13647.190000000001] [0:0] [0:1643] [0:0] [-295966.15999999997:343691.62] [0:0] [0:15] [0:0] [0:15] [0:0] [0:56069.400000000001] [0:0] [0:8] [0:0] [0:19010.810000000001] [0:0] [0:624] [0:0] [0:312460278.16000003] [0:0] [0:223] [0:0] [0:69981177.849999994] [0:0] [0:123] [0:0] [0:2727225] [0:0] [0:225] [0:0] [0:30694717.690000001] [0:0] [0:147] [0:0] [0:31495050] [0:0] [0:16] [0:0] [0:3159976.1400000001] [0:0] [0:16] [0:0] [0:3167100] [0:0] [0:1] [0:0] [0:99] [0:0] [0:1] [0:0] [0:4019] [0:0] [0:1] [0:0] [0:35] [0:0] [0:28] [0:0] [0:16] [0:0] [0:155] [0:0] [0:118] [0:0] [0:2727225] [0:0] [0:81] [0:0] [0:387090] [0:0] [0:2702] [0:0] [0:1] [0:0] [0:1] [0:0] [0:1] [0:0] [0:9] [0:0] [0:89947191.870000005] [0:0] [-2914209:5084] [0:0] [-1:169] [0:0] [-853697.89000000001:10124981.02] [0:0] [-853697.89000000001:7742312.3399999999] [0:0] [-761894.03000000003:2474581.5800000001] [0:0] [-53235.940000000002:2550252.1000000001] [0:0] [0:27707.549999999999] [0:0] [985.32000000000005:9063466.0199999996] [0:0] [0:17595] [0:0] [0:108] [0:0] [-3:126] [0:0] [0:1228193.5] [0:0] [-2019260.8500000001:2029290] [0:0] [0:18591.740000000002] [0:0] [1:7602] [0:0] [-53235.940000000002:2550252.1000000001] [0:0] [0:180] [0:0] [0:15] [0:0] [0:6994634.1900000004] [0:0] [0:1] [0:0] [0:9] [0:0] [0:109344135.72] [0:0] [-2914209:5054] [0:0] [0:178] [0:0] [-756698.06999999995:2860856.3199999998] [0:0] [-543931.06999999995:3354720.1099999999] [0:0] [-730281.20999999996:711538.18000000005] [0:0] [-61868.209999999999:2026644.3999999999] [0:0] [0:7629.4300000000003] [0:0] [1011.71:12633210] [0:0] [0:131376] [0:0] [0:1190.5899999999999] [0:0] [-3:133] [0:0] [0:1390235.6200000001] [0:0] [-2268723.1400000001:48060.610000000001] [0:0] [0:11274.809999999999] [0:0] [1:12608] [0:0] [-61868.209999999999:2026644.3999999999] [0:0] [0:199] [0:0] [0:19] [0:0] [0:2199058.29] [0:0] [249221323:1589611354] [202102:202103] [0:1] [0:1] [0:3] [19:101] [1:375] [-625078.98999999999:1422599.8300000001] [-5458566.3300000001:4724933.8799999999] [-295966.15999999997:343691.62] [-296451.62:396059.15999999997] [-30222.669999999998:1210376.54] [3:17] [1:2] [1:3] [-18754.25:20657419.969999999] [-2610299.1099999999:28663799.539999999] [2:10] [-4752.5299999999997:91384784.569999993] [0:2010363.4399999999] [-21005.5:142724206.71000001] [0:1] [-2610221.8100000001:143355449.65000001] [0:114] [0:151] [0:645441.94999999995] [0:3] [0:373] [0:2032684.48] [0:3] [0:334] [0:2564181.1200000001] [0:609] [0:4404859.2699999996] [0:23] [0:17204182.640000001] [0:13] [0:20768481.649999999] [0:120] [0:60255779.869999997] [0:39762353.350000001] [0:16] [0:180376921.74000001] [0:59852711.590000004] [0:52] [0:252574446.31999999] [0:3] [0:5] [0:7] [0:2] [0:6] [0:93] [0:26498152.109999999] [0:440643.56] [0:5] [0:104] [0:2406059.79] [0:93] [0:715814.13] [0:31] [0:645342.08999999997] [0:30] [0:8187540] [0:123] [0:20135497.68] [0:17] [0:7252.0699999999997] [0:15] [0:79578.979999999996] [0:31] [0:53235.940000000002] [0:67] [-9640.8799999999992:13647.190000000001] [0:1643] [-295966.15999999997:343691.62] [0:15] [0:15] [0:56069.400000000001] [0:8] [0:19010.810000000001] [0:624] [0:312460278.16000003] [0:223] [0:69981177.849999994] [0:123] [0:2727225] [0:225] [0:30694717.690000001] [0:147] [0:31495050] [0:16] [0:3159976.1400000001] [0:16] [0:3167100] [0:1] [0:99] [0:1] [0:4019] [0:1] [0:35] [0:28] [0:16] [0:155] [0:118] [0:2727225] [0:81] [0:387090] [0:2702] [0:1] [0:1] [0:1] [0:9] [0:89947191.870000005] [-2914209:5084] [-1:169] [-853697.89000000001:10124981.02] [-853697.89000000001:7742312.3399999999] [-761894.03000000003:2474581.5800000001] [-53235.940000000002:2550252.1000000001] [0:27707.549999999999] [985.32000000000005:9063466.0199999996] [0:17595] [0:108] [-3:126] [0:1228193.5] [-2019260.8500000001:2029290] [0:18591.740000000002] [1:7602] [-53235.940000000002:2550252.1000000001] [0:180] [0:15] [0:6994634.1900000004] [0:1] [0:9] [0:109344135.72] [-2914209:5054] [0:178] [-756698.06999999995:2860856.3199999998] [-543931.06999999995:3354720.1099999999] [-730281.20999999996:711538.18000000005] [-61868.209999999999:2026644.3999999999] [0:7629.4300000000003] [1011.71:12633210] [0:131376] [0:1190.5899999999999] [-3:133] [0:1390235.6200000001] [-2268723.1400000001:48060.610000000001] [0:11274.809999999999] [1:12608] [-61868.209999999999:2026644.3999999999] [0:199] [0:19] [0:2199058.29] [-1:1] [-1:1] [-3:3] [-3:14] [-71:2] [-525218.4800000001:1108649.9500000002] [-662790.93999999948:1423678.1399999999] [-339953.38:339022.19] [-305678.03000000003:405152.26999999996] [-449581.48999999999:944122.84000000008] [-6:5] [-1:1] [0:0] [-1599165.3299999998:5523550.2199999988] [-11071866.360000001:3528232] [-4:6] [-36555680.489999995:72331985.199999988] [-2044166.6500000001:551928.59999999998] [-22148578.650000002:35561396.099999994] [-1:1] [-72610611.030000001:36917834.410000004] [-4:3] [-147:111] [-388499.10999999999:460122.47999999998] [-2:1] [-371:292] [-3037926.9899999998:1996396.3699999999] [-1:1] [-218:201] [-1460110.6100000001:2003313.0600000001] [-102:62] [-1473499.8999999999:2354207.8500000001] [-3:3] [-1692021.55:5851180.8100000005] [-4:3] [-4767093.5300000003:871645.95000000112] [-28:41] [-35190000:60255779.869999997] [-19285040.739999998:20317269.66] [-5:7] [-32874362.359999999:180376921.74000001] [-3295541.7200000002:3682717.700000003] [-11:20] [-24301045.280000001:31018992.969999999] [-2:1] [-2:2] [-2:2] [-1:1] [-2:1] [-50:93] [-31844089.050000001:25170617.579999998] [-2647948.96:362175.47999999998] [-3:2] [-135:103] [-4414529.5599999996:2406059.79] [-30:28] [-321227.90000000002:654359.73999999999] [-14:12] [-616191.64000000001:180520.19] [-22:14] [-5311517.4199999999:5354745] [-100:52] [-24705483.530000001:18822460.149999999] [-14:17] [-19095.849999999999:7252.0699999999997] [-18:15] [-38256.43:79578.979999999996] [-29:31] [-72654.949999999997:53235.940000000002] [-45:66] [-11569.049999999999:13130.790000000001] [-183:214] [-339953.38:339022.19] [-8:7] [-8:7] [-3519:56069.400000000001] [-5:7] [-1537:19010.810000000001] [-136:180] [-214182231.89000002:178427022.77000001] [-76:104] [-30346683:56016384.059999995] [-80:95] [-2023425:1023646.6] [-61:114] [-22287003.5:21294054.140000001] [-46:56] [-8498116.3999999985:27485813.420000002] [-5:15] [-2189345.3900000001:3159976.1400000001] [-8:14] [-3519000:3167100] [-1:1] [-77:70] [-1:1] [-1998:2035] [-1:1] [-22:32] [-9:11] [-10:10] [-155:149] [-80:95] [-2023425:1023646.6] [-35:58] [-496800.03999999998:351900] [-506:423] [-1:1] [-1:1] [-1:1] [-9:9] [-201323086.24000001:88984768.850000009] [-2163:59] [-35:31] [-1869076.05:4431409.5] [-1116638.1600000001:4523322.4000000004] [-1674280.9299999999:1935599.8999999999] [-1413693.3500000001:2016797.48] [-18437.690000000002:21599.860000000001] [-3448863.8700000001:1423048.4099999997] [-17595:17595] [-189:0] [-28:31] [-1228193.5:1228193.5] [-1510101.6500000001:3483903.52] [-13849.809999999999:18591.740000000002] [-2181:59] [-1413693.3500000001:2016797.48] [-72:133] [-10:8] [-1056063.6299999999:4367419.1699999999] [-1:1] [-9:9] [-201323086.24000001:108730809.92999999] [-2912412:2912992] [-35:31] [-1947130.2300000002:1719179.27] [-2283983.7599999998:2016597.29] [-898618.94999999995:655286.84999999998] [-2021572.5999999999:1997730.6599999999] [-10527.91:6765.5399999999991] [-3347190.1000000001:3552782.3999999999] [-98950.350000000006:107916] [-1190.6000000000001:479.14999999999998] [-28:31] [-2083795.54:1138040.6200000001] [-1628671.3500000001:3230127.3100000001] [-11500.85:10754.01] [-2181:7943] [-2021572.5999999999:1997730.6599999999] [-96:115] [-9:16] [-2213432.23:842272.65000000002]
tree_sizes=56196 133449 136052 151971 151034 150539 149937 152781 152311 153577 153424 153521 154132 154414 154714 154472 155871 154255 153176 155991 152780 155067 155269 154929

Tree=0
num_leaves=523
num_cat=0
split_feature=210 40 62 589 554 210 333 308 314 315 40 210 98 442 62 489 62 333 314 315 563 62 190 48 98 442 294 186 12 52 40 530 98 12 311 306 32 12 305 12 309 40 315 309 250 40 190 40 40 32 446 435 530 314 596 573 314 489 530 294 400 315 309 304 529 435 314 304 222 310 416 311 144 40 276 250 40 310 478 298 564 442 142 266 304 210 42 416 294 310 413 222 264 551 246 368 190 310 400 311 310 294 266 32 40 250 442 603 530 304 530 309 294 12 138 508 144 416 222 315 12 309 385 14 487 108 190 294 309 222 315 530 288 607 416 138 276 328 315 250 314 62 467 222 210 594 309 250 314 311 530 416 264 331 314 194 331 310 449 226 266 489 474 314 40 190 250 310 266 530 298 12 190 142 478 282 226 442 186 315 603 361 138 288 156 452 210 474 309 582 309 550 478 62 315 294 186 530 266 52 254 449 314 12 162 315 266 530 474 596 298 210 298 603 190 487 190 368 40 40 294 474 480 208 246 226 316 328 315 474 190 597 435 298 210 12 12 304 563 266 309 276 190 266 467 250 190 222 276 12 564 314 266 40 304 250 226 594 250 106 563 210 563 14 14 32 529 596 222 304 242 264 538 467 314 142 594 250 467 315 331 386 603 210 316 60 144 594 601 478 190 250 571 264 266 162 597 446 314 416 416 545 487 480 467 304 32 12 62 222 156 331 442 226 597 315 310 368 361 530 480 12 309 480 596 442 530 478 607 314 12 538 489 298 486 210 467 40 12 222 416 596 603 486 12 264 304 416 52 164 435 250 246 467 108 304 100 316 555 478 32 52 467 555 309 508 601 555 530 545 311 40 32 416 250 308 422 309 222 190 40 564 42 535 142 276 162 264 367 210 52 316 190 563 520 523 244 222 538 461 266 156 309 507 310 40 550 386 555 32 266 62 535 474 538 32 244 142 156 551 478 552 294 560 315 190 246 603 563 596 40 449 347 246 142 480 106 100 508 162 386 52 442 538 210 62 190 266 443 315 486 507 298 264 304 12 12 12 86 116 12 12 12 12 12 12 12 276 368 14 14 32 32 74 288 442 12 12 12 12 12 14 32 52 210 222 222 226 246 266 314 12 12 12 12 12 14 14 14 100 162 222 264 12 12 12 12 12 12 12 12 12 12 14 14 14 32 40 242 304 311 467
split_gain=12040.7 4201.77 3917.09 2121.69 1963.76 1846.63 1129.83 1135.38 690.473 659.974 480.962 567.267 480.782 420.08 417.849 541.66 398.087 626.235 349.695 316.703 292.944 275.561 256.33 242.409 232.976 291.986 231.142 195.62 189.856 184.466 164.191 153.757 151.946 147.342 338.77 145.379 144.713 143.199 126.325 114.51 111.393 115.502 107.669 93.6553 86.7258 82.7451 114.271 82.0963 77.401 66.4872 74.9843 65.6373 76.6508 81.7378 83.1933 64.3647 60.268 71.3983 60.2044 60.0153 70.7695 79.8972 59.7924 58.0802 57.3512 56.1395 57.7272 56.3702 68.1679 51.245 50.8613 53.9327 50.4528 49.5451 47.7351 43.8745 41.6808 41.245 40.2141 39.9527 38.9345 40.0461 42.595 38.8627 37.9733 35.3565 42.3934 63.9819 35.0127 50.323 33.1282 50.8772 31.6094 30.8888 30.3168 28.506 36.0878 28.4465 28.2898 28.0444 28.0177 27.3503 41.4568 24.1945 23.6922 31.2044 23.5567 21.7001 21.6988 21.6489 20.7687 20.4991 26.976 20.3933 47.6163 19.2376 18.5228 18.1254 18.0232 17.9128 30.1568 17.3355 21.2629 17.3028 17.2385 17.1027 16.2049 25.6277 15.7234 15.6621 15.5142 40.0058 28.4624 16.9817 40.5948 15.4593 15.3952 15.3633 15.02 14.9846 19.7877 18.3412 17.6883 14.4604 14.3084 14.2933 14.2008 13.968 13.7041 19.3108 33.0284 20.1614 15.8964 13.3738 12.5149 12.3492 13.4552 21.5174 12.1375 15.8573 11.714 15.0385 12.8138 11.5623 19.8985 12.2593 20.2349 11.3495 11.2593 11.2553 11.1119 10.7436 10.565 10.332 10.2925 10.0826 9.59354 10.5215 18.6866 15.5394 18.5311 9.439 9.05287 9.73892 23.0522 9.03524 8.92716 8.92363 8.57769 17.2736 8.22388 8.16476 8.09311 8.07462 8.00706 10.0716 16.1551 8.3306 7.91625 7.36002 7.15787 7.07297 7.04414 6.87972 6.73841 9.73239 6.54294 6.44396 6.14494 6.11375 10.7426 8.19296 12.7996 6.06199 5.95701 5.93224 5.87916 8.14217 8.82853 14.1647 8.1446 6.97631 5.83416 7.30556 12.3788 6.90663 5.67159 5.61266 10.2839 5.58042 5.52133 9.66926 5.47703 7.21517 5.33317 7.8722 5.12919 5.07377 5.05926 6.04466 5.03773 4.95971 4.79396 6.75899 5.47166 4.78783 10.4153 4.73147 5.96261 4.69358 5.05241 7.96612 11.5529 4.77118 9.68063 12.5843 5.5518 17.0714 5.00343 6.30734 4.63118 4.61932 6.57377 7.89595 4.48582 4.42528 11.1211 4.28537 4.20292 4.14963 4.55681 6.6873 7.55127 4.09134 4.0751 3.85081 3.68693 3.66718 6.70925 8.01285 11.2159 5.28619 3.6633 3.55789 3.5489 7.44629 3.37546 3.33312 3.28354 3.22132 3.14767 7.77087 3.01658 6.97858 2.857 2.78801 2.7871 3.1478 15.8435 2.6653 7.33249 2.65436 2.60169 4.73106 2.56264 2.53006 2.46247 2.38881 2.34726 2.29647 2.18696 2.14481 2.0695 4.55297 1.90525 1.8461 1.65313 1.59429 2.06099 5.71059 2.39948 1.58626 2.09742 1.56023 1.52767 1.91509 6.02799 1.50917 1.48105 1.47844 1.46394 1.43186 1.4708 1.43055 1.4207 1.40555 1.38092 1.37003 1.35031 1.3137 1.30207 1.27275 1.2686 1.26613 1.25469 1.24993 1.24603 1.22111 1.18404 1.1966 1.15156 1.14586 1.14342 1.22791 1.14296 1.1288 13.8532 2.80243 1.95786 1.0925 1.06824 1.0379 0.955649 0.911405 2.6436 0.873762 0.863171 0.859166 0.730747 0.676268 1.54977 0.648298 2.53847 0.593773 1.05143 0.554865 1.15162 0.547216 3.28097 0.74427 2.25496 0.553823 1.53814 1.33406 0.50746 1.10069 0.48243 1.202 0.42102 1.2263 0.418375 0.414446 0.413554 0.408609 0.404926 0.394526 0.391734 0.390482 0.388163 0.379772 0.368908 0.364776 0.359741 1.21192 1.0179 2.79568 0.489576 1.2458 0.40085 0.360047 0.35381 0.351122 0.342659 0.371979 1.31151 0.339478 0.332101 0.331056 0.323488 0.314477 0.31375 0.308455 0.306351 0.290056 1.20881 0.273367 0.255475 0.244047 0.236552 1.43112 2.34736 1.13986 0.207775 0.233159 0.181169 0.25784 0.127183 0.315436 0.116099 0.332794 0.0874195 0.35681 0.087937 0.357756 0.0844462 0.629172 1.0947 0.313554 0.0838764 0.365342 0.075869 0.377511 0.0461604 0.372699 0.220467 2.27374e-13 2.84217e-14 2.84217e-14 2.84217e-14 2.84217e-14 1.42109e-14 1.42109e-14 1.42109e-14 1.42109e-14 1.42109e-14 1.42109e-14 1.42109e-14 1.42109e-14 1.42109e-14 7.10543e-15 7.10543e-15 7.10543e-15 7.10543e-15 7.10543e-15 7.10543e-15 7.10543e-15 3.55271e-15 3.55271e-15 3.55271e-15 3.55271e-15 3.55271e-15 3.55271e-15 3.55271e-15 3.55271e-15 3.55271e-15 3.55271e-15 3.55271e-15 3.55271e-15 3.55271e-15 3.55271e-15 3.55271e-15 1.77636e-15 1.77636e-15 1.77636e-15 1.77636e-15 1.77636e-15 1.77636e-15 1.77636e-15 1.77636e-15 1.77636e-15 1.77636e-15 1.77636e-15 1.77636e-15 8.88178e-16 8.88178e-16 8.88178e-16 8.88178e-16 8.88178e-16 8.88178e-16 8.88178e-16 8.88178e-16 8.88178e-16 8.88178e-16 8.88178e-16 8.88178e-16 8.88178e-16 8.88178e-16 8.88178e-16 8.88178e-16 8.88178e-16 8.88178e-16 8.88178e-16
threshold=12.500000000000002 -1665.9499999999998 7911.7650000000003 8.0000000000000018 1.0000000180025095e-35 31.500000000000004 1.0000000180025095e-35 1.0000000180025095e-35 306.27500000000003 126.72500000000001 -17723.639999999996 1.0000000180025095e-35 1.0000000180025095e-35 8231.2400000000016 24215.625000000004 -2378.3599999999997 24215.625000000004 1.0000000180025095e-35 1.0000000180025095e-35 257.41500000000008 -3.4999999999999996 11645.605000000001 12.500000000000002 1.0000000180025095e-35 1.0000000180025095e-35 6550.5200000000013 361.50000000000006 1.0000000180025095e-35 21235.675000000003 1266.22 5820.6200000000008 873.14000000000033 1.0000000180025095e-35 10450.530000000001 1212.5500000000002 1.0000000180025095e-35 271.21000000000009 12033.095000000003 202102.50000000003 9026.8900000000012 45.500000000000007 -7301.9349999999986 212.26500000000001 55.500000000000007 1578.5000000000002 315.2050000000001 9.5000000000000018 5820.6200000000008 24332.725000000002 1013.5400000000001 947318.57500000007 310.84500000000008 1220.5100000000002 -3429.4399999999996 -4510.7749999999978 -1.0000000180025095e-35 -180.32499999999996 -672.31000000000211 150.50500000000008 468.50000000000006 1.0000000180025095e-35 48.860000000000007 36.500000000000007 575805529.00000012 -3.4999999999999996 1.0000000180025095e-35 -264.96999999999997 506684416.50000006 -1490.4999999999998 197.50000000000003 139352.40000000002 116.35500000000002 476.71500000000009 31561.990000000002 5196.3150000000014 2533.5000000000005 24332.725000000002 67.500000000000014 -29820.179999999997 3.5000000000000004 1.0000000180025095e-35 13454.300000000001 4.5000000000000009 -2115.4999999999995 1062039691.0000001 92.500000000000014 1.5000000000000002 139352.40000000002 1700.5000000000002 135.50000000000003 1.0000000180025095e-35 -1125.4999999999998 95013.000000000015 1.0000000180025095e-35 -7281.4999999999991 2172.3700000000003 33.500000000000007 170.50000000000003 1.0000000180025095e-35 250.85000000000005 94.500000000000014 960.50000000000011 -1414.9999999999998 2066.0050000000006 1.0000000180025095e-35 2533.5000000000005 1358.9350000000002 -2759.1299999999997 377.30500000000012 550462279.50000012 377.30500000000012 32.500000000000007 960.50000000000011 9026.8900000000012 1.0000000180025095e-35 -77005.580000000002 151.96500000000003 82344.60000000002 -1354.9999999999998 48.860000000000007 19125.175000000003 65.500000000000014 4106.4500000000007 1863.2750000000003 -1622.5450000000001 5732.7650000000003 96.500000000000014 2302.5000000000005 51.500000000000007 -1430.4999999999998 796.8950000000001 873.14000000000033 8470.4300000000021 -1.4999999999999998 190026.00000000003 1.0000000180025095e-35 10773.820000000002 2.5000000000000004 126.72500000000001 496.50000000000006 -264.96999999999997 11645.605000000001 95.810000000000045 -654.49999999999989 74.500000000000014 -1794.905 36.500000000000007 2533.5000000000005 -361.22499999999997 3699.9450000000002 873.14000000000033 108314.82000000002 1477717.2450000003 5.5000000000000009 1.0000000180025095e-35 1.5000000000000002 2.5000000000000004 209.50000000000003 1.0000000180025095e-35 18751.125000000004 -2115.4999999999995 -1757.7400000000116 1.0000000180025095e-35 -264.96999999999997 1.0000000180025095e-35 38.500000000000007 1410.5000000000002 114.50000000000001 -1079.9999999999998 -138.18500000000003 2.5000000000000004 2547.7600000000007 1.0000000180025095e-35 2.5000000000000004 3456.9550000000004 12961.650000000001 734.53500000000008 19208.780000000002 1.0000000180025095e-35 126.72500000000001 329.13499999999982 1.5000000000000002 1.0000000180025095e-35 14742.805000000002 2.5000000000000004 4.7400000000000011 22.500000000000004 -441.28499999999997 44.500000000000007 -28.109999999999996 36.500000000000007 1.0000000180025095e-35 -40458.080000000009 58650.720000000008 403.34000000000009 3303.5000000000005 1.0000000180025095e-35 377.30500000000012 -1551.4999999999998 11269.315000000001 1.0000000180025095e-35 19.500000000000004 -180.32499999999996 7690.1450000000013 79084.175000000017 168.88500000000002 -1201.9999999999998 377.30500000000012 1169.180000000001 -4510.7749999999978 14.500000000000002 47.500000000000007 4.5000000000000009 -1.0000000180025095e-35 48.500000000000007 -1.0000000180025095e-35 7.5000000000000009 3256.0050000000006 13406.865000000002 24332.725000000002 1883.5000000000002 -2436.2099999999987 2.5000000000000004 4672.9750000000013 -2858.9349999999995 -1.0000000180025095e-35 8.5000000000000018 25.500000000000004 257.41500000000008 -1312.5399999999995 15.500000000000002 1.0000000180025095e-35 580.6350000000001 1.0000000180025095e-35 39.500000000000007 21235.675000000003 1264.7650000000001 325175154.00000006 -6.4999999999999991 -1551.4999999999998 55.500000000000007 7164.7700000000013 79.500000000000014 -957.99999999999989 -360.30499999999989 2297.5000000000005 9.5000000000000018 -349.99999999999994 5196.3150000000014 33019.595000000008 -1.0000000180025095e-35 -1566.8449999999996 -1079.9999999999998 9269.6800000000021 299871652.00000006 3855.5000000000005 1.0000000180025095e-35 -15745.699999999997 2533.5000000000005 1.0000000180025095e-35 6.5000000000000009 110.50000000000001 -6.4999999999999991 3214.4450000000006 1309.6900000000003 3357.9200000000005 1.5000000000000002 1110.9050000000018 -1490.4999999999998 456519314.50000006 2.5000000000000004 155187.90000000002 1.5000000000000002 -41.38999999999993 -5317.7549999999992 11.500000000000002 -321.25000000000017 2103.5000000000005 182.85500000000002 2207.1050000000005 19.500000000000004 7.5000000000000009 -1278.504999999999 47.500000000000007 4.5000000000000009 1.0000000180025095e-35 1314.4950000000001 18791.494999999999 3.5000000000000004 18296.115000000013 65.500000000000014 2297.5000000000005 10480.385000000007 315654.30000000005 -1597.4999999999998 464620.65000000008 -119.58999999999997 947318.57500000007 -465.03999999999991 95013.000000000015 82344.60000000002 -11690.645 -37652.989999999983 -1.0000000180025095e-35 -110.84499999999998 839266944.50000012 14672.460000000001 26210.005000000005 81705.935000000012 -1597.4999999999998 1.5000000000000002 21.500000000000004 9898.8650000000016 1.0000000180025095e-35 -10.534999999999998 16.785000000000004 104.50000000000001 1742.9150000000002 9.5000000000000018 677.66500000000008 -11.499999999999998 6354.8750000000009 47.500000000000007 4.5000000000000009 4535.21 31930.515000000003 150.50500000000008 -84174.654999999984 -5.4999999999999991 -180.32499999999996 10450.530000000001 -5.4999999999999991 -12216.049999999994 1.5000000000000002 -6.4999999999999991 47.500000000000007 238.20500000000004 13406.865000000002 -5790.1499999999987 -562.99999999999989 28503.900000000005 -6123.5800000000008 28766.905000000006 1.5000000000000002 50440.895000000004 59823.000000000007 976430828.00000012 764518.37000000011 7059.4050000000007 11.500000000000002 4123.0950000000003 417.50000000000006 -621.02499999999986 -1919.3799999999997 5732.7650000000003 1218461020.5000002 385175.65500000009 5.5000000000000009 -1.0000000180025095e-35 -56787.739999999998 271.21000000000009 15881.495000000003 -41.38999999999993 -1.4999999999999998 51.500000000000007 97640.120000000024 3.5000000000000004 1.0000000180025095e-35 3166.2100000000005 -8170.0149999999949 4375.2450000000008 159980.38500000004 112973.00000000001 327102.04500000004 2297.5000000000005 1.0000000180025095e-35 37698.740000000013 27.500000000000004 -2144.9999999999995 72.500000000000014 13406.865000000002 1.0000000180025095e-35 2.5000000000000004 -1.0000000180025095e-35 4.5000000000000009 30068.305000000004 134662.21500000003 426548.98000000004 7.5000000000000009 86.500000000000014 8447.470000000003 5.5000000000000009 59.500000000000007 6.5000000000000009 -7312.0899999999992 -1.4999999999999998 7741.8500000000013 -394.49999999999994 1.0000000180025095e-35 1.0000000180025095e-35 -1855.4999999999998 19.500000000000004 59.500000000000007 -2.4999999999999996 67.500000000000014 18622.165000000005 -1.0000000180025095e-35 3.5000000000000004 2.5000000000000004 2066.0050000000006 -258.99999999999994 11645.605000000001 -234.58999999999997 56471.125000000022 2.5000000000000004 4834.1000000000013 50399.535000000011 1.0000000180025095e-35 4.5000000000000009 -4.4999999999999991 -22228.294999999991 1.0000000180025095e-35 2302.5000000000005 -12644.74 514.66500000000008 29.500000000000004 -1.0000000180025095e-35 -1278.504999999999 22.500000000000004 -23272.644999999993 134420.73000000001 16.000000000000004 7098.4150000000009 -42219.459999999992 15.500000000000002 -1.0000000180025095e-35 8.5000000000000018 105985.73000000003 50835.724999999999 1291.4700000000003 16.500000000000004 14290.935000000003 -1.0000000180025095e-35 -1.0000000180025095e-35 61.500000000000007 58650.720000000008 1.5000000000000002 -2115.4999999999995 -583.91499999999985 456.96500000000009 -8.4999999999999982 -1.0000000180025095e-35 22.500000000000004 80233.200000000012 274348782.50000006 -5790.1499999999987 121021.53000000001 29380.305000000004 214.29500000000004 316.84000000000009 79858.480000000025 61147.820000000007 50440.895000000004 19125.175000000003 29380.305000000004 50440.895000000004 12033.095000000003 1380.1300000000003 14511.495000000001 1309.6900000000003 619.21500000000015 112973.00000000001 22929.405000000002 310961.03500000009 9999.1000000000022 21396.145000000004 -5790.1499999999987 3837.7550000000006 3837.7550000000006 15393.745000000001 37408.520000000011 474.23500000000007 14672.460000000001 17497.660000000003 80.500000000000014 -562.99999999999989 -470.99999999999994 1618.9050000000004 -1775.0049999999999 -957.99999999999989 -581.39999999999986 43069.805000000008 26210.005000000005 29380.305000000004 3837.7550000000006 37408.520000000011 2249.1050000000005 50.605000000000011 151.21500000000003 111891.50000000001 5125.1850000000004 -1201.9999999999998 355012.11500000005 13693.955000000002 3837.7550000000006 1.0000000180025095e-35 43069.805000000008 7690.1450000000013 33019.595000000008 19125.175000000003 21235.675000000003 23576.915000000005 26210.005000000005 101.20500000000001 1863.2750000000003 412.23000000000008 34086.855000000003 83408.785000000018 -1.0000000180025095e-35 976430828.00000012 1212.5500000000002 -110.84499999999998
decision_type=2 2 2 10 10 2 2 2 2 2 2 2 2 10 2 8 2 2 2 2 10 2 2 2 2 10 8 2 2 2 2 10 2 2 2 2 2 2 2 2 2 2 2 2 10 2 2 2 2 2 8 10 10 2 8 10 2 8 10 10 2 2 2 2 8 8 2 2 8 2 10 2 2 2 10 8 2 2 10 10 10 10 2 10 2 2 2 8 8 2 2 10 8 10 10 2 2 2 2 2 2 8 8 2 2 10 8 10 10 2 10 2 10 2 2 8 2 8 8 2 2 2 2 2 8 2 2 10 2 10 2 10 8 8 10 2 8 2 2 10 2 2 8 8 2 10 2 10 2 2 10 8 8 2 2 2 2 2 10 8 10 8 10 2 2 2 10 2 10 8 8 2 2 2 8 8 8 10 2 2 8 2 2 8 2 8 2 10 2 10 2 10 8 2 2 10 2 10 10 2 8 10 2 2 2 2 10 8 10 8 10 2 10 10 2 10 2 2 2 2 8 10 8 2 8 8 2 2 2 8 2 8 8 10 2 2 2 2 8 10 2 10 2 10 8 10 2 8 10 2 8 2 10 2 2 10 8 8 10 2 10 2 8 2 2 2 10 10 10 2 8 10 10 8 2 2 10 8 8 2 2 2 10 2 2 2 2 10 8 10 2 8 8 8 10 2 8 10 2 10 10 8 8 10 8 2 2 2 2 8 2 2 10 10 8 2 2 2 2 10 8 2 2 8 10 10 10 8 8 2 2 8 8 10 10 2 10 2 2 10 8 8 10 10 2 10 2 10 2 2 8 8 10 8 2 2 2 2 8 8 2 2 10 8 2 10 8 10 10 8 2 2 2 10 10 2 8 2 8 2 2 10 2 10 2 10 2 8 2 2 2 2 2 8 10 8 10 10 10 10 8 2 2 8 2 2 8 2 10 2 10 2 8 10 10 2 10 2 2 8 10 10 10 8 2 2 8 8 10 10 2 10 2 10 2 8 2 2 10 2 2 2 10 8 2 2 2 10 10 2 8 10 10 10 2 2 2 2 2 2 2 2 2 2 2 2 2 8 2 2 2 2 2 2 8 8 2 2 2 2 2 2 2 2 2 10 10 8 10 10 2 2 2 2 2 2 2 2 2 2 2 10 8 2 2 2 2 2 2 2 2 2 2 2 2 2 2 2 10 2 2 8
left_child=1 2 4 5 6 9 7 8 23 14 11 -8 13 19 15 -2 17 30 32 21 -9 31 48 -1 25 27 -12 33 29 40 38 56 42 34 70 -22 -36 47 84 -33 44 -42 59 -32 118 46 69 51 58 63 111 52 80 274 -55 -52 94 -58 83 62 101 -62 -19 75 -59 66 108 -68 -69 77 92 -72 208 74 78 -11 93 -35 -66 -70 81 82 -15 -20 167 86 87 106 -89 -90 91 -85 98 126 95 96 137 107 -17 -88 -40 -61 -103 104 110 169 -80 -56 186 -4 242 112 -51 114 173 -78 -94 -47 -28 -119 -121 194 -123 -112 -113 130 139 -128 129 -44 131 182 133 134 -133 175 -57 -7 145 140 -21 142 -142 -79 155 -137 -111 -104 292 150 151 306 172 -84 -87 156 157 214 -67 -160 161 162 -16 247 -165 190 -167 -3 288 -106 -108 -141 -153 -65 -75 355 177 178 179 180 -158 230 183 185 -185 215 -27 -64 189 -135 -166 209 -181 -148 195 196 197 206 -199 -155 -151 265 290 204 227 -206 333 -38 310 210 286 212 -211 -115 350 -49 337 218 -218 -220 -221 -222 223 225 -225 -132 330 269 -229 -18 231 -174 238 -234 235 -23 -171 -196 239 -192 366 299 243 244 -83 415 -247 287 -249 250 251 -146 -253 254 255 -252 257 -256 489 -260 336 262 282 309 -163 266 305 -245 -194 -177 354 272 283 -130 -54 277 -97 278 341 280 -280 294 -140 -272 285 -205 -105 392 -101 339 323 -292 321 -294 -279 307 -255 331 328 300 346 -127 303 -251 -248 521 -150 -202 -231 -264 417 324 313 -304 -258 -236 -270 318 320 420 -314 322 -117 474 391 326 -326 -267 -299 396 -162 -298 -333 -53 -239 -308 516 -217 -310 504 -334 -227 477 -197 -195 -322 -240 352 -347 367 -39 -263 353 -286 421 363 357 -357 -359 -316 -342 -213 -176 364 503 375 -189 410 412 370 -319 372 -309 484 -375 395 -377 378 -365 -380 -381 402 383 -383 385 -329 478 -388 461 -390 -385 -178 476 481 -296 -360 401 496 490 479 -337 471 408 -404 405 -405 407 -406 428 -408 460 506 -362 423 509 -173 456 -26 505 -397 -320 -271 -305 424 -414 -96 -190 -261 432 430 -430 464 436 -434 438 -436 440 -438 457 -440 442 -442 443 -379 445 447 -447 -444 449 -446 451 -450 455 -454 -455 458 459 -421 -452 -371 -350 468 -411 -425 -431 -449 -456 508 -355 -386 -465 -303 517 -392 -184 -472 -126 -336 -353 -361 -466 -301 -224 -480 -363 -277 -396 518 -323 -259 -285 -318 -330 -332 -335 -459 -311 -340 -402 -391 -339 -34 520 -14 -219 -293 514 -382 -393 -415 -417 -439 -443 -287 -327 -441 -232 -458 -317 -419 -407 -179
right_child=3 16 109 -5 -6 12 10 20 -10 49 26 -13 135 37 160 24 229 18 22 76 35 234 -24 -25 72 65 28 -29 -30 -31 43 39 501 45 36 -37 207 144 100 -41 41 -43 128 -45 -46 117 -48 125 -50 50 55 121 53 54 97 136 57 64 -60 60 61 -63 187 113 73 158 67 68 79 -71 71 -73 -74 174 -76 -77 115 143 85 -81 -82 103 153 90 -86 154 99 88 89 -91 -92 -93 116 -95 425 276 -98 -99 -100 168 -102 102 147 191 105 -107 170 -109 -110 146 123 124 -114 213 -116 148 -118 119 -120 120 -122 122 -124 -125 163 301 127 -129 273 -131 222 132 -134 188 -136 138 -138 -139 261 171 141 -143 -144 -145 249 -147 193 -149 149 200 -152 152 -154 199 -156 -157 176 -159 159 -161 226 264 -164 164 165 166 -168 -169 -170 236 -172 245 181 -175 362 203 311 201 -180 192 -182 -183 202 184 -186 -187 -188 240 426 -191 232 -193 268 344 237 343 -198 198 -200 -201 295 -203 -204 284 205 -207 -208 -209 -210 211 -212 361 -214 -215 -216 216 217 289 219 220 221 -223 482 224 -226 275 -228 228 -230 308 260 -233 233 -235 315 -237 -238 334 241 -241 -242 -243 -244 267 -246 246 304 248 -250 302 253 252 -254 296 256 -257 314 258 259 427 -262 351 263 -265 -266 327 -268 -269 316 270 271 -273 -274 -275 -276 485 -278 281 279 -281 -282 -283 -284 398 347 513 -288 -289 -290 -291 291 418 293 -295 394 -297 297 298 -300 393 -302 329 312 422 -306 -307 335 371 338 397 -312 -313 317 -315 359 487 491 369 319 -321 345 488 -324 -325 325 411 -328 384 492 -331 493 332 340 494 342 400 -338 500 497 -341 360 -343 -344 -345 -346 348 -348 -349 349 -351 -352 386 -354 388 -356 356 -358 358 365 399 368 373 -364 377 -366 -367 -368 -369 -370 416 -372 -373 -374 374 -376 376 -378 381 379 380 507 382 -384 390 469 -387 387 -389 389 499 473 467 -394 -395 486 419 -398 -399 -400 -401 498 -403 403 404 406 502 409 -409 -410 462 -412 -413 413 414 -416 510 -418 519 -420 434 -422 -423 -424 463 -426 -427 -428 -429 429 431 -432 -433 433 -435 435 -437 437 511 439 515 441 512 444 -445 448 446 -448 465 450 -451 452 -453 453 454 466 -457 472 495 -460 -461 -462 -463 -464 470 480 -467 -468 -469 -470 -471 475 -473 -474 -475 -476 -477 -478 -479 483 -481 -482 -483 -484 -485 -486 -487 -488 -489 -490 -491 -492 -493 -494 -495 -496 -497 -498 -499 -500 -501 -502 -503 -504 -505 -506 -507 -508 -509 -510 -511 -512 -513 -514 -515 -516 -517 -518 -519 -520 -521 -522 -523
leaf_value=-3.7622235671859969 -4.0769226500862912 -4.1583956129181754 -4.3424956147078033 -3.7673939971663506 -3.360405408052908 -4.3650940174419395 -3.7076682112504726 -4.2965389480445717 -3.4815934873688947 -4.2384784225795089 -4.3324995233045982 -4.1337589757587878 -4.4486978694827473 -4.3090414478195251 -4.3501887872240079 -4.3572562714086889 -4.4023079237462879 -4.2944828476842014 -4.3779263141095237 -4.4376718610841452 -3.8634739256871726 -4.4486978694827464 -4.0857759420574995 -4.0548534968252943 -4.4385267682405667 -4.3894458628086115 -4.1581172858718585 -4.11950906837912 -4.311690619824609 -4.2692655872336323 -4.3769248304034667 -4.1872394884373412 -4.4486978694827473 -4.2983693598657693 -4.0461317770651295 -4.0843743312302223 -4.2594954302039802 -4.4486978694827473 -4.2708147899638753 -4.3527522714426681 -3.9155671922084996 -4.0950900349664545 -4.4287816837526153 -4.1926618072229864 -4.0399387447051147 -4.4325793409047192 -4.2056668056601749 -4.4486978694827473 -4.3990191687353004 -4.4304679985853159 -4.2852971386821288 -4.4283558706727515 -4.4486978694827473 -4.2343902387178902 -4.4399329984916793 -4.3753430059096292 -4.2437424908682173 -4.2788779672430568 -4.1903153098729922 -4.2749123534459814 -4.1905340309258809 -4.3341968671917064 -4.3671843401621242 -4.3855321919752566 -4.2766138890981535 -4.4486978694827473 -4.4151826957259459 -4.3887927350040012 -4.3031909121878424 -4.250753986712458 -4.2219026693404764 -4.3446830620095653 -4.3171777023481672 -4.3892607580433021 -4.2694123939461592 -4.3726184100161785 -4.3712414070989407 -4.4325106710838709 -4.3403226054649267 -4.1928253784223326 -4.3308062101072267 -4.4114039337642623 -4.364674383665303 -4.3592627400834489 -4.0105457095999952 -4.3792189445480849 -4.3324193186869806 -4.224935134086194 -4.3842238421839106 -4.2658146399299843 -4.206098128380269 -4.2381461335871098 -4.4067808229945848 -4.3465017101246923 -4.4486978694827473 -4.4088657992352056 -4.302901092853995 -4.2995226246137106 -4.2489896328043146 -4.4486978694827473 -4.168406239277318 -4.422281394240982 -4.3546832197475416 -4.4183145543435351 -4.3677620878379884 -4.3236535516936243 -4.4409346205828122 -4.3562001078261385 -4.3373620781482227 -4.3825858977926009 -4.3351467099336718 -4.3739472281552976 -4.3414431099086066 -4.443543460156623 -4.3132815489550467 -4.4486978694827464 -4.3272943953353158 -4.4032773654113839 -4.2452771682362256 -4.2785199378151137 -4.3873434923144989 -4.3424957972872802 -4.4387397755741009 -4.4143659566944331 -4.4486978694827464 -4.424417153955555 -4.4295825237434503 -4.3298237805558344 -4.4121210347953719 -4.3522206231955032 -4.3994235759863303 -4.3128417496380269 -4.3259892567662872 -4.3641651875362495 -4.4394199328978381 -4.3581271911370649 -4.4412391360780967 -4.4325106710838709 -4.4283557699242664 -4.3834336114916725 -4.3865415349126424 -4.4297726323681559 -4.3063033099313142 -4.3664795076176297 -4.4486978694827473 -4.4277968693847702 -4.3968253601199221 -4.2833076931914107 -4.4185075633825637 -4.4034123573121997 -4.3439275452650694 -4.3710658103999993 -4.3604199563746411 -4.4486978694827473 -4.44282751140135 -4.3887254716289483 -4.3566662529577354 -4.3540716504769126 -4.434609081314461 -4.3641649853130708 -4.4287817824134086 -4.4486978694827473 -4.4200246638098228 -4.3663607613009718 -4.3991345989516102 -4.4410899614159991 -4.3607056350482285 -4.0878092497580258 -4.3755443163126424 -4.4042933835595175 -4.3765846740140208 -4.4385267682405658 -4.4351122522664443 -4.4418806795206658 -4.4283556691757919 -4.4177209879083676 -4.4390430677435484 -4.4486978694827473 -4.3643737098041715 -4.40054632794648 -4.4396407458894824 -4.3913777256002033 -4.4486978694827473 -4.4412096963095582 -4.351986453196802 -4.388453769628101 -4.4373765215998953 -4.4080135772425457 -4.4385268695312341 -4.4486978694827464 -4.4394648794290319 -4.3996142432882239 -4.4195262736056433 -4.4486978694827473 -4.4121213041915093 -4.4486978694827473 -4.3720611260835716 -4.4295823342741683 -4.371459881525344 -4.3965886686282136 -4.4248235256783888 -4.4090732255056455 -4.4087959997864239 -4.4039452590880233 -4.3775004025880158 -4.4366600405449308 -4.4080860686851455 -4.2058915335757705 -4.4039451132320986 -4.4486978694827464 -4.3807697305863069 -4.4318661317704793 -4.3785785016143182 -4.4017351015793391 -4.3991670357575368 -4.4283557699242664 -4.4429167265643326 -4.4486978694827473 -4.3632151102441981 -4.3882104635233912 -4.4044654217965453 -4.4486978694827473 -4.4486978694827464 -4.3779626802062541 -4.4417562782530737 -4.4287816837526153 -4.4105052662900608 -4.3834335213340152 -4.4486978694827473 -4.4233379904057131 -4.4486978694827473 -4.3769249168529107 -4.3899492042001098 -4.4364269282552833 -4.4317158765037261 -4.395865040244451 -4.4486978694827473 -4.4283557699242664 -4.4486978694827473 -4.3886349686521209 -4.4388938643558378 -4.4169979964788002 -4.3989077121160358 -4.4306695629092943 -4.4486978694827473 -4.3963015146916096 -4.4208639709185702 -4.4426405573342418 -4.399080846822228 -4.4116942860027484 -4.3681906472910397 -4.4393743599275828 -4.3690334632814753 -4.4209990869047076 -4.3818312237948929 -4.4402069006978637 -4.4294859181308874 -4.4486978694827473 -4.4066649271933462 -4.4385808698371578 -4.4126753705930835 -4.4316396958676583 -4.4255028767865525 -4.4049739830830106 -4.4082300821170914 -4.4284640727825151 -4.3913104081569578 -4.387996198141451 -4.432891914667997 -4.4486978694827473 -4.422553664437622 -4.3978425832896981 -4.4064315833587449 -4.4486978694827473 -4.4098818280334591 -4.4486978694827473 -4.4486978694827473 -4.4224030858512977 -4.4231335131788834 -4.4486978694827473 -4.3626783871427604 -4.40844409869388 -4.3876714918501554 -4.4486978694827464 -4.4337802550727057 -4.4486978694827473 -4.4486978694827473 -4.4200247580656935 -4.4145815268520456 -4.4160458275195165 -4.4061615906366915 -4.4486978694827473 -4.4486978694827473 -4.397842682411615 -4.4385267682405658 -4.418666459688577 -4.4283556691757919 -4.4287817824134086 -4.3824594271679347 -4.4486978694827464 -4.4042933111855875 -4.4486978694827473 -4.4486978694827473 -4.4385268695312341 -4.4486978694827473 -4.4271456168988745 -4.4318661039313083 -4.4486978694827473 -4.4293884593394974 -4.4486978694827473 -4.4220344674754388 -4.427564653532678 -4.4258741471171685 -4.4082298838262117 -4.4340107158632573 -4.4486978694827473 -4.4486978694827473 -4.431562772249463 -4.4385268695312341 -4.4073503883978775 -4.4308388427593304 -4.4486978694827473 -4.4192855672072202 -4.4295824290088044 -4.4486978694827473 -4.4486978694827473 -4.4038395789435336 -4.4486978694827473 -4.4486978694827473 -4.4295824290088044 -4.4486978694827473 -4.428463972564189 -4.4309222961435104 -4.4486978694827473 -4.4486978694827473 -4.4387917393077769 -4.4286768617445427 -4.4486978694827473 -4.4486978694827473 -4.4290896659426213 -4.4341233334928152 -4.4486978694827473 -4.4329137501696003 -4.4304970432539825 -4.4286769609191037 -4.4324415757208975 -4.4302318911695888 -4.43237172519874 -4.4486978694827473 -4.4332344887806645 -4.4286768617445427 -4.4486978694827464 -4.4339537156784656 -4.4486978694827473 -4.4337802550727057 -4.42492300209015 -4.3933001355940782 -4.4318661039313083 -4.4389938085560319 -4.4486978694827464 -4.4394649714227521 -4.4486978694827473 -4.4486978694827473 -4.4200246638098228 -4.4212653310642605 -4.4372400628168869 -4.3883171757112098 -4.4380125523261178 -4.4384995506559335 -4.4486978694827473 -4.4486978694827473 -4.4486978694827473 -4.4227617363837473 -4.4283556691757919 -4.4486978694827473 -4.4486978694827473 -4.4284638723458727 -4.4385268695312341 -4.4486978694827473 -4.4249229237328773 -4.4486978694827473 -4.4317913240573095 -4.4331502196898098 -4.4388429682463899 -4.4486978694827473 -4.4295824290088044 -4.4283558706727515 -4.4486978694827473 -4.4299589949921767 -4.4486978694827473 -4.4486978694827473 -4.4486978694827473 -4.4386343989301427 -4.4385268695312341 -4.4486978694827473 -4.441028530844183 -4.4385808698371578 -4.4385268695312341 -4.4387917393077769 -4.4395537492844248 -4.4486978694827473 -4.4400916386834002 -4.4326473515651976 -4.4258511875479876 -4.4486978694827473 -4.4486978694827473 -4.4404996927122475 -4.4286768617445427 -4.4392352030824087 -4.4486978694827473 -4.440534796639481 -4.4386344991546292 -4.4316396958676583 -4.4486978694827473 -4.4288855120173185 -4.4486978694827473 -4.4411800987894763 -4.4486978694827473 -4.4385267682405667 -4.4486978694827473 -4.4486978694827473 -4.4412390616922455 -4.4486978694827473 -4.4486978694827473 -4.4486978694827473 -4.4385267682405667 -4.4486978694827473 -4.4486978694827473 -4.4486978694827473 -4.4486978694827473 -4.4186663610392234 -4.4353972651850775 -4.4385268695312341 -4.4486978694827473 -4.4385268695312341 -4.4486978694827473 -4.4385267682405667 -4.4486978694827473 -4.4385809705919144 -4.4486978694827473 -4.4385268695312341 -4.4486978694827473 -4.4414384152072195 -4.4486978694827473 -4.4385808698371578 -4.4284638723458727 -4.4486978694827473 -4.4486978694827473 -4.4385267682405667 -4.4486978694827473 -4.4486978694827473 -4.4486978694827473 -4.4395975010536057 -4.4435153189864529 -4.4486978694827473 -4.4486978694827473 -4.4486978694827464 -4.4486978694827473 -4.4486978694827473 -4.4486978694827473 -4.4486978694827473 -4.4486978694827473 -4.4486978694827473 -4.4486978694827473 -4.4486978694827473 -4.4486978694827473 -4.4486978694827473 -4.4486978694827473 -4.4486978694827473 -4.4486978694827473 -4.4486978694827473 -4.4486978694827473 -4.4486978694827473 -4.4486978694827473 -4.4486978694827473 -4.4486978694827473 -4.4486978694827473 -4.4486978694827473 -4.4486978694827473 -4.4486978694827473 -4.4486978694827473 -4.4486978694827473 -4.4486978694827473 -4.4486978694827473 -4.4486978694827473 -4.4486978694827473 -4.4486978694827473 -4.4486978694827473 -4.4486978694827473 -4.4486978694827464 -4.4486978694827473 -4.4486978694827473 -4.4486978694827473 -4.4486978694827473 -4.4486978694827473 -4.4486978694827473 -4.4486978694827473 -4.4486978694827473 -4.4486978694827473 -4.4486978694827473 -4.4486978694827473 -4.4486978694827473 -4.4486978694827473 -4.4486978694827473 -4.4486978694827473 -4.4486978694827473 -4.4486978694827473 -4.4486978694827473 -4.4486978694827473 -4.4486978694827473 -4.4486978694827473 -4.4486978694827473 -4.4486978694827473 -4.4486978694827473 -4.4486978694827473 -4.4486978694827473 -4.4486978694827473 -4.4486978694827473 -4.4486978694827473 -4.4486978694827473 -4.4486978694827473 -4.4486978694827473
leaf_weight=3.5269540101289749 4.122556877322495 2.2189382826909441 2.3006857736036208 2.3474087202921501 2.1839147852733722 4.2510126736015099 2.6977724945172694 2.3357226196676493 3.4452124778181314 2.2189375767484334 3.6320471046492484 3.5970178600400686 3.1999358218163234 3.3400830905884495 2.9313301779329777 2.4291501166298985 2.3941135033965111 3.8889780119061461 2.5108999507501748 4.0291166231036177 2.2773371217772365 2.6393631231039789 3.3050521006807676 2.3123694052919763 2.1838980391621572 3.7488319110125286 2.5225828792899847 3.036442711018025 2.756151911802589 3.0948325386270872 3.094830196350812 4.3327683629468066 8.0465539461001736 3.3984757326543384 3.8072341522201878 4.1459152363240701 2.2306153578683734 3.9240088909864408 3.2466541957110167 3.9356899494305253 3.0831635324284434 4.1459139538928866 2.2306126644834876 2.4291531601920724 2.6627292120829225 2.7561494531109902 4.204303083010017 7.8830535756424061 3.129865405149757 3.6554016079753628 3.3984764330089092 2.1838980400934851 3.1999358218163252 3.3167267199605703 2.5342558594420561 4.2393336081877333 2.7094395067542791 3.9240139247849584 3.0948347607627502 2.3006871771067354 4.2159823821857598 3.4919043947011232 3.270009282976388 3.1649017827585357 2.4525084849447003 4.0407948698848468 2.6510424232110408 2.9663653848692775 4.2743716267868859 2.5809739967808119 4.3094115098938337 2.9897235175594687 2.1955786272883406 3.7371531967073661 2.8495820974931112 2.6276861634105444 2.580971771851182 2.7444709716364741 4.0991914868354851 2.604333178140223 2.8262233808636656 2.3824347881600261 2.9079728638753277 3.7254755347967166 2.2306194556877017 2.5576143423095337 2.6744013745337716 2.3824381828308079 3.4451880166307101 3.643728157505393 2.2890094006434083 3.1649054111912847 4.2393324384465823 3.9123333366587749 3.2349716154858461 2.2306127827614546 3.3517615729942918 2.382436778396368 2.3357232064008757 2.9897210597991943 2.2189378160983324 3.3634368944913149 3.0714738182723522 3.6554023083299381 2.7444726089015603 3.3751187659800053 2.8612567167729139 3.8422615146264407 2.3941147904843092 4.3677983004599801 2.3474000496789804 2.6744006713852286 3.1065096138045192 4.3094027386978269 3.6086904937401414 2.5342557420954135 2.1955787427723408 3.9123315811157227 2.1839013164863044 2.2189371073618531 2.896293681114912 2.3006855407729736 2.2306124307215214 3.2349725514650345 3.3751147901639404 2.7444710889831185 2.3240412147715679 2.8028661850839853 2.4291492961347103 3.2232950096949917 2.2539703287184238 2.6160088526085019 2.5342580834403625 2.6276862807571888 2.394112684763968 2.2072565229609609 2.9780425792559981 2.7444709716364741 2.1838981565088034 2.3824352566152838 3.5736525934189549 2.3473985269665718 2.1839002631604663 4.052476042881608 3.8305801078677177 4.2510104505345216 2.5692928219214064 2.4174732724204659 2.2072555860504535 2.452506609261035 2.7561513260006896 2.2890065908432069 2.7678298056125632 2.8028634935617447 3.7838659500703216 2.5926497858017674 2.8962944997474578 2.3474000478163353 3.1532217813655734 3.153223886154592 2.2306125480681649 3.5152579648420232 2.3240415649488568 2.6977579845115534 3.5853311894461504 2.9196495898067942 3.2816883474588394 2.2773329094052315 2.4291501147672525 3.0014009438455087 2.4641855591908097 2.1838980391621607 3.2700077602639857 3.2583290450274944 2.1838982729241252 3.585330255329608 2.3006840180605641 2.8378992872312665 2.3707565441727629 2.7678287532180548 2.4525057906284928 4.2626902190968385 19.690116042271264 2.9663640977814785 2.7561516743153334 2.5809716535732141 3.9240092420950532 2.1838986240327358 2.1838979227468371 2.1838978054001945 2.4057913990691304 3.6203669831156722 3.8072238480672302 5.0801900820806623 2.4291489468887475 8.2918045017868263 3.1882590968161812 2.3240414476022124 2.3006851887330404 2.5576139912009239 2.7911854805424836 3.3634371291846028 3.3400801662355653 2.9780435152351847 2.1838992089033118 3.6904371678829193 3.2816870603710457 2.1955806165933609 2.9780437480658284 2.6043273294344571 2.6160074481740594 2.6393634742125895 2.5342572629451752 2.8379005733877412 2.2422916144132614 2.1838981565088016 3.8422589395195308 3.9006516952067605 3.1181882089003912 3.3050451902672622 3.0130796581506702 4.2276524361223018 2.2422907948493984 2.8262225603684783 3.1999360555782905 2.2306126644834876 2.9079719269648185 2.382435373030602 2.382433969527483 3.5035801855847266 2.8729350809007865 2.4758640406653285 3.0247583743184796 3.6203658133745193 3.9240093594417003 2.9430077224969864 2.2422907948493958 2.1838981565088096 7.1940163001418096 2.2189348852261901 2.2656481079757214 4.2042965264990917 2.2306130165234199 2.4641845058649805 10.475702307187026 4.239332905970512 2.3941130358725786 3.6670799711719146 2.6860785679891706 3.0014004772529006 2.2072562891989937 2.3824342032894492 2.2306137178093195 2.4057916337624192 2.9897225815802813 2.6160060446709394 3.4685440417379141 8.6304838405922073 4.2276540733873826 2.1955766370519996 3.0831507788971058 2.6043276805430677 2.8729356657713652 3.0481152189895502 2.1955771055072546 2.1955766379833221 2.7094358811154953 2.1955774566158652 4.2159743066877153 33.587647531181574 3.3984728045761683 2.1838987413793793 3.153222367167472 3.9824018804356456 2.2890058886259821 9.4129498992115241 2.3590767737478009 2.5342563269659903 4.3444393509998935 2.499219948425889 2.3240426182746887 2.2072558198124161 2.1838989751413465 3.3284003986045816 2.9780429294332862 2.440826958976686 3.5619723564013839 2.3240414485335341 2.6043280316516748 2.721113894134759 3.6554020773619387 2.3123623821884403 3.4101505838334552 2.1838986249640584 2.1838980391621687 2.2189341839402905 2.1838982729241252 2.2306125480681658 2.3473995793610802 9.7633078359067564 3.0014010602608314 36.285403643734753 3.6554011395201078 2.1838979227468371 5.1269044736400247 4.1225457573309541 3.9590452695265439 6.7619081782177108 2.3006840189918885 9.4479856928810531 2.4992205332964659 3.1532220151275387 2.9196498245000839 2.1955773383378983 3.0247572045773268 2.4525055568665266 11.772026672959326 3.8889737986028177 2.1838979227468371 2.6860783342272043 2.4875417016446582 23.520696150138978 2.2656486919149756 2.3240413311868897 3.6670797374099484 2.2890051864087564 2.4758638050407171 4.1225450551137319 7.0772303212434036 2.3240413311868897 6.3181214584037644 2.195576754398644 2.4992202995344988 5.3721550293266773 17.319360670633618 2.2422909121960402 2.218934066593647 4.0407948698848486 5.126904473640022 2.2656484581530085 3.0481142839416853 5.4539052145555615 2.814542442560195 2.4408273100852957 2.2189339501783252 2.7327922573313108 2.4057916328310966 2.721113775856792 50.907008201815188 2.8729355484247199 2.218934066593647 3.5152579648420277 3.0130787231028071 69.230728290975094 2.9780429294332853 2.8028640784323207 2.405792335048317 3.9590452695265412 2.2890054201707244 5.7925845533609452 2.4057912826538086 6.446586035192019 2.382433969527483 2.3240415649488568 2.4291489459574223 3.8772949669510117 2.2072562873363486 4.1575811998918644 4.3561173640191546 89.773381979204714 7.8830535756424069 19.129543343558908 2.5692920042201877 2.1838982729241243 2.9430066682398319 3.7721871184185138 2.1955768708139658 2.1838979227468371 33.062110626138747 2.8028641948476416 4.1809380445629358 2.6276848763227454 4.2860461268573991 2.2539696265012017 4.9867612989619401 2.3240413311868906 2.1838980400934807 4.1692594466730952 2.3707558391615731 3.1999358218163252 34.311720600351691 3.8305801078677213 2.2072552349418393 2.1838979227468291 12.636242916807538 2.8962925104424357 2.1955766370519987 2.183897922746838 2.2422909121960393 2.4291484784334889 2.2189335990697137 2.5809702510014167 2.7678280510008335 3.8889737995341411 4.9634041031822562 2.9313280703499887 2.7094348277896634 2.218934066593647 2.3473984096199265 85.195371606387198 2.7211135420948258 2.2072551185265183 2.6043276805430642 2.3123623821884376 2.2422911459580064 3.6554011395201087 2.9546854998916379 3.1999358218163252 2.183898039162159 133.41630229353905 4.7531893411651236 2.9780426956713191 4.4145100023597479 36.483939807862043 9.623164661228655 2.183898039162159 2.7561491020023823 2.5342557420954108 3.0481140492483965 49.867612989619374 2.2189343003556132 3.3400793476030222 2.1838979227468371 2.2656479906290761 2.1838979227468371 2.8145420914515844 2.1838980391621581 2.3357195779681206 2.195576520636676 3.2232930175960064 2.1838979227468354 5.1152258757501841 3.0597927644848815 7.8013033904135209 2.1955766370519987 2.1955768708139649 3.3050432028248906 66.357793210074306 2.1838980391621581 8.8990915920585376 127.75218231696635 10.253808947280048 2.4408270763233295 4.2860456593334666 35.946724304929376 869.21468374505639 2.7561491020023849 3.4919007690623385 2.826220689341425 36.332118035294116 19.36311530135572 9.6582004548981768 22.703194297850132 6.4465860351920119 3.8656159015372422 5.9327277280390254 37.546692215837538 40.711592243984335 12.496099742129443 23.952804272063076 13.325280192308137 5.2203332567587486 23.182016811333597 2.9546852661296716 2.8378992872312656 39.380232084542499 19.725151835940782 6.0728709027171126 5.1152258757501867 23.123623821884394 12.192456196993588 8.3385188933461887 18.39379167649895 12.192456196993588 9.8800938148051483 5.5940483892336479 4.0524734677746812 9.9618440000340396 2.8378992872312656 2.4641841547563699 11.725312281399956 2.6977561125531784 3.5035793669521809 3.5970081500709057 2.4174697631970048 6.9604443423449993 3.1999358218163261 2.8729350809007883 8.5136978616937977 3.1065070386976004 2.440826958976686 2.2306121969595543 2.4992199484258899 2.8495778851211071 2.6860775146633387 2.9430066682398319 2.3006837842985988 2.4291483610868454 2.6043273294344544 3.912330293096602 2.6043273294344544 2.499219948425889 2.5926487315446138 2.3357195779681206 3.0130782555788755 2.7327919062227011 4.3911528065800667 2.2890051864087582 3.7721871184185094 2.499219948425889 2.8145420914515853 4.8816539179533702
leaf_count=302 353 190 197 201 187 364 231 200 295 190 311 308 274 286 251 208 205 333 215 345 195 226 283 198 187 321 216 260 236 265 265 371 689 291 326 355 191 336 278 337 264 355 191 208 228 236 360 675 268 313 291 187 274 284 217 363 232 336 265 197 361 299 280 271 210 346 227 254 366 221 369 256 188 320 244 225 221 235 351 223 242 204 249 319 191 219 229 204 295 312 196 271 363 335 277 191 287 204 200 256 190 288 263 313 235 289 245 329 205 374 201 229 266 369 309 217 188 335 187 190 248 197 191 277 289 235 199 240 208 276 193 224 217 225 205 189 255 235 187 204 306 201 187 347 328 364 220 207 189 210 236 196 237 240 324 222 248 201 270 270 191 301 199 231 307 250 281 195 208 257 211 187 280 279 187 307 197 243 203 237 210 365 1686 254 236 221 336 187 187 187 206 310 326 435 208 710 273 199 197 219 239 288 286 255 187 316 281 188 255 223 224 226 217 243 192 187 329 334 267 283 258 362 192 242 274 191 249 204 204 300 246 212 259 310 336 252 192 187 616 190 194 360 191 211 897 363 205 314 230 257 189 204 191 206 256 224 297 739 362 188 264 223 246 261 188 188 232 188 361 2876 291 187 270 341 196 806 202 217 372 214 199 189 187 285 255 209 305 199 223 233 313 198 292 187 187 190 187 191 201 836 257 3107 313 187 439 353 339 579 197 809 214 270 250 188 259 210 1008 333 187 230 213 2014 194 199 314 196 212 353 606 199 541 188 214 460 1483 192 190 346 439 194 261 467 241 209 190 234 206 233 4359 246 190 301 258 5928 255 240 206 339 196 496 206 552 204 199 208 332 189 356 373 7687 675 1638 220 187 252 323 188 187 2831 240 358 225 367 193 427 199 187 357 203 274 2938 328 189 187 1082 248 188 187 192 208 190 221 237 333 425 251 232 190 201 7295 233 189 223 198 192 313 253 274 187 11424 407 255 378 3124 824 187 236 217 261 4270 190 286 187 194 187 241 187 200 188 276 187 438 262 668 188 188 283 5682 187 762 10939 878 209 367 3078 74428 236 299 242 3111 1658 827 1944 552 331 508 3215 3486 1070 2051 1141 447 1985 253 243 3372 1689 520 438 1980 1044 714 1575 1044 846 479 347 853 243 211 1004 231 300 308 207 596 274 246 729 266 209 191 214 244 230 252 197 208 223 335 223 214 222 200 258 234 376 196 323 214 241 418
internal_value=-4.42622 -4.24739 -4.10893 -4.43497 -4.01194 -4.4354 -4.04133 -3.90211 -3.73097 -4.37997 -4.12402 -3.95115 -4.43994 -4.4299 -4.34552 -4.32676 -4.33193 -4.31436 -4.34207 -4.40555 -4.08352 -4.37633 -4.26551 -3.8781 -4.33639 -4.32287 -4.16921 -4.29311 -4.14021 -4.1135 -4.19543 -4.35702 -4.37171 -4.30261 -4.26506 -4.00606 -4.14654 -4.43606 -4.14992 -4.26602 -4.08047 -4.01852 -4.35395 -4.2959 -4.14125 -4.3375 -4.30611 -4.42595 -4.29867 -4.41446 -4.42124 -4.41448 -4.40403 -4.36144 -4.32913 -4.365 -4.36685 -4.35498 -4.27743 -4.33314 -4.30737 -4.25562 -4.36831 -4.37911 -4.36062 -4.3758 -4.35616 -4.32427 -4.29979 -4.33917 -4.31782 -4.27219 -4.41586 -4.36709 -4.35713 -4.3112 -4.42471 -4.36155 -4.36364 -4.26141 -4.412 -4.41452 -4.37599 -4.30049 -4.08547 -4.36958 -4.35938 -4.33937 -4.2986 -4.32336 -4.27931 -4.30363 -4.34755 -4.40606 -4.39959 -4.38327 -4.36283 -4.36501 -4.30418 -4.39471 -4.22924 -4.34314 -4.36088 -4.42016 -4.40693 -4.38028 -4.38035 -4.38948 -4.39574 -4.40572 -4.41888 -4.42697 -4.38957 -4.39827 -4.37784 -4.43125 -4.37966 -4.38272 -4.19856 -4.3675 -4.34014 -4.43183 -4.38987 -4.38105 -4.42956 -4.43427 -4.41191 -4.37504 -4.41126 -4.38353 -4.43126 -4.42578 -4.39476 -4.40657 -4.37333 -4.447 -4.40253 -4.39154 -4.43603 -4.41735 -4.39744 -4.37744 -4.35611 -4.39314 -4.4424 -4.40399 -4.41593 -4.32325 -4.43252 -4.42764 -4.41865 -4.42305 -4.41092 -4.40303 -4.41717 -4.43683 -4.43758 -4.41351 -4.41864 -4.39939 -4.42565 -4.40819 -4.38107 -4.43113 -4.42533 -4.42807 -4.39855 -4.12264 -4.41548 -4.40421 -4.41116 -4.42805 -4.41654 -4.41412 -4.4166 -4.44736 -4.43922 -4.43439 -4.42445 -4.4291 -4.39471 -4.42115 -4.43154 -4.42563 -4.39824 -4.42889 -4.41396 -4.39723 -4.42364 -4.40253 -4.43159 -4.43153 -4.43639 -4.43069 -4.43486 -4.42704 -4.41812 -4.42634 -4.40067 -4.42384 -4.44004 -4.44029 -4.43965 -4.44259 -4.43756 -4.41467 -4.43529 -4.23291 -4.43207 -4.43448 -4.41933 -4.43958 -4.41412 -4.42694 -4.43015 -4.43117 -4.42751 -4.42273 -4.41317 -4.40481 -4.4171 -4.43029 -4.43843 -4.43511 -4.41184 -4.43754 -4.43837 -4.43938 -4.41607 -4.43361 -4.42808 -4.41004 -4.434 -4.41527 -4.44005 -4.42084 -4.42328 -4.44293 -4.43698 -4.41508 -4.41199 -4.43971 -4.42958 -4.43348 -4.44179 -4.43331 -4.42414 -4.44151 -4.42422 -4.44427 -4.44188 -4.42502 -4.40536 -4.44254 -4.43754 -4.40725 -4.43994 -4.43135 -4.43873 -4.42638 -4.43632 -4.4398 -4.43278 -4.43799 -4.43314 -4.44231 -4.43191 -4.41056 -4.4408 -4.44099 -4.44226 -4.43505 -4.43845 -4.43484 -4.43251 -4.43909 -4.42934 -4.43552 -4.42761 -4.41478 -4.40206 -4.44117 -4.40801 -4.44333 -4.44603 -4.43151 -4.43331 -4.44548 -4.43281 -4.43718 -4.44252 -4.43268 -4.44386 -4.42884 -4.44455 -4.44273 -4.44472 -4.4451 -4.43551 -4.44262 -4.4346 -4.44567 -4.44618 -4.43481 -4.43984 -4.44119 -4.44057 -4.44443 -4.43904 -4.44368 -4.44014 -4.44546 -4.44658 -4.43351 -4.44518 -4.44538 -4.44513 -4.44687 -4.44461 -4.43485 -4.44567 -4.44656 -4.43481 -4.44691 -4.44632 -4.44034 -4.43062 -4.44633 -4.44523 -4.44687 -4.44504 -4.44619 -4.44649 -4.44424 -4.44557 -4.44345 -4.44401 -4.44357 -4.44438 -4.44368 -4.4468 -4.44292 -4.447 -4.44456 -4.44261 -4.44635 -4.44407 -4.44706 -4.44682 -4.44731 -4.44147 -4.44571 -4.44744 -4.44784 -4.44701 -4.4479 -4.44625 -4.44696 -4.44731 -4.44676 -4.44711 -4.44501 -4.43897 -4.4481 -4.44084 -4.44767 -4.39811 -4.44783 -4.44743 -4.44817 -4.44304 -4.44636 -4.44156 -4.44663 -4.44003 -4.44791 -4.44125 -4.44814 -4.44572 -4.44713 -4.44162 -4.44821 -4.44583 -4.44712 -4.44744 -4.44181 -4.44706 -4.44171 -4.44825 -4.44358 -4.44814 -4.44825 -4.44782 -4.4476 -4.44752 -4.44815 -4.44774 -4.4472 -4.44741 -4.44799 -4.44699 -4.44819 -4.44829 -4.44719 -4.4475 -4.44138 -4.44813 -4.44251 -4.44841 -4.4485 -4.44839 -4.44643 -4.44776 -4.44793 -4.44345 -4.44607 -4.44856 -4.44588 -4.44571 -4.44828 -4.4455 -4.44809 -4.44533 -4.44829 -4.44506 -4.4446 -4.4442 -4.444 -4.44842 -4.44721 -4.43605 -4.44806 -4.4485 -4.44371 -4.44841 -4.44425 -4.44851 -4.44553 -4.44855 -4.44597 -4.44853 -4.44645 -4.44855 -4.44647 -4.44857 -4.44787 -4.44062 -4.4484 -4.44862 -4.4467 -4.44864 -4.44691 -4.44866 -4.44814 -4.44841 -4.4487 -4.4487 -4.4487 -4.4487 -4.4487 -4.4487 -4.4487 -4.4487 -4.4487 -4.4487 -4.4487 -4.4487 -4.4487 -4.4487 -4.4487 -4.4487 -4.4487 -4.4487 -4.4487 -4.4487 -4.4487 -4.4487 -4.4487 -4.4487 -4.4487 -4.4487 -4.4487 -4.4487 -4.4487 -4.4487 -4.4487 -4.4487 -4.4487 -4.4487 -4.4487 -4.4487 -4.4487 -4.4487 -4.4487 -4.4487 -4.4487 -4.4487 -4.4487 -4.4487 -4.4487 -4.4487 -4.4487 -4.4487 -4.4487 -4.4487 -4.4487 -4.4487 -4.4487 -4.4487 -4.4487 -4.4487 -4.4487 -4.4487 -4.4487 -4.4487 -4.4487 -4.4487 -4.4487 -4.4487 -4.4487 -4.4487 -4.4487
internal_weight=3798.63 177.095 67.1404 3621.53 50.6035 3619.19 48.4196 18.0435 9.28454 274.05 30.3761 6.29479 3345.14 1381.2 137.142 111.122 109.954 93.7559 76.0394 279.037 8.75897 110.491 21.22 5.83932 106.999 91.4435 24.0813 58.5332 20.4493 17.6931 17.7165 84.7984 54.8194 55.4968 26.7323 6.42325 8.23343 1102.17 12.1925 8.26846 14.5983 7.22908 44.5422 5.52398 7.36921 28.7644 16.9807 424.786 17.915 136.908 114.882 178.531 111.379 17.5646 12.0757 10.6159 76.5299 56.1741 14.7851 32.6767 18.861 7.70789 13.8158 22.0258 53.4647 32.9103 22.5631 12.4961 9.84507 12.7764 18.4989 7.29914 15.5559 49.5406 41.2372 4.84662 168.546 10.1954 38.3876 6.8787 93.8142 90.988 11.6085 11.6903 6.72689 35.9351 29.5936 18.896 9.47135 7.08892 9.17939 6.89038 11.1998 43.7597 20.3558 14.9369 10.3472 8.75895 4.76487 10.6976 5.46559 11.1531 8.85238 79.3794 36.6942 11.3633 9.42463 6.37652 10.067 16.5369 25.3309 104.267 6.76191 17.1792 10.0319 124.786 6.43491 11.7837 4.70648 9.02756 5.11523 67.1519 4.5313 5.58237 97.5046 246.255 39.8474 5.12691 11.8655 5.45391 194.904 110.515 17.296 14.7618 5.01012 1963.93 7.21738 6.99548 61.3594 34.7205 12.1341 8.10495 5.75755 6.79695 677.382 6.45827 14.2362 5.48895 122.205 85.4523 49.5289 46.7728 27.6316 8.26845 6.34148 170.356 167.763 10.7326 10.3472 6.30645 26.0199 10.9662 5.25537 94.8302 60.8455 58.1477 6.20134 4.49627 8.0232 7.98816 5.32544 22.5864 24.8637 6.42323 8.30349 1902.57 157.03 88.4771 32.9804 30.6096 5.3488 22.5747 93.2186 53.9318 5.72252 48.2093 7.67284 9.92681 9.75163 4.81158 51.9464 42.6853 25.2608 9.86842 62.6206 31.8008 21.0682 17.8799 4.62473 5.36048 35.9234 55.4967 39.2868 196.329 79.7999 5.87434 13.2552 4.4262 13.3603 39.0649 9.83338 29.2315 5.13858 7.1473 8.38523 45.6283 37.7452 29.0797 17.5062 13.664 10.5458 7.24073 84.3896 63.7535 6.02616 57.7273 15.0537 73.9255 4.76487 16.1982 18.312 5.74587 48.3611 6.64512 25.6929 5.58237 5.24369 30.8198 41.716 4.62473 6.6568 37.0912 19.7485 17.5179 12.8581 20.204 11.7604 33.9847 6.35316 507.026 224.731 8.44363 4.61305 216.288 65.7038 4.82326 60.8805 23.0419 20.0522 8.95749 12.5662 54.9011 25.1207 20.7529 5.71084 52.1333 14.5515 4.65976 22.493 69.1607 65.5753 26.0316 23.8477 6.41155 5.48894 55.4733 4.58969 40.4663 16.8522 9.1677 6.66848 23.6141 4.3678 20.6945 116.529 7.75459 7.21737 27.6316 5.59405 11.5735 35.9467 11.0947 36.7525 5.59405 21.4069 33.4709 150.584 148.178 15.1588 32.8869 12.6012 51.3508 282.295 9.59981 7.52102 11.8421 19.1412 31.2519 13.8041 17.7048 10.3823 68.5534 272.695 5.85098 37.8387 20.1105 18.6858 266.844 97.7849 9.62317 88.1617 31.1585 4.7999 24.8521 65.4001 15.953 6.14294 37.5817 12.8114 48.6063 12.1457 133.019 130.835 9.97352 28.3907 16.934 9.48302 8.66552 10.3005 8.85238 128.64 7.68452 26.2068 10.7326 7.29912 85.2421 9.59981 108.774 82.7545 80.0218 6.14294 29.7804 106.053 103.04 39.5437 1706.24 181.217 178.811 176.008 34.3701 126.141 24.0929 4.56633 1525.03 8.47866 172.049 4.39115 77.1488 123.092 169.059 11.772 28.4607 9.3312 21.4536 5.1269 168.172 5.96776 1516.55 44.7991 42.4751 9.41295 1471.75 46.4341 42.1481 35.3862 6.44659 27.1761 6.35316 100.062 8.6772 39.5204 49.4472 25.3075 20.2857 18.8726 162.204 46.2823 14.8318 17.296 31.3454 12.9749 44.0867 1425.31 132.692 129.924 12.1341 117.79 7.18234 1292.62 110.608 72.9912 9.81002 118.736 116.331 8.46698 8.44363 157.287 7.88305 7.43927 159.915 6.93709 36.5657 6.59841 107.864 12.2275 5.41887 4.94005 4.72983 1290.27 74.5328 5.26705 69.2658 1215.74 4.44955 157.019 4.99844 1211.29 7.01884 152.02 8.15166 1204.27 9.89177 1194.38 9.9852 1184.4 80.8509 5.50062 75.3503 1103.55 11.0947 1092.45 12.4377 1080.01 80.2203 77.7795 999.793 154.333 143.869 130.578 126.106 70.2701 91.385 107.899 95.636 65.9257 72.2905 73.4934 47.1465 81.7268 28.9396 59.1521 41.5057 28.2272 37.2664 22.528 52.7055 23.1003 23.3922 20.8229 28.9162 16.0581 18.1018 20.6361 17.3077 16.3267 15.007 16.6887 16.1865 26.3586 11.0947 15.0537 14.4698 10.5808 9.91513 7.78962 10.4523 12.6479 7.99984 10.7326 6.30644 6.48162 10.2772 8.24509 6.04951 6.58673 5.25537 7.60277 6.61009 6.43491 6.22469 6.25973 4.83494 7.70787 4.77655 5.30208 5.95608 7.26409 5.04515 6.22469 5.69916 5.74587 7.71955
internal_count=325264 15164 5749 310100 4333 309899 4146 1545 795 23466 2601 539 286433 118268 11743 9515 9415 8028 6511 23893 750 9461 1817 500 9162 7830 2062 5012 1751 1515 1517 7261 4694 4752 2289 550 705 94375 1044 708 1250 619 3814 473 631 2463 1454 36373 1534 11723 9837 15287 9537 1504 1034 909 6553 4810 1266 2798 1615 660 1183 1886 4578 2818 1932 1070 843 1094 1584 625 1332 4242 3531 415 14432 873 3287 589 8033 7791 994 1001 576 3077 2534 1618 811 607 786 590 959 3747 1743 1279 886 750 408 916 468 955 758 6797 3142 973 807 546 862 1416 2169 8928 579 1471 859 10685 551 1009 403 773 438 5750 388 478 8349 21086 3412 439 1016 467 16689 9463 1481 1264 429 168165 618 599 5254 2973 1039 694 493 582 58002 553 1219 470 10464 7317 4241 4005 2366 708 543 14587 14365 919 886 540 2228 939 450 8120 5210 4979 531 385 687 684 456 1934 2129 550 711 162911 13446 7576 2824 2621 458 1933 7982 4618 490 4128 657 850 835 412 4448 3655 2163 845 5362 2723 1804 1531 396 459 3076 4752 3364 16811 6833 503 1135 379 1144 3345 842 2503 440 612 718 3907 3232 2490 1499 1170 903 620 7226 5459 516 4943 1289 6330 408 1387 1568 492 4141 569 2200 478 449 2639 3572 396 570 3176 1691 1500 1101 1730 1007 2910 544 43415 19243 723 395 18520 5626 413 5213 1973 1717 767 1076 4701 2151 1777 489 4464 1246 399 1926 5922 5615 2229 2042 549 470 4750 393 3465 1443 785 571 2022 374 1772 9978 664 618 2366 479 991 3078 950 3147 479 1833 2866 12894 12688 1298 2816 1079 4397 24172 822 644 1014 1639 2676 1182 1516 889 5870 23350 501 3240 1722 1600 22849 8373 824 7549 2668 411 2128 5600 1366 526 3218 1097 4162 1040 11390 11203 854 2431 1450 812 742 882 758 11015 658 2244 919 625 7299 822 9314 7086 6852 526 2550 9081 8823 3386 146100 15517 15311 15071 2943 10801 2063 391 130583 726 14732 376 6606 10540 14476 1008 2437 799 1837 439 14400 511 129857 3836 3637 806 126021 3976 3609 3030 552 2327 544 8568 743 3384 4234 2167 1737 1616 13889 3963 1270 1481 2684 1111 3775 122045 11362 11125 1039 10086 615 110683 9471 6250 840 10167 9961 725 723 13468 675 637 13693 594 3131 565 9236 1047 464 423 405 110482 6382 451 5931 104100 381 13445 428 103719 601 13017 698 103118 847 102271 855 101416 6923 471 6452 94493 950 93543 1065 92478 6869 6660 85609 13215 12319 11181 10798 6017 7825 9239 8189 5645 6190 6293 4037 6998 2478 5065 3554 2417 3191 1929 4513 1978 2003 1783 2476 1375 1550 1767 1482 1398 1285 1429 1386 2257 950 1289 1239 906 849 667 895 1083 685 919 540 555 880 706 518 564 450 651 566 551 533 536 414 660 409 454 510 622 432 533 488 492 661
is_linear=0
shrinkage=1


Tree=1
num_leaves=1182
num_cat=0
split_feature=210 40 337 38 210 315 50 337 38 28 315 355 315 40 355 441 337 442 100 20 190 563 314 315 337 376 190 563 355 550 453 244 441 190 304 28 314 563 220 222 337 598 6 258 264 466 40 60 276 190 529 466 210 314 311 466 398 28 264 40 28 264 220 311 467 220 304 550 563 40 553 236 52 40 314 112 6 40 442 60 58 28 376 50 286 258 563 220 467 563 337 466 222 286 28 474 6 355 304 222 220 337 420 360 507 218 28 144 288 529 210 298 514 453 246 360 603 304 6 246 250 315 304 220 14 484 315 453 311 376 250 606 453 250 40 220 311 304 258 466 550 441 376 38 514 481 484 298 453 514 314 398 441 563 563 124 337 311 598 40 467 467 40 467 321 222 376 466 314 220 142 609 514 142 467 190 298 407 539 298 214 250 481 529 112 220 315 126 376 609 264 606 6 304 484 198 40 50 442 603 603 553 376 222 144 6 52 539 250 190 210 20 40 190 232 514 6 166 28 360 264 606 563 210 210 276 52 20 571 474 40 563 14 304 264 563 376 495 603 524 520 46 276 352 112 166 258 609 144 304 324 529 606 250 514 563 220 314 210 451 495 6 553 112 603 563 276 551 112 315 304 553 6 597 327 156 606 28 321 484 20 20 315 264 553 50 481 315 609 453 6 324 106 514 467 585 484 376 258 467 298 484 142 210 553 190 40 314 40 524 407 563 210 467 210 486 254 609 571 311 298 28 467 609 14 451 453 304 250 451 124 481 298 486 222 474 453 40 466 298 451 520 574 441 298 298 156 467 451 324 314 6 603 142 100 210 580 563 28 40 420 474 606 324 563 563 495 50 466 553 609 539 46 14 315 442 222 132 88 451 112 520 453 507 222 420 481 360 44 264 474 321 550 481 606 555 324 453 574 563 222 466 46 268 142 6 264 210 20 210 367 232 14 222 324 571 311 514 555 484 324 264 6 507 40 539 526 234 220 124 563 561 360 551 571 545 553 194 298 553 144 558 575 453 236 100 519 311 514 550 46 246 60 52 304 565 288 304 574 214 44 6 519 311 315 563 441 609 206 474 50 603 451 534 474 514 100 106 246 563 516 603 327 367 520 442 534 100 568 210 571 144 529 337 20 315 314 210 50 258 315 210 222 603 603 40 6 311 606 474 451 315 100 40 314 311 250 50 210 441 220 40 484 250 40 6 311 453 276 606 288 142 453 563 6 258 474 315 20 40 190 254 190 6 40 264 376 315 40 360 529 50 563 52 106 311 44 314 453 286 218 311 40 40 466 40 474 6 311 311 50 539 529 360 315 442 311 545 20 60 246 551 250 6 190 315 311 597 314 474 286 304 258 40 210 360 40 315 474 6 311 246 232 258 376 571 529 315 106 585 210 250 210 606 585 337 210 574 304 264 376 474 315 315 40 6 222 190 106 315 467 550 337 250 124 206 246 220 52 466 453 529 315 276 250 156 571 142 453 222 304 236 367 100 603 56 574 6 190 250 100 276 311 360 539 206 46 210 304 20 304 314 286 112 314 222 606 6 40 315 315 210 314 250 315 14 298 311 264 539 474 286 311 360 474 597 311 142 360 222 246 250 603 324 603 311 314 112 474 50 44 220 100 376 474 311 40 481 44 311 222 250 124 206 124 254 539 315 304 264 304 100 551 142 524 311 324 441 474 190 286 210 40 20 40 6 486 539 6 190 315 481 609 264 40 276 315 264 276 466 551 314 360 52 46 298 474 324 298 264 304 254 250 453 606 166 112 311 314 321 311 124 603 222 210 337 314 311 466 539 421 467 190 46 6 467 190 50 539 442 321 466 222 6 250 156 50 210 14 298 467 100 44 315 78 246 6 304 520 304 298 360 166 244 40 250 539 190 360 298 142 52 337 210 190 190 315 327 481 190 441 315 100 222 210 539 44 563 298 60 606 315 453 14 553 220 360 486 324 451 315 311 467 14 232 40 598 166 568 100 100 40 142 46 298 553 190 142 190 20 192 50 78 246 40 466 311 474 106 315 210 78 324 50 40 453 222 474 190 553 190 46 220 52 156 52 484 507 220 563 315 609 28 327 481 376 571 100 44 142 324 40 144 355 563 50 222 311 507 152 383 467 250 441 574 58 571 517 481 514 553 28 585 466 142 571 563 190 190 40 407 156 534 367 276 50 250 534 46 210 304 52 28 6 28 6 315 210 539 597 484 20 44 144 529 315 481 420 609 40 190 210 100 46 190 40 606 311 327 441 467 451 298 304 337 222 46 124 367 563 441 425 453 250 52 474 609 355 314 539 28 327 580 106 206 6 467 609 484 190 441 315 609 609 568 383 609 609 304 315 100 563 355 603 14 563 597 551 519 20 360 598 441 442 210 220 563 539 222 609 453 481 441 166 585 210 246 360 606 467 314 44 467 383 152 597 222 441 524 553 474 40 156 124 258 52 210 14 234 597 124 553 598 14 276 50 40 304 529 609 314 519 520 484 222 352 100 519 34 539 520 520 14 481 451 124 514 367 539 100 50 210 574 324 250 52 232 100 74 304 116 420 514 298 337 355 250 352 495 220 232 112 124 40 144 112 14 324 14 6 6 58 6 6 6 14 14 14 14 112 124 220 222 222 232 6 14 14 40 44 100 166 222 222 222 232 298 6 6 6 6 6 6 6 14 40 44 58 232 539 574
split_gain=9725.31 2590.13 1863.99 1312.11 777.92 533.143 483.054 458.942 368.52 366.403 365.038 280.619 236.202 332.12 222.595 212.7 211.594 196.096 274.566 170.622 167.655 140.245 133.758 126.137 113.874 110.228 105.723 100.964 97.4199 94.6799 92.8666 91.8305 91.7639 140.192 90.4191 91.7903 89.5041 84.6508 80.8196 72.0351 68.2612 121.596 65.6911 64.6972 72.4027 63.902 62.5318 61.6775 58.8303 59.591 59.1399 55.8592 55.7641 53.1495 127.204 51.9274 50.3008 48.8108 48.7347 45.5184 62.7108 53.7943 43.9641 47.8452 43.2599 43.0991 42.9237 41.8593 41.8177 41.6901 40.5928 41.0426 40.0523 39.5466 38.6191 46.4315 46.5724 38.0743 61.601 49.2695 46.4715 45.3686 37.9039 36.6223 36.5961 35.2937 43.2411 39.2509 33.8525 33.6428 31.4796 31.3677 29.5533 29.3843 28.2918 27.8385 27.7963 26.3928 28.4976 40.3887 26.0782 25.522 25.4854 26.2855 25.0897 25.0847 24.3203 24.1025 37.981 29.7483 26.9785 60.8251 32.4444 23.6345 23.2543 22.5428 38.4067 32.8165 21.9218 45.9788 21.7988 35.4371 21.6189 20.7678 25.3059 20.8539 20.4755 20.1113 29.698 20.0509 19.9777 19.4998 19.4374 28.0349 19.4151 20.4371 18.0278 21.8232 17.5934 20.2766 26.2474 17.2368 17.2152 17.0656 17.0574 17.7424 18.9955 16.3975 15.8214 19.5077 15.3944 15.3525 17.7753 14.811 14.6415 14.2442 14.2279 14.1329 14.0713 20.1753 23.5464 13.8849 14.3494 18.2555 13.1375 14.3288 12.6753 12.6428 12.5722 12.4237 11.7789 11.0767 11.0317 10.8015 14.115 10.7915 24.9268 10.5954 11.4826 10.557 10.4294 10.4065 10.3641 14.6448 9.90098 9.78124 9.50985 10.1739 9.31102 9.21645 9.16063 9.02825 8.71597 8.70216 13.5753 8.63289 8.49089 17.9778 10.2534 9.90462 10.074 10.8364 8.32806 8.30904 8.2924 8.25913 12.2652 8.24289 12.9488 8.12513 15.1343 8.02946 7.38098 7.31026 7.30372 7.2976 7.1645 6.9123 14.9946 6.86969 6.49053 7.29139 6.46019 9.00387 6.35953 7.80948 15.2876 5.98249 5.8731 5.79422 5.59308 5.58205 5.34206 5.31018 5.27992 12.6193 5.10798 6.95858 8.66844 6.89201 6.66651 11.3967 4.99484 4.92972 9.32603 4.89818 4.58278 6.5835 4.48414 7.51776 4.47213 4.39827 11.8438 4.76002 4.33379 4.32706 5.84482 6.0637 4.31476 8.23092 4.26416 4.25852 4.23921 4.23623 4.13471 4.06673 3.94694 3.8203 5.73738 3.79921 9.59831 3.73151 3.6863 3.68121 3.61399 3.60512 3.56674 3.29775 5.34825 4.37244 5.75451 7.37925 7.99751 3.26347 3.15114 3.09285 12.0237 3.03769 6.0815 8.03057 2.99561 10.8688 2.97904 3.76384 5.94135 12.5002 3.14831 2.96499 2.94682 4.90104 15.6664 3.25504 5.14679 2.89395 8.64861 2.68998 2.58666 2.55177 2.54326 3.25601 3.01703 6.75637 3.04942 4.41992 2.53833 2.32484 2.25733 2.21435 2.19295 4.75017 2.14411 3.06749 4.07796 2.1437 4.03725 2.05967 2.03613 2.03397 4.35769 2.01622 1.96563 4.06221 6.439 3.19988 1.9361 3.95166 1.79214 1.66665 2.07879 1.59034 4.48441 1.5842 3.69092 1.53418 1.49289 1.46251 1.46043 1.45758 1.44971 1.43242 1.41917 1.41891 2.29684 1.40587 1.40026 3.30819 1.39876 1.35364 1.34627 1.30493 1.30262 2.06238 1.34534 1.28989 2.31724 1.32558 1.26587 1.26229 1.24592 2.64484 1.22275 1.21769 2.55162 1.21583 1.1668 1.14868 1.13355 1.10272 1.09167 1.07115 1.03809 1.01011 0.972991 0.960917 0.942114 0.887636 1.68792 3.34312 2.87274 1.40913 2.32526 0.838915 0.811513 0.789414 3.17009 0.781209 3.07437 0.817282 1.84835 3.97151 1.66768 4.01117 9.52454 1.07767 0.984705 3.11406 0.959413 2.61492 0.701748 1.03552 0.645757 1.02538 0.616488 1.01564 0.597447 1.10771 0.5656 1.09619 0.508864 1.26787 0.503794 1.18065 0.462509 1.32974 1.08184 3.0675 0.432861 0.43024 0.428521 1.38505 0.42147 0.420452 1.19953 0.405519 0.451631 0.397032 0.393895 0.391829 0.385012 0.38229 0.378546 0.37665 0.395242 0.401625 0.373366 0.367521 0.363176 0.356212 0.328809 0.326945 1.40075 0.322905 0.315474 0.312947 0.299123 0.297614 0.297165 1.48089 0.292513 0.287651 0.280791 0.270767 0.264656 0.242822 0.235351 0.233545 0.142865 0.308433 0.140315 0.316434 0.137071 0.688071 2.16637 0.199746 0.241117 0.143958 0.314308 0.12393 0.32334 0.112191 1.63207 0.35746 0.0904078 0.701697 1.0606 0.438252 0.0753726 0.509505 1.27264 0.065763 0.398081 0.020306 0.424488 1.65293e-06 1.1195e-06 8.58778e-07 5.61889e-07 5.24588e-07 3.65503e-07 3.61781e-07 3.56166e-07 3.5019e-07 3.13097e-07 2.95232e-07 2.32164e-07 1.99038e-07 1.90971e-07 1.80609e-07 1.81647e-07 1.72902e-07 1.69577e-07 1.65667e-07 1.61661e-07 1.57417e-07 1.55676e-07 2.20806e-07 1.54647e-07 1.53482e-07 1.52641e-07 1.4826e-07 1.31069e-07 1.20535e-07 1.17118e-07 1.05737e-07 1.03134e-07 9.68995e-08 9.62865e-08 9.17142e-08 8.96929e-08 8.62216e-08 8.47525e-08 8.37915e-08 8.09893e-08 7.74418e-08 7.60581e-08 7.57744e-08 7.52706e-08 7.3364e-08 7.32022e-08 7.19558e-08 7.11093e-08 7.1101e-08 7.08141e-08 9.21104e-08 6.55172e-08 6.323e-08 6.31062e-08 6.15704e-08 6.03385e-08 5.94486e-08 5.83042e-08 5.67983e-08 6.3764e-08 5.52473e-08 5.38454e-08 5.34319e-08 1.65396e-07 5.25865e-08 5.25009e-08 5.09174e-08 5.07856e-08 4.73555e-08 4.68558e-08 4.58262e-08 4.43024e-08 4.29655e-08 4.22351e-08 4.05268e-08 4.03657e-08 3.95703e-08 3.94844e-08 3.91947e-08 3.8942e-08 3.89086e-08 3.6869e-08 3.64575e-08 3.78626e-08 6.37049e-08 3.5531e-08 8.6803e-08 3.44472e-08 3.44438e-08 3.4438e-08 3.43613e-08 3.43206e-08 4.23753e-08 3.41766e-08 3.41639e-08 3.37563e-08 3.35815e-08 3.24832e-08 3.06003e-08 3.05885e-08 3.8023e-08 3.00051e-08 2.94939e-08 2.88082e-08 2.78727e-08 2.77483e-08 2.75352e-08 2.71937e-08 2.55568e-08 2.49858e-08 2.48366e-08 2.36303e-08 2.32517e-08 2.25236e-08 2.66744e-08 2.35067e-08 2.75307e-08 2.20628e-08 2.1844e-08 2.14638e-08 2.14068e-08 2.09922e-08 2.09621e-08 2.094e-08 2.28831e-08 2.05276e-08 2.05165e-08 1.98576e-08 1.97563e-08 1.95101e-08 1.94847e-08 1.90778e-08 1.88893e-08 3.0672e-08 2.15662e-08 1.86907e-08 1.84042e-08 1.81857e-08 1.81794e-08 1.81763e-08 1.81638e-08 1.78773e-08 1.7569e-08 3.73795e-08 1.67702e-08 1.62193e-08 1.60249e-08 1.58185e-08 1.58136e-08 1.50171e-08 1.49079e-08 1.40593e-08 1.34702e-08 1.33264e-08 1.31897e-08 1.26771e-08 1.25564e-08 1.24007e-08 1.23127e-08 1.23825e-08 1.20221e-08 1.1848e-08 1.1681e-08 1.15754e-08 1.1448e-08 1.11599e-08 1.8537e-08 1.09682e-08 1.08248e-08 1.07393e-08 1.06122e-08 1.00446e-08 1.00334e-08 1.02397e-08 9.97834e-09 9.88466e-09 9.81403e-09 9.8002e-09 9.79443e-09 1.30742e-08 9.7914e-09 9.62678e-09 8.85112e-09 8.61891e-09 8.59285e-09 1.50571e-08 8.37358e-09 8.21221e-09 8.31333e-09 7.68684e-09 7.08245e-09 2.1047e-08 8.13074e-09 6.98701e-09 6.95009e-09 6.74442e-09 6.68801e-09 6.62444e-09 6.57238e-09 6.50154e-09 7.62777e-09 6.43856e-09 6.42224e-09 6.06789e-09 9.9502e-09 1.63719e-08 1.34763e-08 5.92679e-09 5.80908e-09 5.7419e-09 5.49669e-09 5.45208e-09 5.20829e-09 6.45332e-09 5.09812e-09 4.95066e-09 4.92871e-09 4.8103e-09 4.78908e-09 4.76229e-09 4.53638e-09 4.17409e-09 4.12129e-09 3.85513e-09 3.79573e-09 3.75059e-09 3.74877e-09 3.64436e-09 3.61574e-09 3.5787e-09 3.56758e-09 3.53937e-09 5.26772e-09 3.45501e-09 3.45146e-09 3.38985e-09 3.37796e-09 3.34788e-09 6.78658e-09 6.07746e-09 5.91612e-09 5.12094e-09 3.30073e-09 3.23103e-09 3.18823e-09 3.11393e-09 3.05355e-09 2.99245e-09 2.94144e-09 2.91275e-09 2.88833e-09 2.84736e-09 2.77925e-09 2.74463e-09 2.6944e-09 2.69392e-09 9.82417e-09 2.54295e-09 2.50143e-09 2.47455e-09 2.45119e-09 2.40816e-09 2.34115e-09 2.31511e-09 2.22023e-09 2.20311e-09 2.16456e-09 2.06754e-09 2.06301e-09 2.0241e-09 2.4105e-09 2.00058e-09 1.98489e-09 1.87222e-09 1.81208e-09 1.76715e-09 8.53328e-09 8.81345e-09 1.75667e-09 1.7224e-09 1.66455e-09 1.59804e-09 1.5941e-09 1.57559e-09 1.56147e-09 1.54484e-09 1.53672e-09 1.53276e-09 1.96637e-09 2.55294e-09 1.50284e-09 1.481e-09 4.37292e-09 1.40928e-09 1.38341e-09 1.72849e-09 1.35236e-09 1.25495e-09 1.22527e-09 1.19723e-09 1.16479e-09 1.15995e-09 1.08276e-09 1.07682e-09 1.06387e-09 1.05311e-09 1.00759e-09 9.79071e-10 9.48226e-10 9.37128e-10 9.3249e-10 9.29973e-10 9.15591e-10 8.5798e-10 8.4101e-10 8.20755e-10 7.63155e-10 8.43059e-10 7.60039e-10 8.09592e-10 8.82554e-10 7.57382e-10 8.63078e-10 7.16184e-10 7.08715e-10 8.57858e-10 7.03485e-10 6.95409e-10 6.73238e-10 6.51577e-10 6.35996e-10 6.32156e-10 8.63309e-10 6.11301e-10 6.0641e-10 5.77152e-10 5.60888e-10 5.40496e-10 5.35628e-10 5.35465e-10 5.15712e-10 5.64758e-10 5.02713e-10 4.92687e-10 4.84377e-10 4.83222e-10 4.58352e-10 4.42043e-10 4.39769e-10 4.29467e-10 4.207e-10 4.0076e-10 3.98036e-10 3.96966e-10 8.18183e-10 1.21386e-09 3.91857e-10 3.84231e-10 3.76133e-10 3.70385e-10 5.57708e-10 3.62069e-10 3.53698e-10 3.46205e-10 3.44698e-10 3.43075e-10 4.11487e-10 3.41058e-10 3.39e-10 3.3231e-10 3.29099e-10 3.27421e-10 3.27153e-10 3.19963e-10 3.1978e-10 3.03029e-10 2.99147e-10 2.97589e-10 2.93323e-10 2.90814e-10 2.88478e-10 2.77865e-10 2.81883e-10 2.76086e-10 2.68841e-10 2.63654e-10 3.19821e-10 2.48917e-10 2.4323e-10 2.42224e-10 2.53177e-10 2.37161e-10 2.30725e-10 2.29875e-10 4.12406e-10 3.47248e-10 2.17142e-10 3.75248e-10 2.12822e-10 2.49344e-10 2.0799e-10 2.36406e-10 2.14474e-10 1.96678e-10 1.94929e-10 1.93383e-10 1.90923e-10 1.90044e-10 1.88152e-10 2.74891e-10 1.88152e-10 3.64494e-10 1.87462e-10 1.77367e-10 1.75607e-10 1.77443e-10 1.7522e-10 1.65564e-10 1.65144e-10 1.77384e-10 1.58103e-10 1.46951e-10 1.45437e-10 1.36495e-10 1.30534e-10 1.41746e-10 1.28082e-10 1.61199e-10 1.2719e-10 1.25294e-10 1.25267e-10 1.19424e-10 1.19101e-10 1.18365e-10 1.17899e-10 1.16749e-10 1.11072e-10 1.17112e-10 1.10163e-10 1.09715e-10 1.08543e-10 1.08252e-10 1.06663e-10 1.60947e-10 1.0499e-10 1.0251e-10 1.51489e-10 1.76578e-10 9.8229e-11 1.42132e-10 9.81384e-11 9.26743e-11 9.22373e-11 9.01323e-11 8.85763e-11 8.79155e-11 1.63267e-10 8.84164e-11 7.95239e-11 7.89413e-11 7.79288e-11 9.41469e-11 1.48869e-10 9.34079e-11 7.41665e-11 7.20428e-11 6.90763e-11 6.85967e-11 6.4424e-11 6.42757e-11 6.38494e-11 6.11067e-11 6.05702e-11 5.83782e-11 5.86908e-11 5.44542e-11 5.32623e-11 5.14433e-11 5.96927e-11 1.68987e-10 5.08429e-11 4.86011e-11 4.8459e-11 5.13491e-11 4.83142e-11 4.82885e-11 9.60476e-11 5.5568e-11 4.7379e-11 4.47713e-11 7.99645e-11 4.52332e-11 4.45191e-11 6.34932e-11 4.28653e-11 4.26752e-11 5.33129e-11 4.24834e-11 4.94254e-11 4.17693e-11 4.09939e-11 4.00675e-11 3.90905e-11 3.76765e-11 3.67244e-11 3.6593e-11 3.40847e-11 3.31077e-11 3.25295e-11 3.18705e-11 3.07203e-11 3.02762e-11 2.87939e-11 2.87343e-11 2.8491e-11 3.00533e-11 2.78533e-11 4.86544e-11 2.75762e-11 2.66311e-11 2.67448e-11 2.66276e-11 3.14664e-11 2.65672e-11 2.64606e-11 6.20268e-11 3.01767e-11 2.64571e-11 2.62119e-11 3.45182e-11 2.45564e-11 4.23688e-11 2.3185e-11 2.28511e-11 1.01245e-10 2.26947e-11 2.24123e-11 5.26938e-11 2.13127e-11 2.0834e-11 2.0556e-11 1.97105e-11 2.78177e-11 1.92273e-11 1.89573e-11 1.72733e-11 1.82538e-11 1.57474e-11 1.5465e-11 1.5409e-11 1.52909e-11 4.17657e-11 1.5036e-11 1.5028e-11 1.47438e-11 1.3582e-11 1.88098e-11 1.31042e-11 1.2772e-11 1.22213e-11 2.78337e-11 1.21574e-11 1.92255e-11 2.36335e-11 1.21378e-11 1.20242e-11 1.12976e-11 1.1191e-11 1.11697e-11 1.04805e-11 9.98313e-12 9.56035e-12 9.30811e-12 9.166e-12 9.15801e-12 8.84626e-12 8.44835e-12 1.20934e-11 1.59668e-11 8.37019e-12 1.32383e-11 8.19256e-12 7.76268e-12 6.64002e-12 6.48015e-12 9.52571e-12 6.27409e-12 5.9508e-12 1.20695e-11 5.77671e-12 5.7625e-12 5.61329e-12 5.42855e-12 5.11413e-12 4.54747e-12 4.54037e-12 4.39027e-12 4.2526e-12 3.89022e-12 4.39471e-12 3.79785e-12 3.75167e-12 1.95755e-11 3.03952e-11 3.69482e-12 3.35376e-12 3.11573e-12 8.29203e-12 2.74269e-12 5.44631e-12 9.28768e-12 2.58282e-12 2.57216e-12 2.45937e-12 2.30926e-12 2.13163e-12 1.89715e-12 1.99663e-12 1.59162e-12 6.48015e-12 3.39639e-12 1.51346e-12 1.10401e-12 1.08535e-12 9.13047e-13 8.76632e-13 7.95808e-13 7.78044e-13 7.70939e-13 7.56728e-13 7.0699e-13 6.99885e-13 6.92779e-13 6.75016e-13 6.386e-13 5.96856e-13 2.05524e-12 5.64881e-13 5.11591e-13 5.10703e-13 4.98268e-13 4.80505e-13 4.49418e-13 3.42837e-13 2.64677e-13 2.84217e-14 1.42109e-14 7.10543e-15 7.10543e-15 3.55271e-15 3.55271e-15 3.55271e-15 3.55271e-15 3.55271e-15 3.55271e-15 3.55271e-15 3.55271e-15 3.55271e-15 3.55271e-15 3.55271e-15 3.55271e-15 3.55271e-15 1.77636e-15 1.77636e-15 1.77636e-15 1.77636e-15 1.77636e-15 1.77636e-15 1.77636e-15 1.77636e-15 1.77636e-15 1.77636e-15 1.77636e-15 1.77636e-15 8.88178e-16 8.88178e-16 8.88178e-16 8.88178e-16 8.88178e-16 8.88178e-16 8.88178e-16 8.88178e-16 8.88178e-16 8.88178e-16 8.88178e-16 8.88178e-16 8.88178e-16 8.88178e-16
