tree
version=v4
num_class=1
num_tree_per_iteration=1
label_index=0
max_feature_idx=609
objective=binary sigmoid:1
feature_names=active_quarter active_quarter_lag_0 cliente_vip cliente_vip_lag_1 internet internet_lag_2 cliente_edad cliente_edad_lag_3 cliente_antiguedad cliente_antiguedad_lag_4 mrentabilidad mrentabilidad_lag_5 mrentabilidad_annual mrentabilidad_annual_lag_6 mcomisiones mcomisiones_lag_7 mactivos_margen mactivos_margen_lag_8 mpasivos_margen mpasivos_margen_lag_9 cproductos cproductos_lag_10 tcuentas tcuentas_lag_11 ccuenta_corriente ccuenta_corriente_lag_12 mcuenta_corriente_adicional mcuenta_corriente_adicional_lag_13 mcuenta_corriente mcuenta_corriente_lag_14 ccaja_ahorro ccaja_ahorro_lag_15 mcaja_ahorro mcaja_ahorro_lag_16 mcaja_ahorro_adicional mcaja_ahorro_adicional_lag_17 mcaja_ahorro_dolares mcaja_ahorro_dolares_lag_18 cdescubierto_preacordado cdescubierto_preacordado_lag_19 mcuentas_saldo mcuentas_saldo_lag_20 ctarjeta_debito ctarjeta_debito_lag_21 ctarjeta_debito_transacciones ctarjeta_debito_transacciones_lag_22 mautoservicio mautoservicio_lag_23 ctarjeta_visa ctarjeta_visa_lag_24 ctarjeta_visa_transacciones ctarjeta_visa_transacciones_lag_25 mtarjeta_visa_consumo mtarjeta_visa_consumo_lag_26 ctarjeta_master ctarjeta_master_lag_27 ctarjeta_master_transacciones ctarjeta_master_transacciones_lag_28 mtarjeta_master_consumo mtarjeta_master_consumo_lag_29 cprestamos_personales cprestamos_personales_lag_30 mprestamos_personales mprestamos_personales_lag_31 cprestamos_prendarios cprestamos_prendarios_lag_32 mprestamos_prendarios mprestamos_prendarios_lag_33 cprestamos_hipotecarios cprestamos_hipotecarios_lag_34 mprestamos_hipotecarios mprestamos_hipotecarios_lag_35 cplazo_fijo cplazo_fijo_lag_36 mplazo_fijo_dolares mplazo_fijo_dolares_lag_37 mplazo_fijo_pesos mplazo_fijo_pesos_lag_38 cinversion1 cinversion1_lag_39 minversion1_pesos minversion1_pesos_lag_40 minversion1_dolares minversion1_dolares_lag_41 cinversion2 cinversion2_lag_42 minversion2 minversion2_lag_43 cseguro_vida cseguro_vida_lag_44 cseguro_auto cseguro_auto_lag_45 cseguro_vivienda cseguro_vivienda_lag_46 cseguro_accidentes_personales cseguro_accidentes_personales_lag_47 ccaja_seguridad ccaja_seguridad_lag_48 cpayroll_trx cpayroll_trx_lag_49 mpayroll mpayroll_lag_50 mpayroll2 mpayroll2_lag_51 cpayroll2_trx cpayroll2_trx_lag_52 ccuenta_debitos_automaticos ccuenta_debitos_automaticos_lag_53 mcuenta_debitos_automaticos mcuenta_debitos_automaticos_lag_54 ctarjeta_visa_debitos_automaticos ctarjeta_visa_debitos_automaticos_lag_55 mttarjeta_visa_debitos_automaticos mttarjeta_visa_debitos_automaticos_lag_56 ctarjeta_master_debitos_automaticos ctarjeta_master_debitos_automaticos_lag_57 mttarjeta_master_debitos_automaticos mttarjeta_master_debitos_automaticos_lag_58 cpagodeservicios cpagodeservicios_lag_59 mpagodeservicios mpagodeservicios_lag_60 cpagomiscuentas cpagomiscuentas_lag_61 mpagomiscuentas mpagomiscuentas_lag_62 ccajeros_propios_descuentos ccajeros_propios_descuentos_lag_63 mcajeros_propios_descuentos mcajeros_propios_descuentos_lag_64 ctarjeta_visa_descuentos ctarjeta_visa_descuentos_lag_65 mtarjeta_visa_descuentos mtarjeta_visa_descuentos_lag_66 ctarjeta_master_descuentos ctarjeta_master_descuentos_lag_67 mtarjeta_master_descuentos mtarjeta_master_descuentos_lag_68 ccomisiones_mantenimiento ccomisiones_mantenimiento_lag_69 mcomisiones_mantenimiento mcomisiones_mantenimiento_lag_70 ccomisiones_otras ccomisiones_otras_lag_71 mcomisiones_otras mcomisiones_otras_lag_72 cforex cforex_lag_73 cforex_buy cforex_buy_lag_74 mforex_buy mforex_buy_lag_75 cforex_sell cforex_sell_lag_76 mforex_sell mforex_sell_lag_77 ctransferencias_recibidas ctransferencias_recibidas_lag_78 mtransferencias_recibidas mtransferencias_recibidas_lag_79 ctransferencias_emitidas ctransferencias_emitidas_lag_80 mtransferencias_emitidas mtransferencias_emitidas_lag_81 cextraccion_autoservicio cextraccion_autoservicio_lag_82 mextraccion_autoservicio mextraccion_autoservicio_lag_83 ccheques_depositados ccheques_depositados_lag_84 mcheques_depositados mcheques_depositados_lag_85 ccheques_emitidos ccheques_emitidos_lag_86 mcheques_emitidos mcheques_emitidos_lag_87 ccheques_depositados_rechazados ccheques_depositados_rechazados_lag_88 mcheques_depositados_rechazados mcheques_depositados_rechazados_lag_89 ccheques_emitidos_rechazados ccheques_emitidos_rechazados_lag_90 mcheques_emitidos_rechazados mcheques_emitidos_rechazados_lag_91 tcallcenter tcallcenter_lag_92 ccallcenter_transacciones ccallcenter_transacciones_lag_93 thomebanking thomebanking_lag_94 chomebanking_transacciones chomebanking_transacciones_lag_95 ccajas_transacciones ccajas_transacciones_lag_96 ccajas_consultas ccajas_consultas_lag_97 ccajas_depositos ccajas_depositos_lag_98 ccajas_extracciones ccajas_extracciones_lag_99 ccajas_otras ccajas_otras_lag_100 catm_trx catm_trx_lag_101 matm matm_lag_102 catm_trx_other catm_trx_other_lag_103 matm_other matm_other_lag_104 ctrx_quarter ctrx_quarter_lag_105 tmobile_app tmobile_app_lag_106 cmobile_app_trx cmobile_app_trx_lag_107 Master_delinquency Master_delinquency_lag_108 Master_status Master_status_lag_109 Master_mfinanciacion_limite Master_mfinanciacion_limite_lag_110 Master_Fvencimiento Master_Fvencimiento_lag_111 Master_Finiciomora Master_Finiciomora_lag_112 Master_msaldototal Master_msaldototal_lag_113 Master_msaldopesos Master_msaldopesos_lag_114 Master_msaldodolares Master_msaldodolares_lag_115 Master_mconsumospesos Master_mconsumospesos_lag_116 Master_mconsumosdolares Master_mconsumosdolares_lag_117 Master_mlimitecompra Master_mlimitecompra_lag_118 Master_madelantopesos Master_madelantopesos_lag_119 Master_madelantodolares Master_madelantodolares_lag_120 Master_fultimo_cierre Master_fultimo_cierre_lag_121 Master_mpagado Master_mpagado_lag_122 Master_mpagospesos Master_mpagospesos_lag_123 Master_mpagosdolares Master_mpagosdolares_lag_124 Master_fechaalta Master_fechaalta_lag_125 Master_mconsumototal Master_mconsumototal_lag_126 Master_cconsumos Master_cconsumos_lag_127 Master_cadelantosefectivo Master_cadelantosefectivo_lag_128 Master_mpagominimo Master_mpagominimo_lag_129 Visa_delinquency Visa_delinquency_lag_130 Visa_status Visa_status_lag_131 Visa_mfinanciacion_limite Visa_mfinanciacion_limite_lag_132 Visa_Fvencimiento Visa_Fvencimiento_lag_133 Visa_Finiciomora Visa_Finiciomora_lag_134 Visa_msaldototal Visa_msaldototal_lag_135 Visa_msaldopesos Visa_msaldopesos_lag_136 Visa_msaldodolares Visa_msaldodolares_lag_137 Visa_mconsumospesos Visa_mconsumospesos_lag_138 Visa_mconsumosdolares Visa_mconsumosdolares_lag_139 Visa_mlimitecompra Visa_mlimitecompra_lag_140 Visa_madelantopesos Visa_madelantopesos_lag_141 Visa_madelantodolares Visa_madelantodolares_lag_142 Visa_fultimo_cierre Visa_fultimo_cierre_lag_143 Visa_mpagado Visa_mpagado_lag_144 Visa_mpagospesos Visa_mpagospesos_lag_145 Visa_mpagosdolares Visa_mpagosdolares_lag_146 Visa_fechaalta Visa_fechaalta_lag_147 Visa_mconsumototal Visa_mconsumototal_lag_148 Visa_cconsumos Visa_cconsumos_lag_149 Visa_cadelantosefectivo Visa_cadelantosefectivo_lag_150 Visa_mpagominimo Visa_mpagominimo_lag_151 numero_de_cliente foto_mes active_quarter_1 cliente_vip_1 internet_1 cliente_edad_1 cliente_antiguedad_1 mrentabilidad_1 mrentabilidad_annual_1 mcomisiones_1 mactivos_margen_1 mpasivos_margen_1 cproductos_1 tcuentas_1 ccuenta_corriente_1 mcuenta_corriente_adicional_1 mcuenta_corriente_1 ccaja_ahorro_1 mcaja_ahorro_1 mcaja_ahorro_adicional_1 mcaja_ahorro_dolares_1 cdescubierto_preacordado_1 mcuentas_saldo_1 ctarjeta_debito_1 ctarjeta_debito_transacciones_1 mautoservicio_1 ctarjeta_visa_1 ctarjeta_visa_transacciones_1 mtarjeta_visa_consumo_1 ctarjeta_master_1 ctarjeta_master_transacciones_1 mtarjeta_master_consumo_1 cprestamos_personales_1 mprestamos_personales_1 cprestamos_prendarios_1 mprestamos_prendarios_1 cprestamos_hipotecarios_1 mprestamos_hipotecarios_1 cplazo_fijo_1 mplazo_fijo_dolares_1 mplazo_fijo_pesos_1 cinversion1_1 minversion1_pesos_1 minversion1_dolares_1 cinversion2_1 minversion2_1 cseguro_vida_1 cseguro_auto_1 cseguro_vivienda_1 cseguro_accidentes_personales_1 ccaja_seguridad_1 cpayroll_trx_1 mpayroll_1 mpayroll2_1 cpayroll2_trx_1 ccuenta_debitos_automaticos_1 mcuenta_debitos_automaticos_1 ctarjeta_visa_debitos_automaticos_1 mttarjeta_visa_debitos_automaticos_1 ctarjeta_master_debitos_automaticos_1 mttarjeta_master_debitos_automaticos_1 cpagodeservicios_1 mpagodeservicios_1 cpagomiscuentas_1 mpagomiscuentas_1 ccajeros_propios_descuentos_1 mcajeros_propios_descuentos_1 ctarjeta_visa_descuentos_1 mtarjeta_visa_descuentos_1 ctarjeta_master_descuentos_1 mtarjeta_master_descuentos_1 ccomisiones_mantenimiento_1 mcomisiones_mantenimiento_1 ccomisiones_otras_1 mcomisiones_otras_1 cforex_1 cforex_buy_1 mforex_buy_1 cforex_sell_1 mforex_sell_1 ctransferencias_recibidas_1 mtransferencias_recibidas_1 ctransferencias_emitidas_1 mtransferencias_emitidas_1 cextraccion_autoservicio_1 mextraccion_autoservicio_1 ccheques_depositados_1 mcheques_depositados_1 ccheques_emitidos_1 mcheques_emitidos_1 ccheques_depositados_rechazados_1 mcheques_depositados_rechazados_1 ccheques_emitidos_rechazados_1 mcheques_emitidos_rechazados_1 tcallcenter_1 ccallcenter_transacciones_1 thomebanking_1 chomebanking_transacciones_1 ccajas_transacciones_1 ccajas_consultas_1 ccajas_depositos_1 ccajas_extracciones_1 ccajas_otras_1 catm_trx_1 matm_1 catm_trx_other_1 matm_other_1 ctrx_quarter_1 tmobile_app_1 cmobile_app_trx_1 Master_delinquency_1 Master_status_1 Master_mfinanciacion_limite_1 Master_Fvencimiento_1 Master_Finiciomora_1 Master_msaldototal_1 Master_msaldopesos_1 Master_msaldodolares_1 Master_mconsumospesos_1 Master_mconsumosdolares_1 Master_mlimitecompra_1 Master_madelantopesos_1 Master_madelantodolares_1 Master_fultimo_cierre_1 Master_mpagado_1 Master_mpagospesos_1 Master_mpagosdolares_1 Master_fechaalta_1 Master_mconsumototal_1 Master_cconsumos_1 Master_cadelantosefectivo_1 Master_mpagominimo_1 Visa_delinquency_1 Visa_status_1 Visa_mfinanciacion_limite_1 Visa_Fvencimiento_1 Visa_Finiciomora_1 Visa_msaldototal_1 Visa_msaldopesos_1 Visa_msaldodolares_1 Visa_mconsumospesos_1 Visa_mconsumosdolares_1 Visa_mlimitecompra_1 Visa_madelantopesos_1 Visa_madelantodolares_1 Visa_fultimo_cierre_1 Visa_mpagado_1 Visa_mpagospesos_1 Visa_mpagosdolares_1 Visa_fechaalta_1 Visa_mconsumototal_1 Visa_cconsumos_1 Visa_cadelantosefectivo_1 Visa_mpagominimo_1 delta_active_quarter_1 delta_cliente_vip_1 delta_internet_1 delta_cliente_edad_1 delta_cliente_antiguedad_1 delta_mrentabilidad_1 delta_mrentabilidad_annual_1 delta_mcomisiones_1 delta_mactivos_margen_1 delta_mpasivos_margen_1 delta_cproductos_1 delta_tcuentas_1 delta_ccuenta_corriente_1 delta_mcuenta_corriente_adicional_1 delta_mcuenta_corriente_1 delta_ccaja_ahorro_1 delta_mcaja_ahorro_1 delta_mcaja_ahorro_adicional_1 delta_mcaja_ahorro_dolares_1 delta_cdescubierto_preacordado_1 delta_mcuentas_saldo_1 delta_ctarjeta_debito_1 delta_ctarjeta_debito_transacciones_1 delta_mautoservicio_1 delta_ctarjeta_visa_1 delta_ctarjeta_visa_transacciones_1 delta_mtarjeta_visa_consumo_1 delta_ctarjeta_master_1 delta_ctarjeta_master_transacciones_1 delta_mtarjeta_master_consumo_1 delta_cprestamos_personales_1 delta_mprestamos_personales_1 delta_cprestamos_prendarios_1 delta_mprestamos_prendarios_1 delta_cprestamos_hipotecarios_1 delta_mprestamos_hipotecarios_1 delta_cplazo_fijo_1 delta_mplazo_fijo_dolares_1 delta_mplazo_fijo_pesos_1 delta_cinversion1_1 delta_minversion1_pesos_1 delta_minversion1_dolares_1 delta_cinversion2_1 delta_minversion2_1 delta_cseguro_vida_1 delta_cseguro_auto_1 delta_cseguro_vivienda_1 delta_cseguro_accidentes_personales_1 delta_ccaja_seguridad_1 delta_cpayroll_trx_1 delta_mpayroll_1 delta_mpayroll2_1 delta_cpayroll2_trx_1 delta_ccuenta_debitos_automaticos_1 delta_mcuenta_debitos_automaticos_1 delta_ctarjeta_visa_debitos_automaticos_1 delta_mttarjeta_visa_debitos_automaticos_1 delta_ctarjeta_master_debitos_automaticos_1 delta_mttarjeta_master_debitos_automaticos_1 delta_cpagodeservicios_1 delta_mpagodeservicios_1 delta_cpagomiscuentas_1 delta_mpagomiscuentas_1 delta_ccajeros_propios_descuentos_1 delta_mcajeros_propios_descuentos_1 delta_ctarjeta_visa_descuentos_1 delta_mtarjeta_visa_descuentos_1 delta_ctarjeta_master_descuentos_1 delta_mtarjeta_master_descuentos_1 delta_ccomisiones_mantenimiento_1 delta_mcomisiones_mantenimiento_1 delta_ccomisiones_otras_1 delta_mcomisiones_otras_1 delta_cforex_1 delta_cforex_buy_1 delta_mforex_buy_1 delta_cforex_sell_1 delta_mforex_sell_1 delta_ctransferencias_recibidas_1 delta_mtransferencias_recibidas_1 delta_ctransferencias_emitidas_1 delta_mtransferencias_emitidas_1 delta_cextraccion_autoservicio_1 delta_mextraccion_autoservicio_1 delta_ccheques_depositados_1 delta_mcheques_depositados_1 delta_ccheques_emitidos_1 delta_mcheques_emitidos_1 delta_ccheques_depositados_rechazados_1 delta_mcheques_depositados_rechazados_1 delta_ccheques_emitidos_rechazados_1 delta_mcheques_emitidos_rechazados_1 delta_tcallcenter_1 delta_ccallcenter_transacciones_1 delta_thomebanking_1 delta_chomebanking_transacciones_1 delta_ccajas_transacciones_1 delta_ccajas_consultas_1 delta_ccajas_depositos_1 delta_ccajas_extracciones_1 delta_ccajas_otras_1 delta_catm_trx_1 delta_matm_1 delta_catm_trx_other_1 delta_matm_other_1 delta_ctrx_quarter_1 delta_tmobile_app_1 delta_cmobile_app_trx_1 delta_Master_delinquency_1 delta_Master_status_1 delta_Master_mfinanciacion_limite_1 delta_Master_Fvencimiento_1 delta_Master_Finiciomora_1 delta_Master_msaldototal_1 delta_Master_msaldopesos_1 delta_Master_msaldodolares_1 delta_Master_mconsumospesos_1 delta_Master_mconsumosdolares_1 delta_Master_mlimitecompra_1 delta_Master_madelantopesos_1 delta_Master_madelantodolares_1 delta_Master_fultimo_cierre_1 delta_Master_mpagado_1 delta_Master_mpagospesos_1 delta_Master_mpagosdolares_1 delta_Master_fechaalta_1 delta_Master_mconsumototal_1 delta_Master_cconsumos_1 delta_Master_cadelantosefectivo_1 delta_Master_mpagominimo_1 delta_Visa_delinquency_1 delta_Visa_status_1 delta_Visa_mfinanciacion_limite_1 delta_Visa_Fvencimiento_1 delta_Visa_Finiciomora_1 delta_Visa_msaldototal_1 delta_Visa_msaldopesos_1 delta_Visa_msaldodolares_1 delta_Visa_mconsumospesos_1 delta_Visa_mconsumosdolares_1 delta_Visa_mlimitecompra_1 delta_Visa_madelantopesos_1 delta_Visa_madelantodolares_1 delta_Visa_fultimo_cierre_1 delta_Visa_mpagado_1 delta_Visa_mpagospesos_1 delta_Visa_mpagosdolares_1 delta_Visa_fechaalta_1 delta_Visa_mconsumototal_1 delta_Visa_cconsumos_1 delta_Visa_cadelantosefectivo_1 delta_Visa_mpagominimo_1
feature_infos=[0:1] [0:1] [0:1] [0:1] [0:3] [0:3] [19:101] [0:0] [1:375] [0:0] [-625078.98999999999:1422599.8300000001] [0:0] [-5458566.3300000001:4724933.8799999999] [0:0] [-295966.15999999997:343691.62] [0:0] [-296451.62:396059.15999999997] [0:0] [-30222.669999999998:1210376.54] [0:0] [3:17] [0:0] [1:2] [0:0] [1:3] [0:0] [-18754.25:20657419.969999999] [0:0] [-2610299.1099999999:28663799.539999999] [0:0] [2:10] [0:0] [-4752.5299999999997:91384784.569999993] [0:0] [0:2010363.4399999999] [0:0] [-21005.5:142724206.71000001] [0:0] [0:1] [0:0] [-2610221.8100000001:143355449.65000001] [0:0] [0:114] [0:0] [0:151] [0:0] [0:645441.94999999995] [0:0] [0:3] [0:0] [0:373] [0:0] [0:2032684.48] [0:0] [0:3] [0:0] [0:334] [0:0] [0:2564181.1200000001] [0:0] [0:609] [0:0] [0:4404859.2699999996] [0:0] [0:23] [0:0] [0:17204182.640000001] [0:0] [0:13] [0:0] [0:20768481.649999999] [0:0] [0:120] [0:0] [0:60255779.869999997] [0:0] [0:39762353.350000001] [0:0] [0:16] [0:0] [0:180376921.74000001] [0:0] [0:59852711.590000004] [0:0] [0:52] [0:0] [0:252574446.31999999] [0:0] [0:3] [0:0] [0:5] [0:0] [0:7] [0:0] [0:2] [0:0] [0:6] [0:0] [0:93] [0:0] [0:26498152.109999999] [0:0] [0:440643.56] [0:0] [0:5] [0:0] [0:104] [0:0] [0:2406059.79] [0:0] [0:93] [0:0] [0:715814.13] [0:0] [0:31] [0:0] [0:645342.08999999997] [0:0] [0:30] [0:0] [0:8187540] [0:0] [0:123] [0:0] [0:20135497.68] [0:0] [0:17] [0:0] [0:7252.0699999999997] [0:0] [0:15] [0:0] [0:79578.979999999996] [0:0] [0:31] [0:0] [0:53235.940000000002] [0:0] [0:67] [0:0] [-9640.8799999999992:13647.190000000001] [0:0] [0:1643] [0:0] [-295966.15999999997:343691.62] [0:0] [0:15] [0:0] [0:15] [0:0] [0:56069.400000000001] [0:0] [0:8] [0:0] [0:19010.810000000001] [0:0] [0:624] [0:0] [0:312460278.16000003] [0:0] [0:223] [0:0] [0:69981177.849999994] [0:0] [0:123] [0:0] [0:2727225] [0:0] [0:225] [0:0] [0:30694717.690000001] [0:0] [0:147] [0:0] [0:31495050] [0:0] [0:16] [0:0] [0:3159976.1400000001] [0:0] [0:16] [0:0] [0:3167100] [0:0] [0:1] [0:0] [0:99] [0:0] [0:1] [0:0] [0:4019] [0:0] [0:1] [0:0] [0:35] [0:0] [0:28] [0:0] [0:16] [0:0] [0:155] [0:0] [0:118] [0:0] [0:2727225] [0:0] [0:81] [0:0] [0:387090] [0:0] [0:2702] [0:0] [0:1] [0:0] [0:1] [0:0] [0:1] [0:0] [0:9] [0:0] [0:89947191.870000005] [0:0] [-2914209:5084] [0:0] [-1:169] [0:0] [-853697.89000000001:10124981.02] [0:0] [-853697.89000000001:7742312.3399999999] [0:0] [-761894.03000000003:2474581.5800000001] [0:0] [-53235.940000000002:2550252.1000000001] [0:0] [0:27707.549999999999] [0:0] [985.32000000000005:9063466.0199999996] [0:0] [0:17595] [0:0] [0:108] [0:0] [-3:126] [0:0] [0:1228193.5] [0:0] [-2019260.8500000001:2029290] [0:0] [0:18591.740000000002] [0:0] [1:7602] [0:0] [-53235.940000000002:2550252.1000000001] [0:0] [0:180] [0:0] [0:15] [0:0] [0:6994634.1900000004] [0:0] [0:1] [0:0] [0:9] [0:0] [0:109344135.72] [0:0] [-2914209:5054] [0:0] [0:178] [0:0] [-756698.06999999995:2860856.3199999998] [0:0] [-543931.06999999995:3354720.1099999999] [0:0] [-730281.20999999996:711538.18000000005] [0:0] [-61868.209999999999:2026644.3999999999] [0:0] [0:7629.4300000000003] [0:0] [1011.71:12633210] [0:0] [0:131376] [0:0] [0:1190.5899999999999] [0:0] [-3:133] [0:0] [0:1390235.6200000001] [0:0] [-2268723.1400000001:48060.610000000001] [0:0] [0:11274.809999999999] [0:0] [1:12608] [0:0] [-61868.209999999999:2026644.3999999999] [0:0] [0:199] [0:0] [0:19] [0:0] [0:2199058.29] [0:0] [249221323:1589611354] [202102:202103] [0:1] [0:1] [0:3] [19:101] [1:375] [-625078.98999999999:1422599.8300000001] [-5458566.3300000001:4724933.8799999999] [-295966.15999999997:343691.62] [-296451.62:396059.15999999997] [-30222.669999999998:1210376.54] [3:17] [1:2] [1:3] [-18754.25:20657419.969999999] [-2610299.1099999999:28663799.539999999] [2:10] [-4752.5299999999997:91384784.569999993] [0:2010363.4399999999] [-21005.5:142724206.71000001] [0:1] [-2610221.8100000001:143355449.65000001] [0:114] [0:151] [0:645441.94999999995] [0:3] [0:373] [0:2032684.48] [0:3] [0:334] [0:2564181.1200000001] [0:609] [0:4404859.2699999996] [0:23] [0:17204182.640000001] [0:13] [0:20768481.649999999] [0:120] [0:60255779.869999997] [0:39762353.350000001] [0:16] [0:180376921.74000001] [0:59852711.590000004] [0:52] [0:252574446.31999999] [0:3] [0:5] [0:7] [0:2] [0:6] [0:93] [0:26498152.109999999] [0:440643.56] [0:5] [0:104] [0:2406059.79] [0:93] [0:715814.13] [0:31] [0:645342.08999999997] [0:30] [0:8187540] [0:123] [0:20135497.68] [0:17] [0:7252.0699999999997] [0:15] [0:79578.979999999996] [0:31] [0:53235.940000000002] [0:67] [-9640.8799999999992:13647.190000000001] [0:1643] [-295966.15999999997:343691.62] [0:15] [0:15] [0:56069.400000000001] [0:8] [0:19010.810000000001] [0:624] [0:312460278.16000003] [0:223] [0:69981177.849999994] [0:123] [0:2727225] [0:225] [0:30694717.690000001] [0:147] [0:31495050] [0:16] [0:3159976.1400000001] [0:16] [0:3167100] [0:1] [0:99] [0:1] [0:4019] [0:1] [0:35] [0:28] [0:16] [0:155] [0:118] [0:2727225] [0:81] [0:387090] [0:2702] [0:1] [0:1] [0:1] [0:9] [0:89947191.870000005] [-2914209:5084] [-1:169] [-853697.89000000001:10124981.02] [-853697.89000000001:7742312.3399999999] [-761894.03000000003:2474581.5800000001] [-53235.940000000002:2550252.1000000001] [0:27707.549999999999] [985.32000000000005:9063466.0199999996] [0:17595] [0:108] [-3:126] [0:1228193.5] [-2019260.8500000001:2029290] [0:18591.740000000002] [1:7602] [-53235.940000000002:2550252.1000000001] [0:180] [0:15] [0:6994634.1900000004] [0:1] [0:9] [0:109344135.72] [-2914209:5054] [0:178] [-756698.06999999995:2860856.3199999998] [-543931.06999999995:3354720.1099999999] [-730281.20999999996:711538.18000000005] [-61868.209999999999:2026644.3999999999] [0:7629.4300000000003] [1011.71:12633210] [0:131376] [0:1190.5899999999999] [-3:133] [0:1390235.6200000001] [-2268723.1400000001:48060.610000000001] [0:11274.809999999999] [1:12608] [-61868.209999999999:2026644.3999999999] [0:199] [0:19] [0:2199058.29] [-1:1] [-1:1] [-3:3] [-3:14] [-71:2] [-525218.4800000001:1108649.9500000002] [-662790.93999999948:1423678.1399999999] [-339953.38:339022.19] [-305678.03000000003:405152.26999999996] [-449581.48999999999:944122.84000000008] [-6:5] [-1:1] [0:0] [-1599165.3299999998:5523550.2199999988] [-11071866.360000001:3528232] [-4:6] [-36555680.489999995:72331985.199999988] [-2044166.6500000001:551928.59999999998] [-22148578.650000002:35561396.099999994] [-1:1] [-72610611.030000001:36917834.410000004] [-4:3] [-147:111] [-388499.10999999999:460122.47999999998] [-2:1] [-371:292] [-3037926.9899999998:1996396.3699999999] [-1:1] [-218:201] [-1460110.6100000001:2003313.0600000001] [-102:62] [-1473499.8999999999:2354207.8500000001] [-3:3] [-1692021.55:5851180.8100000005] [-4:3] [-4767093.5300000003:871645.95000000112] [-28:41] [-35190000:60255779.869999997] [-19285040.739999998:20317269.66] [-5:7] [-32874362.359999999:180376921.74000001] [-3295541.7200000002:3682717.700000003] [-11:20] [-24301045.280000001:31018992.969999999] [-2:1] [-2:2] [-2:2] [-1:1] [-2:1] [-50:93] [-31844089.050000001:25170617.579999998] [-2647948.96:362175.47999999998] [-3:2] [-135:103] [-4414529.5599999996:2406059.79] [-30:28] [-321227.90000000002:654359.73999999999] [-14:12] [-616191.64000000001:180520.19] [-22:14] [-5311517.4199999999:5354745] [-100:52] [-24705483.530000001:18822460.149999999] [-14:17] [-19095.849999999999:7252.0699999999997] [-18:15] [-38256.43:79578.979999999996] [-29:31] [-72654.949999999997:53235.940000000002] [-45:66] [-11569.049999999999:13130.790000000001] [-183:214] [-339953.38:339022.19] [-8:7] [-8:7] [-3519:56069.400000000001] [-5:7] [-1537:19010.810000000001] [-136:180] [-214182231.89000002:178427022.77000001] [-76:104] [-30346683:56016384.059999995] [-80:95] [-2023425:1023646.6] [-61:114] [-22287003.5:21294054.140000001] [-46:56] [-8498116.3999999985:27485813.420000002] [-5:15] [-2189345.3900000001:3159976.1400000001] [-8:14] [-3519000:3167100] [-1:1] [-77:70] [-1:1] [-1998:2035] [-1:1] [-22:32] [-9:11] [-10:10] [-155:149] [-80:95] [-2023425:1023646.6] [-35:58] [-496800.03999999998:351900] [-506:423] [-1:1] [-1:1] [-1:1] [-9:9] [-201323086.24000001:88984768.850000009] [-2163:59] [-35:31] [-1869076.05:4431409.5] [-1116638.1600000001:4523322.4000000004] [-1674280.9299999999:1935599.8999999999] [-1413693.3500000001:2016797.48] [-18437.690000000002:21599.860000000001] [-3448863.8700000001:1423048.4099999997] [-17595:17595] [-189:0] [-28:31] [-1228193.5:1228193.5] [-1510101.6500000001:3483903.52] [-13849.809999999999:18591.740000000002] [-2181:59] [-1413693.3500000001:2016797.48] [-72:133] [-10:8] [-1056063.6299999999:4367419.1699999999] [-1:1] [-9:9] [-201323086.24000001:108730809.92999999] [-2912412:2912992] [-35:31] [-1947130.2300000002:1719179.27] [-2283983.7599999998:2016597.29] [-898618.94999999995:655286.84999999998] [-2021572.5999999999:1997730.6599999999] [-10527.91:6765.5399999999991] [-3347190.1000000001:3552782.3999999999] [-98950.350000000006:107916] [-1190.6000000000001:479.14999999999998] [-28:31] [-2083795.54:1138040.6200000001] [-1628671.3500000001:3230127.3100000001] [-11500.85:10754.01] [-2181:7943] [-2021572.5999999999:1997730.6599999999] [-96:115] [-9:16] [-2213432.23:842272.65000000002]
tree_sizes=60677 130076 148317 148332 151134 151060 154239 152436 152573 153075 152180 154629 153482 153712 153748 154045 153672 154010 155464 153667 154444 152763 153441 153495

Tree=0
num_leaves=565
num_cat=0
split_feature=210 326 62 38 437 210 28 326 306 18 527 62 62 38 8 527 270 100 100 52 270 550 415 4 18 270 100 62 527 464 326 8 527 18 210 270 220 210 553 400 210 302 581 52 553 294 138 294 294 214 242 10 264 326 210 228 467 377 18 18 553 266 571 478 326 464 266 220 368 144 294 266 28 8 50 467 28 270 468 122 264 596 228 294 266 528 276 464 228 266 18 220 464 530 220 326 220 326 8 326 110 302 8 220 266 596 228 528 210 326 302 464 596 329 605 514 210 220 294 553 495 158 62 464 472 596 478 28 10 464 585 270 309 450 18 430 266 10 472 18 220 309 472 220 144 530 309 590 528 8 100 270 302 478 266 302 377 514 581 144 530 60 593 478 540 260 62 10 158 8 400 604 220 368 144 214 210 18 530 377 242 264 270 429 377 389 144 540 350 10 478 553 464 309 376 210 400 467 530 529 313 242 100 309 228 309 478 266 18 266 8 5 467 472 467 309 264 158 10 553 110 50 553 386 52 329 478 276 18 596 158 266 478 50 302 472 110 294 389 18 368 514 596 18 266 309 286 550 18 266 464 561 294 294 266 236 8 220 478 429 487 464 8 472 309 368 326 309 276 266 529 553 309 596 50 100 210 4 18 10 571 302 220 50 106 186 372 220 327 478 242 50 553 18 596 478 377 232 122 514 516 156 451 28 264 596 18 464 553 294 56 478 28 260 50 8 326 596 516 472 294 10 270 313 154 309 154 100 10 309 28 478 412 158 210 467 158 514 445 464 327 294 326 294 562 302 467 596 513 368 329 514 429 540 464 266 10 329 389 574 550 596 451 300 62 10 220 156 528 220 377 389 553 204 514 294 50 266 478 593 423 530 529 236 192 514 158 574 294 8 329 591 429 106 574 242 100 110 220 450 464 593 553 8 236 326 202 52 228 571 464 122 602 388 327 202 309 10 10 430 478 266 604 412 534 270 604 429 452 369 472 144 514 300 593 62 472 302 266 464 513 286 529 519 329 327 602 50 596 514 535 574 581 507 8 557 326 10 220 60 276 326 309 302 270 144 386 565 499 423 495 204 596 593 561 557 8 550 329 515 28 5 8 28 3 4 10 10 56 110 232 8 8 5 8 8 8 8 8 10 28 232 276 445 467 5 5 8 8 10 10 10 144 232 232 232 232 232 232 429 5 5 8 8 8 8 10 28 28 28 50 50 52 144 158 158 158 220 232 232 530 5 5 5 8 8 8 8 8 8 8 10 10 18 52 58 58 110 122 158 204 228 294 472
split_gain=12040.7 4201.77 3917.09 2619.65 2006.92 1828.19 1078.61 848.631 843.9 654.32 511.411 412.619 398.087 669.34 386.717 346.644 321.89 307.493 292.805 292.486 288.271 257.955 229.404 456.615 216.222 215.854 292.628 195.476 195.304 191.369 175.901 169.099 158.176 155.622 143.474 129.707 125.085 123.421 118.746 116.66 110.213 108.373 104.59 104.5 114.009 95.0261 85.1958 84.694 112.092 80.2774 138.773 78.2218 109.472 76.2342 72.5771 101.498 72.5671 70.1143 61.5948 61.2617 58.2899 55.3612 52.9498 51.9694 51.9432 51.8938 51.6838 50.6805 50.1803 49.8662 48.7979 48.957 47.4749 46.7962 44.6564 43.4578 42.2703 43.9169 38.6148 36.9057 62.98 38.0538 35.6419 35.3488 60.5525 34.3852 33.3603 33.2384 36.299 33.3245 31.2992 33.3473 30.2153 30.1693 29.9501 29.3945 29.1034 29.0962 29.0783 28.2496 30.1392 27.9702 27.8853 27.0003 30.8998 26.9768 26.3558 28.191 46.4742 25.8688 32.1561 23.0758 38.7457 22.5533 22.1149 22.0791 21.861 21.8069 21.3187 21.1365 20.7098 20.5811 20.4208 20.416 20.3074 20.1384 21.1281 20.0612 27.1419 63.5464 43.6022 16.3618 16.2173 15.9985 32.1011 14.9513 14.9361 23.5235 22.5657 15.3147 14.7859 14.5752 14.5494 13.9728 13.9571 13.5438 17.6036 14.6854 13.4336 13.3277 13.3192 17.0094 30.8202 24.2327 12.788 12.7705 12.7204 12.1247 12.1094 11.7121 11.6407 11.4116 11.1691 10.6768 10.6113 10.6037 16.6891 20.1784 10.0228 10.4526 14.2502 9.87729 9.75565 15.0938 15.4807 13.2435 8.9072 8.56342 13.9302 8.43376 14.2394 15.3482 8.74841 8.19082 8.09311 8.08256 9.38239 13.3733 8.38239 8.06863 7.90418 7.81339 11.2882 7.74757 7.67962 7.52631 8.19812 7.49927 13.6546 7.47362 7.43546 8.13623 7.19416 9.80478 13.5661 7.16843 6.77332 8.32423 6.72444 6.64164 8.7944 6.41386 6.35089 6.20349 6.19271 8.13673 5.91168 5.85022 5.8197 5.75117 5.74661 5.68607 5.65936 5.58155 5.56799 5.56674 5.50614 5.4578 6.2168 9.73222 5.37358 6.85554 6.3535 14.7833 7.32265 5.3703 8.43671 18.1248 18.4153 17.6206 5.4052 5.33668 6.05027 7.93356 13.3674 5.32725 5.19802 4.86553 12.2754 5.2233 8.72938 4.82991 4.73319 6.52594 4.71108 4.67062 4.58657 13.016 4.5794 4.4255 9.73231 4.30075 4.17497 4.82966 4.12447 8.94421 4.07675 4.34756 3.89193 3.81927 3.81112 4.54747 3.78979 3.75599 3.62563 3.70634 8.48029 3.62403 3.60206 3.56771 3.46063 4.91068 3.33703 8.90018 3.3325 4.49705 4.06357 4.06878 3.30107 3.05422 9.32754 18.8892 3.06074 3.62306 4.2203 9.57591 4.3561 3.77821 8.02348 3.50502 3.0189 2.93249 8.99878 2.91678 2.8739 2.86205 2.78001 2.75005 2.74825 2.64726 2.61038 2.49952 2.46997 2.4583 2.41859 2.40148 2.35429 5.36634 2.31857 3.4943 2.22578 3.69067 2.19639 2.15682 2.10227 1.98022 1.84511 1.81747 3.92134 9.34903 2.18492 4.27714 1.73386 4.17391 1.78895 3.709 1.72592 1.70997 2.73827 1.62752 1.528 3.3768 4.52918 6.79321 1.49659 1.48349 1.46743 1.46241 1.56613 1.45089 1.4399 1.43704 1.41571 1.39946 1.3854 1.38037 1.33669 1.32312 2.04611 7.07063 2.08481 5.7473 1.66914 1.31341 1.22625 1.22272 1.21571 1.19951 1.49277 2.24151 1.19109 2.49373 1.18761 1.18695 1.2813 1.18368 1.14522 1.1031 1.09882 1.08414 1.07862 2.26801 1.47389 5.1105 2.03789 1.26223 0.94366 0.847418 4.7407 0.732094 0.988901 0.729301 3.17306 0.642735 1.07554 0.60738 1.69281 0.590269 3.26199 0.560699 1.1889 0.554991 1.04523 0.536382 1.85873 3.81162 1.49285 0.579274 4.15273 0.503403 0.999673 0.476633 0.758084 1.78146 0.733003 2.92867 0.450591 1.22415 0.439348 1.26923 0.42405 0.419169 0.418653 0.416945 1.43972 1.47485 0.429237 0.406937 0.406424 0.402909 0.397923 0.39514 0.392748 0.392267 0.390754 0.381266 0.377697 0.372285 0.36871 0.367382 0.363087 0.362295 0.358139 0.368149 0.357159 0.390281 0.355453 0.387094 1.02454 0.742567 0.399954 0.437425 0.355111 0.353937 0.340772 0.320648 1.40118 0.317366 0.297853 0.285621 0.262407 0.22935 1.17157 0.605667 1.93616 3.14894 1.35922 0.249652 0.205891 0.235495 0.134875 0.303628 0.126847 1.0788 0.403086 0.118407 0.322584 0.0625244 0.872579 0.0451747 0.392817 1.13687e-13 5.68434e-14 5.68434e-14 2.84217e-14 2.84217e-14 2.84217e-14 2.84217e-14 2.84217e-14 2.84217e-14 2.84217e-14 1.42109e-14 1.42109e-14 7.10543e-15 7.10543e-15 7.10543e-15 7.10543e-15 7.10543e-15 7.10543e-15 7.10543e-15 7.10543e-15 7.10543e-15 7.10543e-15 7.10543e-15 7.10543e-15 3.55271e-15 3.55271e-15 3.55271e-15 3.55271e-15 3.55271e-15 3.55271e-15 3.55271e-15 3.55271e-15 3.55271e-15 3.55271e-15 3.55271e-15 3.55271e-15 3.55271e-15 3.55271e-15 3.55271e-15 1.77636e-15 1.77636e-15 1.77636e-15 1.77636e-15 1.77636e-15 1.77636e-15 1.77636e-15 1.77636e-15 1.77636e-15 1.77636e-15 1.77636e-15 1.77636e-15 1.77636e-15 1.77636e-15 1.77636e-15 1.77636e-15 1.77636e-15 1.77636e-15 1.77636e-15 1.77636e-15 1.77636e-15 8.88178e-16 8.88178e-16 8.88178e-16 8.88178e-16 8.88178e-16 8.88178e-16 8.88178e-16 8.88178e-16 8.88178e-16 8.88178e-16 8.88178e-16 8.88178e-16 8.88178e-16 8.88178e-16 8.88178e-16 8.88178e-16 8.88178e-16 8.88178e-16 8.88178e-16 8.88178e-16 8.88178e-16 8.88178e-16 8.88178e-16
threshold=12.500000000000002 -1665.9499999999998 7911.7650000000003 1.0000000180025095e-35 8.0000000000000018 31.500000000000004 -7001.8549999999987 -17723.639999999996 1.0000000180025095e-35 126.72500000000001 1.0000000180025095e-35 24215.625000000004 24215.625000000004 1.0000000180025095e-35 19.500000000000004 1.0000000180025095e-35 5627.4750000000013 1.0000000180025095e-35 1.0000000180025095e-35 1266.22 8494.7700000000023 1.0000000180025095e-35 8.0000000000000018 1.0000000180025095e-35 257.41500000000008 5627.4750000000013 1.0000000180025095e-35 7911.7650000000003 1.0000000180025095e-35 557.83000000000004 315.2050000000001 67.500000000000014 1.0000000180025095e-35 257.41500000000008 47.500000000000007 4220.3000000000002 164689.20000000004 80.500000000000014 1.0000000180025095e-35 1.0000000180025095e-35 1.0000000180025095e-35 299.11500000000007 3282.6999999999994 1266.22 -5.4999999999999991 468.50000000000006 1.0000000180025095e-35 1182.5000000000002 2086.5000000000005 1.0000000180025095e-35 2.5000000000000004 -1.0000000180025095e-35 106977.60000000002 1378.2150000000004 22.500000000000004 9092.3000000000011 -1.0000000180025095e-35 4.5000000000000009 126.72500000000001 212.26500000000001 -10.499999999999998 -1795.4999999999998 366.04000000000048 -40458.080000000009 5820.6200000000008 557.83000000000004 -1.0000000180025095e-35 710392.69500000018 8822.6500000000015 916.45500000000015 208.50000000000003 -1597.4999999999998 -103.82499999999997 46.500000000000007 19.500000000000004 -15.354999999999995 -1324.0999999999997 14746.845000000001 -1.0000000180025095e-35 1.0000000180025095e-35 95013.000000000015 -276.07000000000056 13823.460000000001 3303.5000000000005 -1855.4999999999998 1257.0900000000004 4330.3650000000007 117.06999999999995 1583.7150000000004 -1339.4999999999998 456.96500000000009 1008133.3850000001 -533.44999999999845 74.114999999999853 82344.60000000002 -3822.1999999999994 190026.00000000003 24332.725000000002 104.50000000000001 1378.2150000000004 2.5000000000000004 475.06500000000005 31.500000000000004 108314.82000000002 -1079.9999999999998 2487.4299999999989 718.46500000000015 1.0000000180025095e-35 39.500000000000007 39780.335000000006 9143.5350000000017 733.10500000000059 344.409999999999 3249.7000000000003 29.500000000000004 -80.234999999999999 22.500000000000004 190026.00000000003 3059.5000000000005 45.500000000000007 -1.0000000180025095e-35 2170.6350000000007 90445.150000000009 399.47499999999951 -1346.0899999999997 -1.0000000180025095e-35 489.1049999999999 -837.89999999999998 2226.7650000000008 1.0000000180025095e-35 -15.499999999999998 1.0000000180025095e-35 49.500000000000007 11698.230000000001 86.215000000000018 1.0000000180025095e-35 -1551.4999999999998 3198.6800000000007 -84.84499999999997 514.66500000000008 327102.04500000004 51.500000000000007 -234.76499999999996 430100.09000000003 101.73500000000001 -1.0000000180025095e-35 42.500000000000007 11474.43499999997 577.77499999999998 75.500000000000014 14660.040000000003 2710.0600000000004 134.89500000000001 -11791.999999999998 -1140.9999999999998 5049.7650000000003 7.5000000000000009 41.245000000000012 3282.6999999999994 622.46500000000015 -1.0000000180025095e-35 1.0000000180025095e-35 -275.72499999999985 -40458.080000000009 2.5000000000000004 1.0000000180025095e-35 4450.0500000000002 1.0000000180025095e-35 80426.515000000014 162.50000000000003 1.0000000180025095e-35 -14.239999999999995 164689.20000000004 16430.100000000002 1592.2200000000003 1.0000000180025095e-35 61.500000000000007 168.88500000000002 74.114999999999853 6.5000000000000009 9.0000000000000018 106977.60000000002 13108.220000000003 -20883.229999999996 2.5000000000000004 10578.870000000001 201.18500000000003 1.0000000180025095e-35 1.0000000180025095e-35 691.24500000000012 -433.24499999999983 -5.4999999999999991 -533.44999999999845 47.500000000000007 538.07500000000016 39.500000000000007 1.0000000180025095e-35 -15.354999999999995 1.0000000180025095e-35 1.5000000000000002 200.13500000000002 -1.0000000180025095e-35 50861.670000000006 65.500000000000014 718.46500000000015 34.500000000000007 -1313.0200000000029 -1019.4999999999999 889.53500000000008 -2115.4999999999995 75.500000000000014 1.5000000000000002 34.300000000000047 -1.0000000180025095e-35 135.82499999999999 53.500000000000007 1197462.8300000003 11730.230000000001 1775.6400000000001 -3.4999999999999996 2.5000000000000004 7.5000000000000009 1.5000000000000002 2.5000000000000004 11269.315000000001 774.23500000000013 489.1049999999999 4330.3650000000007 257.41500000000008 4535.21 15564.160000000002 -1719.9999999999998 -5641.5249999999987 4.5000000000000009 134.89500000000001 -1.0000000180025095e-35 2.5000000000000004 4850.5000000000009 5900.1900000000014 352.37500000000006 14511.495000000001 -1577.7149999999997 -15679.209999999995 403.34000000000009 -1079.9999999999998 55.500000000000007 2.5000000000000004 1.0000000180025095e-35 212.26500000000001 -258.99999999999994 733.10500000000059 1.0000000180025095e-35 2802.5000000000005 4582.5000000000009 -2115.4999999999995 563819.6050000001 31.500000000000004 95013.000000000015 -1313.0200000000029 -938.20999999999992 478.53499999999991 399.47499999999951 53.500000000000007 314.69000000000011 36.500000000000007 469.20500000000004 5820.6200000000008 43.500000000000007 17897.720000000005 -957.99999999999989 1.5000000000000002 -19.499999999999996 55.500000000000007 17707.475000000002 1.0000000180025095e-35 172858.035 68.500000000000014 1.0000000180025095e-35 168.88500000000002 5334.3950000000013 -1405.4950000000022 2316.6750000000006 47506.500000000007 8.5000000000000018 1.0000000180025095e-35 5.5000000000000009 543.0350000000002 28503.900000000005 1.5000000000000002 -56787.739999999998 -1.0000000180025095e-35 27.500000000000004 3.5000000000000004 1415.8100000000002 9915.0400000000027 -3695.8749999999991 4.5000000000000009 555.94500000000016 1.0000000180025095e-35 175.95000000000019 4656.2249999999995 1.5000000000000002 -34143.549999999996 -294.99499999999995 213955.20000000004 -2253.7049999999995 514.66500000000008 9232.8550000000123 37.500000000000007 1700.5000000000002 6.5000000000000009 -157908.69999999998 -294.99499999999995 1.0000000180025095e-35 6.5000000000000009 114.50000000000001 -1.0000000180025095e-35 -1.0000000180025095e-35 186.44999999999996 -32.904999999999994 5120.5000000000009 3699.9450000000002 22475.310000000005 911.47000000000014 234.57500000000002 38.500000000000007 117.28500000000001 27092.225000000002 390.49500000000006 42.500000000000007 -9216.6749999999975 1.0000000180025095e-35 1.0000000180025095e-35 15564.160000000002 39.500000000000007 12.100000000000001 2170.6350000000007 3932.6300000000001 1.0000000180025095e-35 4056.7549999999987 1.5000000000000002 3814.5000000000005 114821.75500000002 1525.5000000000002 -11724.135 1835.7450000000001 -1919.3799999999997 25392.25 -2.4999999999999996 1265.9450000000004 17129.240000000005 1.0000000180025095e-35 -1775.0049999999999 -4.4999999999999991 2483.5850000000014 -835.99999999999989 1028.6850000000002 18890.015000000003 70438.650000000009 -319.12999999999977 -1.0000000180025095e-35 -4510.7749999999978 -5864.9099999999989 1.0000000180025095e-35 73710.810000000012 -1001.8199999999998 1008133.3850000001 14.500000000000002 3173.6450000000009 764518.37000000011 2.5000000000000004 16547.675000000003 1.0000000180025095e-35 70438.650000000009 6543.0749999999998 5120.5000000000009 16.500000000000004 -1140.9999999999998 -56787.739999999998 664.11500000000012 23.975000000000005 1220.5100000000002 -1.4999999999999998 1519547.4500000004 1.0000000180025095e-35 -2020.6750000000004 46803.495000000003 -20243.704999999998 960.50000000000011 46.500000000000007 11068.450000000003 -1.0000000180025095e-35 -7281.4999999999991 5.5000000000000009 -1.0000000180025095e-35 5.5000000000000009 69099.240000000005 9.5000000000000018 327102.04500000004 32224.525000000005 557.83000000000004 10202.960000000005 1.5000000000000002 60.500000000000007 746781.20000000007 9269.6800000000021 4.5000000000000009 2781.4700000000007 12051.495000000003 1.0000000180025095e-35 1159.28 1.0000000180025095e-35 1.0000000180025095e-35 1.5000000000000002 2.5000000000000004 4.5000000000000009 27.500000000000004 250.85000000000005 -4284.2849999999989 19.630000000000006 -84174.654999999984 -258.99999999999994 -4.8849999999999989 1.0000000180025095e-35 -1.0000000180025095e-35 8494.7700000000023 3.5500000000000029 -387.40499999999992 12.105000000000002 1.0000000180025095e-35 1006.6400000000001 622.46500000000015 -660.47500000000002 2.5000000000000004 -9688.7199999999993 240173.51500000004 478.40499999999992 3982.3350000000005 -1079.9999999999998 -766.79999999999939 -1.0000000180025095e-35 2.5000000000000004 3.5000000000000004 -3.4999999999999996 59574.575000000004 3.5000000000000004 -36292.619999999988 6.5000000000000009 -11222.244999999999 175.95000000000019 -186.50999999999996 -1341.2849999999999 -219.47999999999982 -4.4999999999999991 46.500000000000007 1.0000000180025095e-35 83408.785000000018 2226.7650000000008 355012.11500000005 15.500000000000002 9466.3050000000021 1378.2150000000004 65.500000000000014 1214.0550000000003 14746.845000000001 545.97500000000014 5.5000000000000009 1.0000000180025095e-35 224.89499999999956 14.065000000000003 -541693.00499999989 29383.650000000005 -23272.644999999993 4248.0950000000003 -2.4999999999999996 1.5000000000000002 122.50000000000001 -1.0000000180025095e-35 1.0000000180025095e-35 -1.4999999999999998 -2476.1949999999997 2.5000000000000004 170.50000000000003 -2476.1949999999997 1.0000000180025095e-35 1.0000000180025095e-35 6879.8650000000007 2226.7650000000008 19.500000000000004 1.0000000180025095e-35 709.8850000000001 209.50000000000003 188.50000000000003 1.0000000180025095e-35 53.500000000000007 209.50000000000003 145.50000000000003 321.50000000000006 188.50000000000003 3699.9450000000002 -4495.4649999999992 4105.9100000000008 2720.1200000000003 14.755000000000001 -604.94499999999994 1.0000000180025095e-35 1.5000000000000002 84.500000000000014 291.50000000000006 1585.4450000000004 1585.4450000000004 1.0000000180025095e-35 414.50000000000006 3511.2300000000005 4105.9100000000008 1286.9450000000004 555.94500000000016 709.8850000000001 963.1350000000001 -6380.3349999999991 1.5000000000000002 1.0000000180025095e-35 84.500000000000014 135.50000000000003 266.50000000000006 145.50000000000003 1775.6400000000001 -3007.6849999999999 -3007.6849999999999 -3655.2099999999996 19.500000000000004 14.500000000000002 48981.930000000008 802.74000000000012 9116.0150000000012 2170.6350000000007 52842.475000000013 57007.80000000001 12901.905000000001 inf 150.50500000000008 1.0000000180025095e-35 1.0000000180025095e-35 1.0000000180025095e-35 60.500000000000007 114.50000000000001 179.50000000000003 130.50000000000003 170.50000000000003 197.50000000000003 122.50000000000001 3198.6800000000007 250.85000000000005 1113.0350000000001 104144.94500000002 6990.6000000000013 1185.9850000000004 1.5000000000000002 1.0000000180025095e-35 52842.475000000013 14134.650000000001 10494.980000000001 3303.5000000000005 -32.904999999999994
decision_type=2 2 2 2 10 2 2 2 2 2 10 2 2 2 2 10 10 2 2 2 10 10 8 2 2 10 2 2 10 10 2 2 10 2 2 10 10 2 10 2 2 10 8 2 8 10 2 8 8 2 8 2 10 2 2 8 10 2 2 2 8 8 8 8 2 10 8 8 2 2 10 10 2 2 2 10 2 10 8 2 10 10 8 10 10 10 10 8 8 8 2 10 8 10 10 2 8 2 2 2 2 10 2 8 10 8 8 8 2 2 10 10 8 2 10 10 2 10 8 10 10 2 2 8 8 8 8 2 2 8 10 8 2 8 2 8 10 2 10 2 10 2 10 10 2 10 2 8 10 2 2 10 8 8 8 10 2 10 10 2 8 2 10 10 8 8 2 2 2 2 2 10 8 2 2 2 2 2 10 2 8 10 8 10 2 2 2 10 2 2 10 8 10 2 2 2 2 8 10 10 2 8 2 2 8 2 8 10 2 10 2 8 10 8 8 2 10 2 2 10 2 2 10 2 2 2 8 8 2 8 2 8 10 2 8 10 2 8 2 2 2 8 10 2 8 2 10 10 2 10 10 8 10 10 10 8 2 8 10 10 8 10 2 8 2 2 2 2 8 8 10 8 2 10 2 2 2 2 2 2 10 8 10 2 2 2 10 8 2 8 8 2 10 2 10 10 2 8 2 10 10 2 10 2 10 10 2 10 10 10 2 8 2 8 2 2 2 10 10 10 10 2 10 2 2 2 2 2 2 2 2 10 2 2 2 10 2 10 10 8 2 10 2 10 8 10 8 10 8 2 2 8 10 8 8 8 2 2 2 10 8 10 10 8 2 2 8 2 8 10 2 2 10 2 10 8 2 10 8 8 8 10 8 8 2 10 2 8 10 2 2 8 10 2 10 10 2 2 8 10 8 10 10 2 10 2 2 2 8 10 10 2 10 2 2 2 2 2 2 8 10 10 10 2 10 10 10 8 10 2 10 2 10 10 10 2 10 8 10 10 10 8 10 8 2 2 8 2 8 10 10 8 10 8 2 10 2 2 8 2 10 2 2 10 10 2 2 10 10 8 8 2 8 10 10 10 2 8 2 8 2 8 2 2 8 2 2 2 2 2 10 2 2 8 2 2 2 2 2 2 2 8 8 8 10 8 8 2 2 2 2 2 2 8 8 8 8 8 8 10 8 8 2 2 2 2 2 2 2 2 2 2 2 2 2 2 2 10 8 8 8 8 8 8 2 2 2 2 2 2 2 2 2 2 2 2 2 2 2 2 2 8 10 8
left_child=1 2 3 6 5 9 -1 8 45 11 18 15 13 40 36 21 34 28 20 22 24 25 47 29 27 26 30 57 33 -24 39 -10 66 38 114 -17 -9 59 49 54 -3 -23 -41 44 -44 -5 -42 93 -49 60 70 -40 -53 -54 55 111 -50 58 61 76 -15 102 -46 -59 69 -34 90 160 83 72 -51 -72 161 75 136 -32 -18 -78 -65 80 144 -82 94 84 -36 155 -67 143 89 116 91 95 96 -16 219 124 -62 119 113 100 -100 125 -7 123 145 -28 107 115 -109 110 127 112 -2 121 -12 -80 -89 -91 -56 120 -26 -96 149 193 -11 -75 154 220 129 -129 -131 -117 -68 158 -135 246 315 138 -138 -140 -130 -101 -110 206 -63 -105 -147 272 209 -4 151 152 153 -97 -127 179 168 252 199 189 -35 164 -60 -158 177 194 167 -167 169 170 -137 172 225 174 175 -174 -177 178 200 180 182 -182 -71 -90 -169 216 187 -187 221 208 -144 192 -153 -94 274 196 -29 198 -155 212 201 -22 203 309 -205 -124 -27 211 235 210 218 -208 351 -14 215 -162 324 -112 -13 -74 -39 320 -172 534 -194 -99 230 314 278 -230 231 372 234 -234 -233 251 240 238 239 -238 264 242 -181 244 -244 269 437 249 -249 300 -251 350 325 -254 -107 -176 257 -161 -215 282 -261 -207 -186 439 265 -237 267 -19 -164 -128 271 -184 -148 316 275 327 -277 279 -229 284 281 -111 283 -243 286 357 287 -258 -199 290 291 386 326 294 296 -296 -294 298 -298 -297 332 349 -303 551 441 -84 -259 311 434 -196 -283 -191 -212 -175 -193 -61 355 -318 378 -320 432 -322 -139 -299 340 -133 344 328 329 -20 331 -329 334 -334 335 -157 -152 353 -339 519 409 342 343 -342 -291 -292 -332 348 -313 427 -66 533 430 -336 502 -179 -278 358 360 -360 361 -286 -359 541 -260 -273 435 368 506 -370 371 -168 -92 374 399 440 -239 -202 -284 -236 393 382 383 385 503 -382 -289 388 -276 390 -372 392 -389 421 -395 416 -397 455 -399 492 -401 454 -403 404 407 -406 -407 408 431 494 -411 412 414 -414 446 543 417 -348 419 -355 -350 499 -390 433 -425 -426 496 -228 509 442 505 515 -188 453 -210 513 523 520 540 -264 -266 526 443 -418 445 489 -409 448 -448 450 -450 -452 556 -405 -380 491 -457 546 -344 -263 -285 462 463 464 466 -466 501 485 470 -470 471 548 473 474 -472 477 -477 478 -474 480 -479 483 -483 500 490 -465 -445 -449 -484 -420 -413 -281 -346 538 -173 -391 516 -476 -480 -362 -481 -455 -325 -384 -456 -204 522 -495 -504 532 -482 -506 -429 -163 -343 -393 -427 -436 -500 -197 555 -400 -282 -367 -387 -458 -211 -487 529 -502 -219 -442 -295 -108 -165 -366 563 -489 -422 -434 -227 -232 -268 -416 -256 -307 -363 -398 -463 -478 -508 -250 -415 -501 -534 -122 -308 -311 -488 -530 -358 -535 -507 -441
right_child=4 12 122 7 -6 10 -8 14 31 32 16 148 213 17 19 35 37 266 165 -21 64 41 23 -25 97 87 105 195 -30 -31 73 -33 65 67 68 -37 -38 109 51 42 46 -43 43 -45 62 -47 -48 48 56 50 -52 52 53 -55 118 -57 -58 63 162 74 92 79 -64 78 159 86 132 -69 -70 85 71 -73 82 101 -76 -77 77 -79 106 -81 81 -83 305 -85 -86 -87 -88 88 183 117 226 -93 103 -95 98 150 -98 171 99 141 -102 -103 -104 104 -106 254 133 108 142 280 217 -113 -114 -115 -116 131 -118 -119 -120 -121 135 -123 205 -125 -126 126 245 128 140 130 -132 157 -134 134 -136 156 137 322 139 -141 -142 -143 190 -145 -146 146 147 -149 -150 -151 336 191 -154 197 -156 247 163 -159 -160 256 214 366 268 223 -166 166 370 184 -170 -171 222 185 173 313 255 176 -178 273 -180 241 181 -183 270 -185 262 186 188 -189 -190 307 -192 227 224 -195 202 339 -198 288 -200 -201 377 -203 352 204 -206 261 207 -209 308 304 312 -213 -214 258 -216 -217 -218 530 -220 -221 -222 -223 -224 -225 -226 438 301 228 229 -231 363 232 233 -235 379 236 237 376 -240 -241 -242 259 243 -245 -246 -247 -248 248 303 250 -252 -253 253 -255 544 -257 277 306 364 260 -262 459 263 -265 375 -267 542 -269 -270 -271 -272 365 -274 -275 387 276 356 -279 -280 397 367 310 318 460 285 -287 -288 289 -290 292 345 -293 293 428 295 299 297 323 -300 -301 -302 302 -304 -305 -306 545 452 -309 -310 557 -312 347 -314 -315 -316 -317 317 -319 319 -321 321 -323 -324 354 -326 -327 -328 330 -330 -331 346 -333 333 -335 337 -337 -338 338 -340 -341 341 514 458 -345 373 -347 395 -349 420 -351 -352 -353 -354 418 -356 -357 560 362 359 -361 380 457 -364 -365 535 436 -368 -369 369 -371 389 -373 -374 -375 -376 -377 -378 -379 401 -381 381 -383 384 -385 -386 524 -388 391 422 495 -392 403 -394 394 -396 396 547 398 521 400 -402 402 -404 423 405 406 -408 411 -410 410 -412 484 413 552 415 -417 429 -419 444 -421 493 -423 -424 424 425 426 -428 512 -430 -431 -432 -433 539 -435 517 -437 -438 -439 -440 536 531 -443 -444 486 -446 -447 447 487 449 -451 451 -453 -454 461 504 456 525 -459 -460 -461 -462 468 -464 467 465 -467 -468 -469 469 -471 472 -473 475 -475 497 476 549 479 498 481 510 482 488 -485 -486 527 558 537 -490 -491 -492 -493 -494 507 -496 -497 -498 -499 518 553 528 -503 508 -505 511 562 550 -509 -510 -511 -512 -513 -514 -515 -516 -517 -518 -519 -520 -521 -522 -523 -524 -525 -526 -527 -528 -529 559 -531 -532 -533 554 561 -536 -537 -538 -539 -540 -541 -542 -543 -544 -545 -546 -547 -548 -549 -550 -551 -552 -553 -554 -555 -556 -557 -558 -559 -560 -561 -562 -563 -564 -565
leaf_value=-3.3088656268810261 -4.4052734049917897 -4.0322061472994077 -4.4034122687821169 -3.7673925343294412 -3.8504962323005447 -4.432230373324674 -3.8965110537670222 -4.3485933650309807 -4.169739959850709 -4.3207616396444433 -4.1467962071105937 -4.369448571915207 -4.3994235759863303 -4.23634029167689 -4.2495372809284451 -4.0938095054166634 -4.3894663205280464 -4.4409028039915697 -4.4486978694827473 -4.2719109821981389 -4.4317157641617033 -4.0683020714860767 -3.9708140208902591 -4.1595450779391205 -4.3545400071094829 -4.4486978694827473 -4.3638508045653603 -4.4486978694827473 -4.168519434786897 -3.6914300598042469 -4.3595421679215693 -3.9366262354314152 -4.3953711644484823 -4.3710658103999993 -4.3649101288004095 -4.2848565706720736 -4.1611888242206021 -4.4434869214510444 -4.3581273830936924 -4.3527260991465049 -4.2562354858344067 -4.2859612561587817 -4.018602263647705 -4.2850863292615156 -4.1480622745877831 -3.5638227215130382 -4.0898338531010916 -3.9777315995652125 -4.2169432357837184 -4.39729284673205 -4.1330850879848464 -4.0846825610590667 -4.1883503649931146 -4.3527259332193804 -4.3244864026617584 -4.1691949902105563 -4.0658314937586235 -4.2872085638294442 -4.3629526666661205 -4.4486978694827473 -4.2435818318261909 -4.3276623923583548 -4.2825054202178094 -4.3008752027947166 -4.4486978694827473 -4.3254209969210713 -4.387589895316653 -4.313855843674034 -4.4125842690173132 -4.4010156941880485 -4.208727778488476 -4.3463487351476617 -4.3983807342381427 -4.3172240726946827 -4.3256284242731295 -4.2273462573858245 -4.2298190703114997 -4.3493405051507716 -4.348035680220832 -4.2208102509399401 -4.1951003984232793 -4.3194368614932497 -4.418507464219636 -4.379394714298483 -4.2238013452203544 -4.3585177294464588 -4.2071764847816988 -4.3395673633301071 -4.3904736278485164 -4.2575891682465121 -4.4486978694827473 -4.327294490189276 -4.3866765638596936 -4.1333959338161144 -4.4232247976560668 -4.343032080126159 -4.3518374723441626 -4.4132129499343264 -4.3619152697880645 -4.3475283536776939 -4.2616170730813892 -4.2910200570880495 -4.328084068609046 -4.3965887320641688 -4.2844068224018841 -4.4129797333464591 -4.4486978694827473 -4.2604805899591991 -4.3310491380813279 -4.4001778687369457 -4.4144895200204459 -4.261178219390886 -4.2847337186403909 -4.4486978694827473 -4.2463594632000978 -4.3611063217570036 -4.4259650033063709 -4.3509324890004955 -4.4076478790113178 -4.3625238950482546 -4.4486978694827473 -4.3420441682976625 -4.3901751368260165 -4.3345788650655974 -4.4108474009149914 -4.3929912891119116 -4.4188236921593615 -4.4258512440494879 -4.4486978694827473 -4.2500971692544036 -4.3800696656571727 -4.4234502230205086 -4.3095283133384834 -4.3230160986298705 -4.4320867172886667 -4.4403190326185964 -4.3208338002812567 -4.418347076372652 -4.3628938835012265 -4.4336027394224997 -4.3779263993991302 -4.428463972564189 -4.3706677911882137 -4.3664002062496294 -4.3978814890007865 -4.3039098832041986 -4.3690796630559374 -4.3185622171698981 -4.3810384116784533 -4.3382091169902441 -4.4296143000456896 -4.4407397273213123 -4.3199174256279687 -4.4386873645590503 -4.3301940302750381 -4.4486978694827473 -4.3864834276896509 -4.3795347576706121 -4.3744738665764968 -4.3849950446285568 -4.3804216050010449 -4.4486978694827473 -4.4391401961305075 -4.4486978694827473 -4.379847629696676 -4.3720611260835716 -4.4183469766907661 -4.3984567685622178 -4.4329790518365622 -4.3477072709654356 -4.3506573983103118 -4.4486978694827473 -4.3478350233597745 -4.4486978694827473 -4.410039730536166 -4.4389938085560319 -4.3844053968726113 -4.4486978694827473 -4.3687823626580702 -4.3916384815190019 -4.4389441413026152 -4.3669504638022341 -4.4112203118249074 -4.4486978694827473 -4.413990059949036 -4.3618050012608292 -4.4385267682405658 -4.4302916413390188 -4.396588499465687 -4.4239967087561922 -4.4291902208119271 -4.4486978694827473 -4.40988173285076 -4.4351605996535008 -4.4208639709185702 -4.4486978694827473 -4.3958649943216201 -4.4486978694827473 -4.3613614852103613 -4.4026820560496631 -4.4486978694827473 -4.375191183123694 -4.4486978694827473 -4.3717792391343382 -4.4401687395941645 -4.40844409869388 -4.4001364487772223 -4.3801577657300026 -4.4385267682405658 -4.4486978694827473 -4.4183469766907661 -4.4435573396638794 -4.4050743809974371 -4.4108474009149914 -4.4486978694827473 -4.4392820479609369 -4.4122612474397744 -4.4486978694827473 -4.41973347015103 -4.4431038193741523 -4.4053302023084955 -4.4095622394004428 -4.4001776793586238 -4.4129463568667244 -4.3622438262507677 -4.4486978694827473 -4.4385268695312341 -4.4151825308920296 -4.3777281226642417 -4.4386343989301427 -4.4486978694827473 -4.4011481639621479 -4.3625700265000757 -4.4329137501696003 -4.4486978694827473 -4.40088250381016 -4.3248472025632649 -4.4486978694827473 -4.4403557818998616 -4.3996493370095546 -4.4035914836378991 -4.3922032427916138 -4.4422504253918262 -4.4486978694827473 -4.3767742392913247 -4.4394648794290319 -4.4153296592385409 -4.3840673340384209 -4.4486978694827473 -4.4486978694827473 -4.3889494339201773 -4.4096826758113821 -4.3863374568593851 -4.4335425242036886 -4.4486978694827473 -4.4486978694827473 -4.4137989563889199 -4.4189793844303447 -4.4312484534075072 -4.3897867662510892 -4.4486978694827473 -4.4486978694827473 -4.4388937667011295 -4.413638218100596 -4.4385267682405658 -4.4486978694827473 -4.4486978694827473 -4.3996778540039418 -4.3978425832896981 -4.3775004025880158 -4.4090732578802125 -4.429388267966309 -4.4088657016138351 -4.4090729665091528 -4.4224272637664299 -4.4026290384717708 -4.4289882643522924 -4.420829939877053 -4.4486978694827473 -4.4486978694827473 -4.4486978694827464 -4.4486978694827473 -4.4320138613644122 -4.4385268695312341 -4.4077066714534849 -4.4227851738381716 -4.4131468151275257 -4.4284638723458727 -4.4177711892677261 -4.428463972564189 -4.4286770600936745 -4.3604610172800475 -4.4098819232161679 -4.4486978694827464 -4.3849948684780582 -4.4486978694827473 -4.3951208044369627 -4.4274069429953569 -4.4486978694827473 -4.4165968377197755 -4.4194363994801344 -4.4016521175902241 -4.4486978694827473 -4.4192857605015581 -4.4189791891543386 -4.4486978694827473 -4.4486978694827473 -4.419879849676386 -4.4220345552182092 -4.4486978694827473 -4.4188236921593615 -4.4290896659426213 -4.4486978694827473 -4.4224031723979671 -4.424622133801714 -4.4194365917986396 -4.4031958582005979 -4.4486978694827464 -4.4094817589251329 -4.4486978694827473 -4.4092784700641907 -4.4486978694827473 -4.4486978694827473 -4.4486978694827473 -4.4252165189110482 -4.4486978694827473 -4.4304094486191961 -4.4486978694827473 -4.4486978694827473 -4.3876714918501554 -4.4290896659426213 -4.4086559605672386 -4.4102739091411527 -4.4486978694827473 -4.4309222961435104 -4.4136381319565672 -4.4486978694827473 -4.4207273463061334 -4.4486978694827473 -4.4286769609191037 -4.4486978694827464 -4.4486978694827473 -4.4486978694827473 -4.3989727487761252 -4.4486978694827473 -4.4486978694827473 -4.4284638723458727 -4.4283556691757919 -4.4386873645590503 -4.4285710302028125 -4.4289880690541601 -4.4283557699242664 -4.4286769609191037 -4.4486978694827473 -4.431562772249463 -4.4296780061968066 -4.4486978694827473 -4.4486978694827473 -4.4486978694827473 -4.4013846487210957 -4.4486978694827473 -4.4486978694827473 -4.4295825237434503 -4.4286769609191037 -4.4486978694827473 -4.4486978694827473 -4.4303210987770383 -4.4287818810742117 -4.4181848729072977 -4.4486978694827473 -4.4486978694827473 -4.4486978694827473 -4.428463972564189 -4.4328479830140344 -4.4327817445186817 -4.4287816837526153 -4.4283558706727515 -4.4289881667032214 -4.4403922930212767 -4.4289881667032214 -4.4313281310955421 -4.4282463025310133 -4.4486978694827473 -4.4141162701287397 -4.4320138061701693 -4.4486978694827473 -4.4486978694827473 -4.4486978694827473 -4.4385267682405658 -4.4486978694827473 -4.4285710302028125 -4.4486978694827473 -4.4185075633825637 -4.4283556691757919 -4.4486978694827473 -4.4292897496113479 -4.4486978694827473 -4.4189793844303447 -4.4486978694827473 -4.4486978694827473 -4.4286768617445427 -4.4486978694827473 -4.4284638723458727 -4.4401688246063733 -4.4156197686910623 -4.4486978694827473 -4.4283557699242664 -4.4390430677435484 -4.4205202267953618 -4.4486978694827473 -4.4308389313260861 -4.4486978694827473 -4.4271659847339002 -4.4486978694827473 -4.4486978694827473 -4.4194364956393821 -4.4402819581224806 -4.4486978694827473 -4.4486978694827473 -4.4283556691757919 -4.4486978694827473 -4.4390431639186829 -4.4486978694827473 -4.4286769609191037 -4.4301418132441883 -4.4486978694827473 -4.4385808698371578 -4.4486978694827464 -4.4385267682405667 -4.4386343989301427 -4.4386344991546292 -4.4389441413026152 -4.4486978694827473 -4.4392821417672925 -4.4486978694827473 -4.438791640641135 -4.4385809705919144 -4.4385267682405658 -4.4385268695312341 -4.4486978694827473 -4.4486978694827473 -4.4385809705919144 -4.4400525194542801 -4.4486978694827473 -4.4400129564140904 -4.4397683109985273 -4.4336623292857524 -4.4486978694827473 -4.4385267682405667 -4.438101897412202 -4.4385267682405667 -4.4486978694827473 -4.4385268695312341 -4.4486978694827473 -4.4486978694827473 -4.4291904141276692 -4.4486978694827473 -4.4385808698371578 -4.4385268695312341 -4.4385267682405667 -4.4486978694827473 -4.4486978694827473 -4.433896418961301 -4.4486978694827473 -4.4163235578596796 -4.4486978694827473 -4.432371806228776 -4.4430032706148106 -4.4486978694827473 -4.4385268695312341 -4.4393284313136139 -4.4386343989301427 -4.4382185530853997 -4.4351605323659617 -4.4486978694827473 -4.4387397755741009 -4.4486978694827473 -4.4389440441461314 -4.4486978694827473 -4.4486978694827473 -4.4486978694827473 -4.4486978694827473 -4.4486978694827473 -4.4486978694827473 -4.4486978694827473 -4.4486978694827473 -4.4486978694827473 -4.4486978694827473 -4.4486978694827473 -4.4486978694827473 -4.4486978694827473 -4.4486978694827473 -4.4486978694827473 -4.4486978694827473 -4.4486978694827473 -4.4486978694827473 -4.4486978694827473 -4.4486978694827473 -4.4486978694827473 -4.4486978694827473 -4.4486978694827473 -4.4486978694827473 -4.4486978694827473 -4.4486978694827473 -4.4486978694827464 -4.4486978694827473 -4.4486978694827473 -4.4486978694827473 -4.4486978694827473 -4.4486978694827473 -4.4486978694827473 -4.4486978694827473 -4.4486978694827473 -4.4486978694827473 -4.4486978694827473 -4.4486978694827473 -4.4486978694827473 -4.4486978694827473 -4.4486978694827473 -4.4486978694827473 -4.4486978694827473 -4.4486978694827473 -4.4486978694827473 -4.4486978694827473 -4.4486978694827473 -4.4486978694827473 -4.4486978694827473 -4.4486978694827473 -4.4486978694827473 -4.4486978694827473 -4.4486978694827473 -4.4486978694827473 -4.4486978694827473 -4.4486978694827473 -4.4486978694827473 -4.4486978694827473 -4.4486978694827473 -4.4486978694827473 -4.4486978694827473 -4.4486978694827473 -4.4486978694827473 -4.4486978694827473 -4.4486978694827473 -4.4486978694827473 -4.4486978694827473 -4.4486978694827473 -4.4486978694827473 -4.4486978694827473 -4.4486978694827473 -4.4486978694827473 -4.4486978694827473 -4.4486978694827473 -4.4486978694827473 -4.4486978694827473 -4.4486978694827473 -4.4486978694827473 -4.4486978694827473 -4.4486978694827473 -4.4486978694827473 -4.4486978694827473 -4.4486978694827473 -4.4486978694827464 -4.4486978694827473 -4.4486978694827473
leaf_weight=3.2933920035138726 2.5576139902696067 3.1999456565827114 3.4335094159469035 2.3474115142598748 2.8963037580251685 2.6977565800771117 2.8963039852678767 4.2159772319719186 3.5035881390795094 2.6043300209566951 2.2072599185630706 2.24229208286852 2.2539703287184238 2.405795494094491 2.2306157080456659 4.0057696131989351 3.3751166611909866 2.8495781188830716 2.8612564830109459 3.6437274580821386 2.6160063948482275 2.3357260180637232 2.324049059301613 3.4568730499595404 2.3590787621214977 3.9590446846559644 3.1415451718494278 2.5459343399852514 4.1225534854456773 2.5225920090451837 2.2422925494611263 2.7328037228435278 2.49922100175172 2.2890065908432007 2.6510432437062263 3.1181896161288023 3.0130852768197656 4.2626884635537854 2.2072562901303163 2.545936329290269 3.9240142777562141 2.1839006142690778 2.3240482397377491 4.3444440327584735 3.6203733077272782 2.1839127875864506 2.4758691927418113 3.6787717957049599 2.7795120291411868 2.5926497848704511 2.6744057042524219 2.4408336319029313 3.0714776813983917 2.5459365621209145 2.8612596411257973 3.258336183615028 3.5970192672684806 2.4758660290390253 2.8495797580108047 3.5269365627318647 2.3824380645528436 2.5692941099405342 2.4057938596233699 2.253972084261477 9.6932362485676986 2.5225797183811665 2.9079722790047517 3.1298672789707789 3.6904378701001397 4.1926183970645043 2.4992250958457589 2.6043296689167619 2.2072559371590614 2.5342586664482951 3.9707267954945555 2.7094396250322488 2.9430113518610579 3.1298665758222342 4.1926200361922374 2.5342606557533136 2.4525101231411099 2.4057935066521168 2.2072557024657726 2.8846153169870377 3.4568708287551981 2.7094363505020729 2.207258865237236 2.849580692127347 2.2890064725652337 2.4408310530707258 4.1108664572238922 2.1955786263570181 3.2232946557924134 2.1839034222066402 2.6160065121948737 2.3123642550781369 2.5225791335105896 3.12986528687179 3.0714733516797406 2.1955782752484083 2.8495827969163656 2.2539726672694078 2.3941150242462754 3.4101518718525847 3.5152626456692859 2.4875421691685897 2.405791165307166 2.2422943050041777 2.2656503301113844 2.2890060059726212 3.2466510329395524 2.4875452117994428 2.7094382215291235 3.0714712450280786 2.1955795651301742 3.550296449102464 2.9313285388052464 2.4992215884849429 3.2466511502861977 3.6086889728903762 2.662720318883653 3.7488337811082602 2.2773277582600704 2.3357215682044625 2.3473988780751815 2.7911859499290586 2.230612781830132 3.8889736831188237 3.4685435732826582 2.9079754389822465 2.2656490448862314 2.6393637079745549 2.3941151425242424 2.6510442961007348 2.6743991514667869 2.6510419547557822 2.7795084081590176 2.1955768717452875 3.1065093781799096 2.9430070193484426 2.5108998343348503 2.195576754398644 2.2773278765380383 2.4291502321138969 3.0597938178107142 3.375119118019926 2.5109004173427767 2.2189357066527062 2.9546866714954367 2.8145445492118597 3.4919014703482372 2.7911851294338703 2.2422933680936685 2.2189338328316808 3.7488336665555817 3.6086867479607454 2.4992211190983644 3.8539394102990618 2.3941142046824089 2.4408281296491596 2.2773276427760694 5.1619402673095482 2.3240410974249235 2.8729350809007865 2.5809716545045367 3.1882590968161848 2.1955769881606093 3.0948296114802387 2.8262209240347138 2.6393655790016055 2.2656497461721328 5.7809059554711011 3.0831523006781909 5.6991557702422115 2.8729357840493313 2.2890054201707288 4.1459043575450778 9.7049148464575392 2.7795082861557594 2.3357203984633079 2.2773267058655646 4.0758337043225765 2.3707560738548636 2.4875413505360475 3.1999367577955153 2.300685538910332 2.1838980391621723 3.6203656978905201 2.5576142240315667 2.6977566974237561 2.27732705604285 8.0348753482103366 2.2890060050413013 3.28168635815382 2.3941130358725768 16.793823765590794 3.363437480293217 4.1809380445629376 2.2890071738511324 4.3444400532171121 3.7021155310794702 2.4174711676314455 8.4202690785750747 3.1765807317569843 2.6043275631964207 2.2072558198124153 2.7444716738536981 2.5926502523943773 2.1838980391621616 3.4218291817232913 2.1955769881606102 4.3210814530029893 2.5459351595491162 2.3473988780751851 3.7721871184185121 2.359077007509768 3.0481151016429058 4.1692594466730934 2.3006844855844975 3.970723399892452 3.5853306064382195 2.8379003396257749 2.2890062388032675 3.1065077418461442 2.5692935241386294 6.0962280984967947 2.1838979227468371 2.6510426560416835 3.1298662228509784 2.2072552349418402 3.3284003986045692 3.7371528455987582 3.0948308967053917 2.8145424425601959 3.5386151606217009 4.1809397991746726 2.5109017025679314 3.643722541630269 2.6627205526456237 4.0758326509967446 2.9546863194555035 2.3590778270736328 3.4451866112649441 6.0728709027171135 2.779507586732505 2.4057913990691304 3.3284013345837584 2.4057923359796396 3.5736509542912236 2.6276845252141348 2.2306134831160307 2.2773274071514598 2.8495796388015151 2.9313285378739238 4.4378671981394291 3.3284003986045718 2.5459351586177936 2.2422912633046517 2.5459346910938612 2.6393644101917735 2.9079708745703101 3.6203653458505869 2.265648224391053 2.5342564443126419 2.1838980391621634 3.5853295521810651 3.1415428323671222 2.265648577362299 2.1838987413793802 2.1838992089033162 2.2422913806512943 2.3006842518225445 2.2306128991767764 2.2422917298972598 4.2276534885168102 3.3751159608364096 2.2539696274325234 3.188257926143705 3.9240088909864426 64.372431568801403 2.1955764032900396 4.0875092614442119 2.6627205535769463 2.1838979227468371 2.7094357628375292 4.2860464779660097 2.4992205342277876 2.1955768708139658 2.8729358995333314 2.195576754398644 2.218933833763006 2.265650094486773 2.2890057722106567 2.4641841547563734 2.4408283624798059 4.2626882297918183 2.487542403861883 3.1298648193478575 3.0948284408077598 2.7678284021094441 2.2773272898048154 3.3050447227433324 5.1035472778603417 2.2656484590843311 2.2422914961352953 2.7911848956719032 4.7064749496057612 2.3123629670590153 2.4992204168811432 2.499219948425889 2.230612781830132 2.2656484581530094 3.3284003986045718 2.5342562105506667 2.767828168347477 2.2773270569741726 2.4408277785405517 2.6860775146633413 2.2656485764309764 2.2189335990697137 2.2539700949564567 2.440826958976686 2.5342557420954108 2.3357195779681188 2.8378998721018425 3.6554011395201087 3.6437232429161659 3.2349716154858461 6.1546210879459977 2.1838989751413465 2.2656484581530094 2.2189344177022576 2.3123630844056597 3.5152579648420215 2.4992202995344996 2.5342565607279539 7.0772303212434053 3.176579561084508 3.7838657163083553 2.2189339501783314 2.1838978054001945 2.4641841547563654 4.0641520656645298 3.573652358725667 46.142140262760222 10.312201936729251 2.1955768708139649 2.1838982729241243 2.2189338328316799 2.2072553522884837 2.2539698602631679 2.1838981565088105 2.2189339501783278 4.9283683095127335 2.592649199068549 2.3357199290767339 2.8378992872312665 74.544490330852568 4.6364033622667193 2.3473992282524696 54.994517463259392 2.6510417209938169 2.3240412147715679 2.2189339501783261 6.213014077395199 6.213014077395199 2.4174702307209364 2.2306124316528431 2.1838981574401286 2.6043273294344544 2.651041720993816 3.410150583833456 2.195576754398644 2.8028638446703544 2.791185130365192 2.2306126644834885 2.1838980400934815 2.2539697438478479 2.6743990341201451 2.2539697438478496 2.5576132889837035 4.3444393500685683 34.183256023563445 3.2116153556853524 3.9940809467807403 8.3385188933461887 2.3590767737478018 7.7429104009643197 2.1838980391621652 34.218291817232966 2.2072553522884846 3.0013996576890332 2.2072555860504508 2.1838982729241252 3.1065070386975995 3.4335084808990342 3.5386151606217027 2.2422912633046481 3.3634361922740927 4.297724023461341 2.218934066593647 2.9546852661296716 2.1955768708139658 2.6043274467810988 2.6860783332958809 9.623164661228655 2.1838981565088025 2.300684018060565 3.1532222488895085 4.0875092614442101 2.4875415852293372 132.71558642014861 3.0948289092630139 2.4525055568665266 2.9430066682398301 2.2773271733894944 2.6393633568659425 4.4962601875886321 16.350037045776844 2.1838982729241252 4.5546531770378333 2.3006839016452494 23.287124192342159 2.2189339501783243 2.3941130349412552 2.8378992872312647 2.1955766370519987 8.7823056131601458 2.1838980391621581 2.2072552349418393 2.2072551185265175 2.2773267058655611 4.0057590762153135 2.3590768910944453 2.3941125674173218 2.2422910286113611 2.1955765206366769 2.1838980391621599 2.1838979227468363 2.2890051864087582 6.17797828372567 2.1955765206366804 2.5692916531115761 85.954480469226837 2.5576131716370574 2.4875415842980138 2.954685733653605 84.541370124556124 2.1838980391621581 4.1926168771460643 2.183898039162159 46.620962776243687 2.1838979227468371 7.1589805064722913 2.6743989167734972 2.2773268232122055 3.8539373036473972 2.1955766370519996 2.1838979227468371 2.183898039162159 2.9313280703499913 2.1955764032900333 3.0014000087976447 132.98419417161494 2.7444713227450839 3.2232930175960064 2.7211136594414702 3.9006519289687267 2.3123623821884385 2.1838979227468371 2.3707556053996077 2.2072552349418402 4.2393315015360704 3.281686474569141 48.711431798525155 2.2306124307215205 3.2232930175960064 2.2773268222808865 36.624082982540131 21.593727498315275 9.961844000034036 268.05885736551136 179.55844255629927 370.02469554170966 2.3123623821884385 8.2334115123376233 2.1955764032900325 2.1955764032900325 5.1269044736400238 66.357793210074306 33.062110626138747 39.788983010686934 22.621444112621248 6.6684793950989869 25.751308347098529 4.7531893411651245 20.355796121992171 2.2890051864087573 2.8378992872312647 2.3707553716376415 4.1692594466730943 26.21845226269215 18.043433739803739 3.5853295521810642 4.1926166424527826 3.3400789964944133 2.4992199484258881 15.847857336513696 2.4291483610868445 9.4129498992115241 9.3545569097623211 20.624403873458505 8.653841036371885 8.0465539461001736 9.564771671779452 17.459503845311708 12.717993102036415 10.312201936729251 12.636242916807531 3.8189015099778691 4.3911528065800676 6.3648358499631295 8.653841036371885 4.4495457960292697 2.3590767737478027 5.1269044736400247 5.1152258757501841 3.5736509542912236 2.4057911653071633 4.6831177538260809 6.0962280984967947 2.1838978054001927 2.6860775146633387 3.1415428323671168 4.1575808487832546 2.8378992872312665 4.5780103728175163 10.195415957830845 8.2567687081173045 9.1560207456350398 2.9313280703499895 2.6276845252141356 3.9006516952067614 3.5736509542912245 2.3707553716376424 2.4057911653071642 2.3941125674173236 2.7211133083328605 2.2890051864087582 2.499219948425889 5.1269044736400247 2.6860775146633387 2.440826958976686 4.881653917953372 2.6743989167734981 2.440826958976686 2.8378992872312665 3.1999358218163252 2.2773265885189176 2.440826958976686 4.0407948698848486 2.4057911653071695 4.1692594466730952 4.3794742086902065
leaf_count=282 219 274 294 201 248 231 248 361 300 223 189 192 193 206 191 343 289 244 245 312 224 200 199 296 202 339 269 218 353 216 192 234 214 196 227 267 258 365 189 218 336 187 199 372 310 187 212 315 238 222 229 209 263 218 245 279 308 212 244 302 204 220 206 193 830 216 249 268 316 359 214 223 189 217 340 232 252 268 359 217 210 206 189 247 296 232 189 244 196 209 352 188 276 187 224 198 216 268 263 188 244 193 205 292 301 213 206 192 194 196 278 213 232 263 188 304 251 214 278 309 228 321 195 200 201 239 191 333 297 249 194 226 205 227 229 227 238 188 266 252 215 188 195 208 262 289 215 190 253 241 299 239 192 190 321 309 214 330 205 209 195 442 199 246 221 273 188 265 242 226 194 495 264 488 246 196 355 831 238 200 195 349 203 213 274 197 187 310 219 231 195 688 196 281 205 1438 288 358 196 372 317 207 721 272 223 189 235 222 187 293 188 370 218 201 323 202 261 357 197 340 307 243 196 266 220 522 187 227 268 189 285 320 265 241 303 358 215 312 228 349 253 202 295 520 238 206 285 206 306 225 191 195 244 251 380 285 218 192 218 226 249 310 194 217 187 307 269 194 187 187 192 197 191 192 362 289 193 273 336 5512 188 350 228 187 232 367 214 188 246 188 190 194 196 211 209 365 213 268 265 237 195 283 437 194 192 239 403 198 214 214 191 194 285 217 237 195 209 230 194 190 193 209 217 200 243 313 312 277 527 187 194 190 198 301 214 217 606 272 324 190 187 211 348 306 3951 883 188 187 190 189 193 187 190 422 222 200 243 6383 397 201 4709 227 199 190 532 532 207 191 187 223 227 292 188 240 239 191 187 193 229 193 219 372 2927 275 342 714 202 663 187 2930 189 257 189 187 266 294 303 192 288 368 190 253 188 223 230 824 187 197 270 350 213 11364 265 210 252 195 226 385 1400 187 390 197 1994 190 205 243 188 752 187 189 189 195 343 202 205 192 188 187 187 196 529 188 220 7360 219 213 253 7239 187 359 187 3992 187 613 229 195 330 188 187 187 251 188 257 11387 235 276 233 334 198 187 203 189 363 281 4171 191 276 195 3136 1849 853 22953 15375 31684 198 705 188 188 439 5682 2831 3407 1937 571 2205 407 1743 196 243 203 357 2245 1545 307 359 286 214 1357 208 806 801 1766 741 689 819 1495 1089 883 1082 327 376 545 741 381 202 439 438 306 206 401 522 187 230 269 356 243 392 873 707 784 251 225 334 306 203 206 205 233 196 214 439 230 209 418 229 209 243 274 195 209 346 206 357 375
internal_value=-4.42622 -4.24739 -4.10893 -4.01194 -4.43497 -4.43543 -3.58384 -4.0716 -3.89997 -4.38027 -4.43995 -4.34597 -4.33193 -4.31436 -4.12653 -4.32732 -4.395 -4.33441 -4.44163 -4.08714 -4.43345 -4.3376 -4.05757 -3.96451 -4.41439 -4.34505 -4.32275 -4.3907 -4.31696 -3.8254 -4.30091 -4.06759 -4.41462 -4.32598 -4.30569 -4.17743 -4.27048 -4.40977 -4.30897 -4.26749 -4.13864 -4.17348 -4.22279 -4.19673 -4.15077 -3.66928 -4.19186 -4.11098 -4.07537 -4.32491 -4.27092 -4.24097 -4.20888 -4.26285 -4.30728 -4.27322 -4.1317 -4.37422 -4.34318 -4.37416 -4.34167 -4.32116 -4.20174 -4.38693 -4.43922 -4.3135 -4.42026 -4.39247 -4.34362 -4.43193 -4.31882 -4.27896 -4.41753 -4.34773 -4.39349 -4.28721 -4.32644 -4.29142 -4.39106 -4.29688 -4.31526 -4.25667 -4.39672 -4.31531 -4.28505 -4.43719 -4.27024 -4.39307 -4.36987 -4.34718 -4.42315 -4.41237 -4.34984 -4.19208 -4.38444 -4.41538 -4.29926 -4.42938 -4.37109 -4.34531 -4.31365 -4.36425 -4.38326 -4.35934 -4.34317 -4.42012 -4.3946 -4.38152 -4.34821 -4.42633 -4.41331 -4.31693 -4.34327 -4.39926 -4.19645 -4.39427 -4.38338 -4.30481 -4.36869 -4.41414 -4.41851 -4.37541 -4.40572 -4.39091 -4.36347 -4.37463 -4.38552 -4.39727 -4.38225 -4.35801 -4.30702 -4.40423 -4.35234 -4.4119 -4.37779 -4.42225 -4.4074 -4.39464 -4.37322 -4.39729 -4.41898 -4.388 -4.37705 -4.41548 -4.36583 -4.3582 -4.34554 -4.36573 -4.42563 -4.37404 -4.41989 -4.41477 -4.39632 -4.40867 -4.35699 -4.4381 -4.41183 -4.41384 -4.42125 -4.44276 -4.41548 -4.43047 -4.39737 -4.4276 -4.42323 -4.44711 -4.43892 -4.42434 -4.39611 -4.38552 -4.39938 -4.4345 -4.42492 -4.41624 -4.40348 -4.38569 -4.40382 -4.42661 -4.41321 -4.43211 -4.42232 -4.39276 -4.43016 -4.4208 -4.4318 -4.43819 -4.42886 -4.40368 -4.43473 -4.43638 -4.39993 -4.42456 -4.40514 -4.41114 -4.44744 -4.44097 -4.41863 -4.4218 -4.39942 -4.42783 -4.42444 -4.40457 -4.43702 -4.42468 -4.40259 -4.42495 -4.42423 -4.4142 -4.43161 -4.43135 -4.41781 -4.42669 -4.43644 -4.43361 -4.42756 -4.41037 -4.44249 -4.44048 -4.39491 -4.42713 -4.42606 -4.43899 -4.37554 -4.43774 -4.38469 -4.4394 -4.43467 -4.4311 -4.42073 -4.40292 -4.42791 -4.42214 -4.41417 -4.39607 -4.42539 -4.42766 -4.42336 -4.41039 -4.39106 -4.37113 -4.43168 -4.43634 -4.42441 -4.43064 -4.41301 -4.41287 -4.43982 -4.44258 -4.42838 -4.44384 -4.42127 -4.43933 -4.42479 -4.41027 -4.43914 -4.43079 -4.44411 -4.43174 -4.43914 -4.43949 -4.42067 -4.43483 -4.43716 -4.44178 -4.43572 -4.42296 -4.43774 -4.42264 -4.41913 -4.39838 -4.43634 -4.43983 -4.3878 -4.43611 -4.44764 -4.44428 -4.43271 -4.44444 -4.43518 -4.44458 -4.44023 -4.42805 -4.44158 -4.42789 -4.44357 -4.44533 -4.44127 -4.44167 -4.4361 -4.44209 -4.43378 -4.41287 -4.44315 -4.43951 -4.43611 -4.4229 -4.43954 -4.44154 -4.42482 -4.43606 -4.44476 -4.44135 -4.43021 -4.44088 -4.44185 -4.4397 -4.44128 -4.4435 -4.44359 -4.44046 -4.43815 -4.44472 -4.43663 -4.4406 -4.44253 -4.43722 -4.43964 -4.42704 -4.44399 -4.42889 -4.44316 -4.42977 -4.43461 -4.44481 -4.44391 -4.43811 -4.44588 -4.44536 -4.4368 -4.42228 -4.44615 -4.43241 -4.44526 -4.43345 -4.44588 -4.43423 -4.44239 -4.44657 -4.43593 -4.44675 -4.44477 -4.44038 -4.43205 -4.41783 -4.44656 -4.44515 -4.44679 -4.44605 -4.44702 -4.44564 -4.44498 -4.44432 -4.44542 -4.44733 -4.44695 -4.44501 -4.44383 -4.44575 -4.44453 -4.43279 -4.44511 -4.4353 -4.44812 -4.44326 -4.44487 -4.4443 -4.44497 -4.44434 -4.44583 -4.43478 -4.44645 -4.43681 -4.44165 -4.44705 -4.44756 -4.44348 -4.44107 -4.44124 -4.44577 -4.44103 -4.44585 -4.44373 -4.44488 -4.43926 -4.4471 -4.44535 -4.43894 -4.44793 -4.44421 -4.44768 -4.43955 -4.448 -4.442 -4.44774 -4.4403 -4.44714 -4.44182 -4.44783 -4.44313 -4.44811 -4.44188 -4.44681 -4.44007 -4.44803 -4.4473 -4.4395 -4.44494 -4.44761 -4.44441 -4.44753 -4.44194 -4.44785 -4.44704 -4.44036 -4.44736 -4.44112 -4.44764 -4.44206 -4.44776 -4.44245 -4.44811 -4.44835 -4.44783 -4.44825 -4.4461 -4.44705 -4.44811 -4.44757 -4.44755 -4.44802 -4.44747 -4.44772 -4.44725 -4.44833 -4.44721 -4.44726 -4.44697 -4.4468 -4.44672 -4.44705 -4.44659 -4.44663 -4.44823 -4.44846 -4.44819 -4.44844 -4.44771 -4.44784 -4.44641 -4.44709 -4.44783 -4.44824 -4.44641 -4.44835 -4.44796 -4.44831 -4.44475 -4.44563 -4.44514 -4.44487 -4.44436 -4.44837 -4.44767 -4.44788 -4.44553 -4.43381 -4.44747 -4.44855 -4.4485 -4.44376 -4.44852 -4.44538 -4.44854 -4.44752 -4.44828 -4.4486 -4.4459 -4.44863 -4.44791 -4.44867 -4.44767 -4.4487 -4.4487 -4.4487 -4.4487 -4.4487 -4.4487 -4.4487 -4.4487 -4.4487 -4.4487 -4.4487 -4.4487 -4.4487 -4.4487 -4.4487 -4.4487 -4.4487 -4.4487 -4.4487 -4.4487 -4.4487 -4.4487 -4.4487 -4.4487 -4.4487 -4.4487 -4.4487 -4.4487 -4.4487 -4.4487 -4.4487 -4.4487 -4.4487 -4.4487 -4.4487 -4.4487 -4.4487 -4.4487 -4.4487 -4.4487 -4.4487 -4.4487 -4.4487 -4.4487 -4.4487 -4.4487 -4.4487 -4.4487 -4.4487 -4.4487 -4.4487 -4.4487 -4.4487 -4.4487 -4.4487 -4.4487 -4.4487 -4.4487 -4.4487 -4.4487 -4.4487 -4.4487 -4.4487 -4.4487 -4.4487 -4.4487 -4.4487 -4.4487 -4.4487 -4.4487 -4.4487 -4.4487 -4.4487 -4.4487 -4.4487 -4.4487 -4.4487 -4.4487 -4.4487 -4.4487 -4.4487 -4.4487 -4.4487
internal_weight=3798.63 177.095 67.1404 50.6035 3621.53 3618.64 6.1897 44.4138 10.7677 273.968 3344.67 137.083 109.954 93.7559 33.6461 111.087 120.371 84.1561 3224.3 26.4171 1293.94 103.963 22.7733 8.30351 300.385 99.4433 67.8994 116.424 71.9986 4.84664 55.4617 6.23639 136.885 67.8761 17.0858 7.12396 7.22906 103.286 54.0486 32.3614 9.59983 4.51963 15.2406 12.6947 8.35022 4.53132 6.39988 14.4698 10.0553 43.7831 10.3706 10.2655 8.05825 5.61741 17.1208 11.0129 6.37653 87.683 25.471 32.7818 33.4125 18.1135 6.02617 62.2119 993.557 7.22906 129.656 13.8275 12.683 324.467 7.6962 5.10355 86.9589 23.1003 23.3338 4.95173 9.44799 6.07288 59.7361 13.0217 10.4874 4.8583 33.3307 8.99253 6.10791 237.508 4.72984 31.5439 15.4975 10.721 124.354 64.1973 31.0067 4.41452 25.9265 62.0017 4.90502 183.961 19.7485 10.3122 5.92106 18.1486 5.09187 26.1017 17.261 12.4377 57.4821 32.7351 9.0626 70.5037 36.4022 7.7546 5.26705 9.43631 4.40284 23.6725 5.78091 4.94005 6.10791 46.2823 42.6736 6.36484 16.5369 8.8407 4.95173 15.8946 13.3603 22.8901 15.042 9.0626 5.17362 19.4799 5.30209 24.747 5.32544 40.3145 19.3631 13.5589 8.82902 6.04952 5.97944 4.39116 6.82031 16.0464 5.62909 13.7457 10.3356 6.96045 25.9966 6.24805 57.05 46.4808 16.1165 13.8742 6.54002 234.798 25.3075 15.9296 19.4215 669.09 10.6976 53.6281 7.35752 12.6362 35.7599 1930.36 74.9649 25.5294 12.6713 9.84506 7.2057 137.679 38.2941 23.9528 15.7194 9.51806 6.43491 33.1789 13.7691 100.436 30.3176 6.35316 23.9645 4.77655 22.3412 99.3849 31.357 5.92105 25.436 117.195 4.55465 30.3644 7.64948 6.50498 1855.39 28.741 5.90937 11.5618 4.50794 17.0274 10.9896 5.03348 34.23 13.8742 5.78091 10.2888 13.6172 9.6582 70.1884 23.0419 10.067 7.06555 12.683 16.1982 8.40859 4.6364 68.0278 13.5121 4.54298 6.17798 7.84802 22.8784 4.55466 10.137 4.8583 14.3413 60.1565 22.7149 11.9122 5.33712 29.9206 21.7456 15.4391 5.90937 9.52974 52.799 38.5744 15.0771 9.24945 6.58673 23.4973 70.1183 14.6333 12.2976 6.22469 6.8203 15.007 134.362 10.9312 123.431 4.8583 14.2245 12.0757 5.78091 9.29616 6.20134 551.896 14.4114 13.9442 55.485 5.54734 8.01152 19.2463 16.0464 20.5427 7.76627 12.1574 5.11523 4.50794 4.41451 19.7719 17.5296 4.74151 19.4098 1821.16 145.655 12.5078 537.484 6.57505 534.296 34.1015 8.60713 49.9377 7.4743 406.906 230.5 176.405 173.906 7.05387 171.36 19.3514 6.8203 152.009 65.295 45.8735 9.47134 36.4022 34.1132 5.58237 7.03052 118.573 30.2359 8.40859 8.52538 12.9749 7.40423 11.9706 47.0064 17.3894 8.09327 6.31812 44.694 5.52398 8.23341 10.8027 5.80426 17.1675 5.12691 42.4634 4.48458 20.0405 4.6948 4.72983 28.5308 64.9797 6.29476 86.7136 133.148 11.1998 5.04516 121.948 5.45391 116.295 5.82762 110.468 6.14294 10.5691 104.325 6.96045 22.8317 62.1418 24.0346 12.0056 5.75755 83.0699 12.5311 116.494 41.9962 39.8123 21.8273 11.9472 10.137 20.3558 97.3645 25.401 12.0406 9.13266 226.214 149.346 6.9838 142.362 9.95017 76.8685 8.17502 11.5968 15.1588 17.8683 25.4944 23.2638 4.78823 49.4355 5.60573 6.30644 80.8743 78.0714 12.7764 5.82762 5.95609 37.9788 5.79258 132.412 62.5739 58.2295 16.4668 41.7627 13.2552 4.55465 1675.51 29.6987 43.8298 4.8583 1645.81 9.95017 69.838 5.29041 114.228 9.69324 127.39 11.9706 75.2802 6.51666 35.3161 5.15026 1635.86 382.626 14.4931 11.8071 368.133 25.8915 38.1073 6.57505 342.241 174.151 7.98816 166.163 8.79398 104.535 6.69184 94.8653 7.11227 37.5467 64.5476 25.471 1253.23 42.7203 40.5014 38.1073 19.62 19.4215 97.8433 18.1369 22.7382 15.3457 1210.51 14.8902 15.4508 12.8581 11.6786 11.2115 13.5121 10.5458 10.7326 95.636 93.0667 87.753 85.1954 157.369 155.068 58.1361 55.1814 50.9888 48.8049 9.72827 1208.15 30.1658 115.42 11.2582 7.24073 6.24805 5.80426 5.11523 1205.55 193.76 190.758 42.0663 5.96776 36.0985 148.692 1011.79 4.49626 1007.29 6.69184 1000.6 56.6529 53.3712 943.946 7.95313 935.993 56.3376 879.655 21.5937 858.062 452.744 405.317 168.09 144.791 90.4274 96.9324 184.685 82.7078 165.778 104.161 68.7636 35.3278 31.5322 38.9715 35.9117 51.0004 52.0982 62.2469 35.2927 33.3774 22.8083 37.7686 27.4914 15.9296 18.4755 22.5163 20.4726 17.2376 19.3164 24.817 17.4361 13.2085 12.029 20.4609 15.5559 12.7063 15.4741 20.6127 9.4947 9.72827 10.8494 10.6626 10.6976 8.98084 8.53706 11.8071 13.699 8.85238 10.2655 8.36188 7.82466 7.95313 7.03052 9.05091 11.2465 12.391 12.8114 13.1618 9.02756 5.95608 7.04219 6.51666 6.80862 5.19698 5.04515 6.25973 4.48458 5.72251 7.62612 6.25973 4.89333 7.25241 5.36048 5.10355 7.54437 5.69916 4.4729 4.84662 6.87869 5.54733 7.50934 6.66848
internal_count=325264 15164 5749 4333 310100 309852 530 3803 922 23459 286393 11738 9415 8028 2881 9512 10307 7206 276086 2262 110796 8902 1950 711 25721 8515 5814 9969 6165 415 4749 534 11721 5812 1463 610 619 8844 4628 2771 822 387 1305 1087 715 388 548 1239 861 3749 888 879 690 481 1466 943 546 7508 2181 2807 2861 1551 516 5327 85075 619 11102 1184 1086 27783 659 437 7446 1978 1998 424 809 520 5115 1115 898 416 2854 770 523 20337 405 2701 1327 918 10648 5497 2655 378 2220 5309 420 15752 1691 883 507 1554 436 2235 1478 1065 4922 2803 776 6037 3117 664 451 808 377 2027 495 423 523 3963 3654 545 1416 757 424 1361 1144 1960 1288 776 443 1668 454 2119 456 3452 1658 1161 756 518 512 376 584 1374 482 1177 885 596 2226 535 4885 3980 1380 1188 560 20105 2167 1364 1663 57292 916 4592 630 1082 3062 165290 6419 2186 1085 843 617 11789 3279 2051 1346 815 551 2841 1179 8600 2596 544 2052 409 1913 8510 2685 507 2178 10035 390 2600 655 557 158871 2461 506 990 386 1458 941 431 2931 1188 495 881 1166 827 6010 1973 862 605 1086 1387 720 397 5825 1157 389 529 672 1959 390 868 416 1228 5151 1945 1020 457 2562 1862 1322 506 816 4521 3303 1291 792 564 2012 6004 1253 1053 533 584 1285 11505 936 10569 416 1218 1034 495 796 531 47257 1234 1194 4751 475 686 1648 1374 1759 665 1041 438 386 378 1693 1501 406 1662 155940 12472 1071 46023 563 45750 2920 737 4276 640 34842 19737 15105 14891 604 14673 1657 584 13016 5591 3928 811 3117 2921 478 602 10153 2589 720 730 1111 634 1025 4025 1489 693 541 3827 473 705 925 497 1470 439 3636 384 1716 402 405 2443 5564 539 7425 11401 959 432 10442 467 9958 499 9459 526 905 8933 596 1955 5321 2058 1028 493 7113 1073 9975 3596 3409 1869 1023 868 1743 8337 2175 1031 782 19370 12788 598 12190 852 6582 700 993 1298 1530 2183 1992 410 4233 480 540 6925 6685 1094 499 510 3252 496 11338 5358 4986 1410 3576 1135 390 143468 2543 3753 416 140925 852 5980 453 9781 830 10908 1025 6446 558 3024 441 140073 32763 1241 1011 31522 2217 3263 563 29305 14912 684 14228 753 8951 573 8123 609 3215 5527 2181 107310 3658 3468 3263 1680 1663 8378 1553 1947 1314 103652 1275 1323 1101 1000 960 1157 903 919 8189 7969 7514 7295 13475 13278 4978 4725 4366 4179 833 103450 2583 9883 964 620 535 497 438 103227 16591 16334 3602 511 3091 12732 86636 385 86251 573 85678 4851 4570 80827 681 80146 4824 75322 1849 73473 38767 34706 14393 12398 7743 8300 15814 7082 14195 8919 5888 3025 2700 3337 3075 4367 4461 5330 3022 2858 1953 3234 2354 1364 1582 1928 1753 1476 1654 2125 1493 1131 1030 1752 1332 1088 1325 1765 813 833 929 913 916 769 731 1011 1173 758 879 716 670 681 602 775 963 1061 1097 1127 773 510 603 558 583 445 432 536 384 490 653 536 419 621 459 437 646 488 383 415 589 475 643 571
is_linear=0
shrinkage=1


Tree=1
num_leaves=1152
num_cat=0
split_feature=210 326 60 54 210 18 527 194 210 18 0 527 527 375 12 431 355 60 325 472 355 264 272 302 190 18 52 12 355 272 437 60 60 16 246 190 16 326 550 400 311 276 18 28 537 6 52 528 266 607 322 60 144 16 60 220 400 326 6 355 210 431 437 324 304 12 50 16 12 20 431 220 463 60 16 311 226 16 16 8 472 18 14 12 326 28 190 14 276 190 220 6 375 355 6 220 276 18 20 16 12 220 8 593 325 431 530 18 6 272 593 12 184 220 530 16 304 12 16 264 30 220 361 124 220 12 222 431 14 142 302 276 530 304 16 326 122 20 266 463 359 228 222 361 20 322 8 400 12 529 144 326 276 28 18 272 222 400 431 538 142 222 122 6 190 50 6 607 602 46 6 400 326 302 528 361 28 431 272 16 304 264 222 304 50 20 30 387 325 266 198 304 222 585 361 222 16 528 530 6 326 302 228 272 16 184 609 108 12 601 220 16 124 585 8 304 609 472 431 92 593 12 513 322 266 324 302 28 304 14 607 427 50 122 530 204 537 326 60 574 6 304 222 607 210 46 30 20 302 304 222 108 537 276 541 156 583 388 108 539 266 387 326 431 513 304 290 190 431 210 46 538 527 361 431 12 304 326 356 530 528 16 226 427 537 302 431 431 6 190 272 593 389 609 122 529 326 8 554 607 513 204 50 311 6 282 28 108 304 14 607 324 511 6 222 538 568 14 304 564 602 116 568 266 18 18 539 304 322 609 530 18 60 6 609 463 6 18 539 322 591 190 14 529 46 60 463 327 356 311 116 431 607 28 156 16 204 14 50 410 539 222 30 160 14 550 375 264 562 124 12 266 530 530 513 302 550 595 204 220 514 50 587 210 511 142 431 516 463 387 463 266 609 222 222 539 210 508 537 142 190 122 537 160 28 574 12 18 156 388 116 575 539 190 393 50 220 539 34 519 222 508 190 108 114 484 382 28 383 210 311 514 427 472 519 46 607 484 564 18 280 463 276 228 463 18 564 144 272 555 326 160 276 529 571 531 508 607 50 472 484 108 232 8 46 8 304 304 508 589 589 276 272 210 18 144 272 184 290 302 210 326 18 18 18 18 144 326 266 144 326 142 14 18 52 326 326 210 218 50 387 14 28 375 16 571 272 302 266 266 6 356 144 389 550 356 356 375 14 88 356 210 144 311 326 60 210 326 226 311 431 210 14 528 142 14 361 16 190 588 326 18 18 326 514 18 290 8 326 311 14 326 326 108 50 427 326 588 52 302 514 50 304 272 60 18 528 144 16 210 276 302 427 108 266 571 326 18 311 156 516 60 361 568 142 516 14 60 60 142 591 220 220 326 591 52 14 389 14 264 6 156 290 156 132 508 463 204 574 142 220 52 226 389 220 375 6 18 14 14 14 220 52 14 124 529 550 607 6 232 290 272 108 6 8 108 50 50 16 375 427 108 18 108 587 388 276 431 591 587 326 108 516 499 431 541 122 327 8 204 602 388 210 14 595 108 290 246 184 568 326 302 272 160 6 326 326 14 530 254 46 108 326 190 18 290 6 389 585 530 356 609 276 463 311 326 8 184 18 52 28 472 28 108 326 593 602 50 514 484 568 246 326 311 311 530 537 14 514 487 52 322 142 190 12 144 18 311 290 14 50 530 248 46 585 514 198 8 484 593 562 529 222 210 356 246 302 431 302 108 583 210 574 326 529 550 46 8 326 324 515 28 18 585 210 387 190 356 6 46 361 568 290 122 50 290 427 276 356 311 190 322 190 609 311 575 46 514 324 529 226 122 8 514 427 359 6 190 272 246 8 427 50 266 266 276 156 472 122 431 574 326 302 8 6 537 246 16 6 272 50 220 361 304 427 322 8 16 8 144 388 324 6 412 609 431 537 8 302 326 463 322 8 6 560 387 609 302 52 601 290 46 46 272 8 220 311 568 311 156 52 356 190 220 593 463 52 574 311 272 302 431 494 204 18 8 585 210 290 264 290 52 14 326 326 574 12 122 16 266 16 302 302 246 266 562 568 355 508 388 222 311 160 389 322 463 389 6 304 210 266 463 50 593 28 326 431 609 52 472 190 266 387 122 6 324 28 304 484 8 220 587 122 302 609 190 6 46 8 198 8 266 302 387 389 272 266 6 484 52 311 607 228 8 46 60 142 356 607 539 8 190 28 6 484 593 302 246 304 562 514 387 210 46 327 487 16 18 190 550 46 14 516 144 388 302 537 334 530 246 463 587 254 311 8 431 387 560 222 142 190 562 530 222 463 8 116 6 587 264 326 46 302 8 46 12 302 18 324 387 575 356 6 609 487 190 50 541 14 18 108 220 387 160 560 12 609 587 484 210 28 463 160 50 602 568 530 210 609 607 539 387 302 326 530 210 463 355 72 6 355 190 222 264 431 46 463 6 220 232 356 116 463 472 226 264 266 529 431 514 356 190 220 326 593 322 463 539 355 302 226 322 210 276 266 46 302 513 508 602 531 6 276 156 246 210 18 508 14 602 6 410 562 585 6 8 6 8 108 12 246 6 6 6 8 8 8 246 304 6 6 6 8 12 12 16 18 144 560 6 6 6 6 6 6 6 12 14 144 220 322
